,0,1,2,3,4,5,6,7,8,9,10,11,12,13,14,15,16,17,18,19,20,21,22,23,24,25,26,27,28,29,30,31,32,33,34,35,36,37,38,39,40,41,42,43,44,45,46,47,48,49,50,51,52,53,54,55,56,57,58,59,60,61,62,63,64,65,66,67,68,69,70,71,72,73,74,75,76,77,78,79,80,81,82,83,84,85,86,87,88,89,90,91,92,93,94,95,96,97,98,99,100,101,102,103,104,105,106,107,108,109,110,111,112,113,114,115,116,117,118,119,120,121,122
0,-1.3094265460968018,-1.6357288360595703,-0.9330788254737854,-0.20655550062656403,0.42937004566192627,1.1623027324676514,-0.38933753967285156,2.1749536991119385,-0.21378867328166962,0.20426511764526367,2.0132036209106445,0.012060198932886124,-1.4969205856323242,-0.6172919273376465,-0.018702898174524307,1.407118558883667,0.9951534867286682,-0.7113534212112427,-0.4963844120502472,2.160189151763916,0.6007745862007141,-1.2282150983810425,-0.9989617466926575,-0.2677980363368988,0.9946231245994568,1.0217020511627197,-0.7879266738891602,0.22028206288814545,-1.426835060119629,-0.4142468571662903,0.6701721549034119,0.5771991610527039,-0.016552044078707695,-0.16186024248600006,1.2596780061721802,0.7954372763633728,-0.22693990170955658,-1.3279526233673096,0.7237614393234253,1.1772937774658203,0.0034425181802362204,-0.26517170667648315,-0.3850732147693634,-0.015370875597000122,1.0419414043426514,0.0008733599679544568,-1.42631196975708,0.6642648577690125,2.631770133972168,-0.605713963508606,0.8434802293777466,-0.06931976974010468,-0.561654269695282,-0.08789542317390442,-1.5482404232025146,-0.029621561989188194,-0.8607569932937622,0.18275238573551178,0.065799281001091,0.24440106749534607,-0.9504328966140747,1.1513043642044067,1.8839706182479858,0.684704601764679,0.8458619117736816,-1.9366778135299683,1.879462718963623,-0.6408072113990784,-0.3312518000602722,1.3614723682403564,-2.1623079776763916,-0.06740123778581619,-1.416265606880188,0.5278156399726868,-0.3531492352485657,0.6421303153038025,-0.350019246339798,0.6856813430786133,-0.5757510662078857,-0.3856450021266937,0.9443671703338623,0.783865749835968,-0.37809035181999207,1.36446213722229,1.159307837486267,0.07882899791002274,0.5485960841178894,0.490425705909729,0.6209269165992737,1.5799118280410767,0.005118777509778738,0.056717291474342346,-0.48781245946884155,-1.5509560108184814,1.1409488916397095,-1.5715299844741821,0.6697429418563843,-1.4339655637741089,0.8722191452980042,1.024673342704773,1.3211231231689453,-1.3692179918289185,-1.6999810934066772,0.42918238043785095,-0.14525023102760315,0.9970827102661133,-0.5899694561958313,-0.5595473051071167,-0.7938587069511414,0.03449183329939842,0.03751552104949951,-0.05909508466720581,-0.35103753209114075,-0.7442959547042847,1.3590108156204224,-0.30927547812461853,-0.5000090003013611,-1.095429539680481,0.5909210443496704,-1.6026839017868042,0.5329752564430237,-0.6221319437026978,0.9096307158470154
1,0.06825998425483704,0.06750935316085815,-1.7389647960662842,-1.753671407699585,0.14848825335502625,-1.7387466430664062,1.7586967945098877,-0.8693476319313049,-0.071688212454319,0.7472154498100281,-0.9558203220367432,1.1872880458831787,-0.1650712490081787,-0.7076454162597656,1.1544456481933594,-0.18310225009918213,0.46369490027427673,-0.3046484589576721,0.6231589317321777,-1.0593667030334473,-2.748216152191162,0.3683135509490967,-1.0982494354248047,-1.2572346925735474,0.8977209329605103,-0.02268110029399395,0.6957677006721497,0.9762805700302124,-1.8028302192687988,1.0825260877609253,0.5985146760940552,0.5399792194366455,1.456354022026062,0.01996522955596447,0.7815067768096924,-0.1778629720211029,-0.5126198530197144,-1.0190908908843994,1.3788126707077026,-0.04799657315015793,0.45358818769454956,0.056757815182209015,-0.9270324110984802,0.9689635634422302,-0.03205385431647301,1.6037360429763794,0.8757927417755127,-0.9130116701126099,0.5846943259239197,-1.8841568231582642,-0.27553677558898926,0.24860027432441711,0.24430987238883972,0.9246424436569214,0.4120197892189026,-0.3561272919178009,1.3355101346969604,0.2556600272655487,1.4566187858581543,-0.09789523482322693,1.8121016025543213,-0.7488669157028198,-0.24334624409675598,-1.2594904899597168,-0.19542443752288818,-0.1727326214313507,0.7430083155632019,0.7462913990020752,-2.1349663734436035,1.306295394897461,-1.671673059463501,0.11449968814849854,-1.0557844638824463,1.1067051887512207,1.5103472471237183,1.2616326808929443,-1.5293928384780884,-1.0431318283081055,0.13218064606189728,2.587026357650757,0.5229798555374146,-1.3030858039855957,0.6995899677276611,0.023173082619905472,-0.2431466430425644,0.030802229419350624,0.06872560828924179,0.191920667886734,0.32161858677864075,0.05004597082734108,-0.004674502182751894,-0.08191018551588058,-0.22473326325416565,0.34698063135147095,-0.9994668960571289,-0.4544375240802765,0.5930149555206299,-1.2176367044448853,-0.44836679100990295,-0.6033697128295898,2.0646281242370605,1.0109118223190308,0.3172171711921692,1.0420223474502563,-0.5409592986106873,0.7061441540718079,-1.1751328706741333,2.3209829330444336,-0.22696685791015625,1.2539137601852417,0.27931100130081177,0.3418472707271576,0.8177887797355652,0.38031619787216187,0.2311822921037674,-1.2098208665847778,1.020806908607483,0.012072642333805561,0.5647460222244263,-1.000864863395691,0.012350508011877537,1.188840627670288,0.3735586106777191
2,-0.23334412276744843,-1.3121169805526733,1.6907732486724854,-0.8548615574836731,-0.2854735553264618,-0.3278326988220215,1.772308349609375,-0.12706932425498962,-0.6874814629554749,0.3683997690677643,-0.1829594373703003,-0.6569979786872864,0.6603468060493469,1.2168219089508057,-1.0017662048339844,-0.7266193628311157,1.6016026735305786,-0.3845258057117462,-0.8261212110519409,0.6997897028923035,-0.8814058303833008,-2.084524393081665,1.2424737215042114,-0.355646014213562,-0.3651770353317261,-0.08622762560844421,-1.3726396560668945,1.0876555442810059,0.6146175861358643,-0.4802692234516144,0.2728259265422821,0.6003442406654358,-0.42230334877967834,1.8553828001022339,0.3919486403465271,-1.2300666570663452,0.8976106643676758,0.4223043918609619,-1.757379174232483,-0.48665371537208557,-0.1110847219824791,-0.43832263350486755,-0.42146211862564087,-0.40573111176490784,0.4600519835948944,0.5592238903045654,-1.8623170852661133,1.9122313261032104,-2.3911077976226807,0.9699497222900391,-0.05144226923584938,0.32872575521469116,0.442455530166626,-0.6385080814361572,0.7358481884002686,0.6527758240699768,-1.9853476285934448,1.192359447479248,-1.0214821100234985,0.712327241897583,0.11289046704769135,0.957223117351532,-0.19450557231903076,-0.21047404408454895,0.6967058181762695,-1.2419335842132568,-0.5044942498207092,-0.9995561838150024,1.1338083744049072,-1.0953258275985718,-0.032547418028116226,-0.0360320582985878,0.8087332248687744,-0.3508337140083313,-0.5647187829017639,-0.732725203037262,0.7543600797653198,0.4717004895210266,-0.8877959251403809,-1.2668753862380981,-1.2842622995376587,1.6543186902999878,-0.2836030125617981,-1.238407850265503,-1.2258851528167725,0.48628994822502136,1.2025986909866333,0.9918655157089233,0.7636323571205139,0.48675188422203064,-0.0946100503206253,-1.2930853366851807,-0.47016486525535583,-1.6350972652435303,0.4445905089378357,-0.11521010100841522,-1.218711256980896,-1.0199989080429077,1.7872040271759033,0.8393287062644958,0.5402138829231262,0.19838865101337433,-0.7599843740463257,-0.27881646156311035,-1.4691003561019897,1.5269145965576172,1.8890782594680786,-1.3843225240707397,0.3491961658000946,-1.0491178035736084,1.331170678138733,-0.13032351434230804,1.843532919883728,0.03931233286857605,2.010775089263916,-1.2250157594680786,-1.134179711341858,1.422743320465088,-0.1400378793478012,0.8599037528038025,0.2511829435825348,0.32262852787971497,-1.433044672012329
3,-1.0179985761642456,0.12817971408367157,0.05582888424396515,1.5392986536026,-2.1053450107574463,-0.280905157327652,-0.8085850477218628,0.6590014696121216,1.379315972328186,-1.5006487369537354,2.2977211475372314,0.03257014602422714,-0.37948328256607056,0.3100855052471161,-0.24378767609596252,-1.2757598161697388,-0.5398918986320496,-0.8377295732498169,-1.9640121459960938,0.6386093497276306,-0.6460636258125305,-2.096615791320801,-1.0146130323410034,0.8524798154830933,-0.8153098225593567,-0.8601378798484802,-1.5922216176986694,0.6823803186416626,1.1251468658447266,-1.9247757196426392,1.4939385652542114,1.1121209859848022,0.21773195266723633,-0.4003192186355591,0.06365972012281418,-0.8422210812568665,0.47162237763404846,-0.33981963992118835,1.2853727340698242,0.21363607048988342,-1.0521364212036133,1.486586093902588,0.7455084919929504,-0.974166214466095,0.7459965348243713,0.9459997415542603,1.6793617010116577,-0.3643161654472351,0.06901763379573822,-0.3533211946487427,0.41342318058013916,2.0864930152893066,0.3715265393257141,0.717193067073822,-1.906117558479309,-0.1786527931690216,-2.637132167816162,0.1900915652513504,-1.0999618768692017,0.07338154315948486,-0.5643932819366455,-2.2955377101898193,0.06255416572093964,1.651883840560913,-0.42930638790130615,-1.313664197921753,0.40720999240875244,0.13290506601333618,1.8261058330535889,-0.8645027279853821,-0.7595075964927673,0.7397840619087219,-0.2720678448677063,-0.18257437646389008,1.0201971530914307,-3.10774827003479,1.5819498300552368,-0.35224899649620056,-0.39693212509155273,1.0090736150741577,-0.25821080803871155,1.2489819526672363,0.3214937746524811,1.753416895866394,0.5189581513404846,-0.154673770070076,-0.6394028067588806,0.4034631848335266,-0.20698212087154388,0.2526865303516388,-1.16750168800354,1.520731806755066,-1.0467866659164429,-0.09682708978652954,-1.0127884149551392,0.11152557283639908,0.27299264073371887,-0.9410643577575684,-0.44028761982917786,-1.8240660429000854,-0.966442883014679,0.005313022527843714,-1.513787865638733,-0.08537572622299194,1.1343129873275757,-0.31556829810142517,0.5935990214347839,1.0790417194366455,-0.2679179012775421,-0.8357111811637878,-1.9654144048690796,-0.49667033553123474,-0.6323313117027283,-0.5038339495658875,-1.328389048576355,-2.2079122066497803,-0.21406516432762146,-0.02936606854200363,0.24365852773189545,-0.46099716424942017,-1.2108173370361328,-1.4075292348861694,0.8625233769416809
4,1.549195408821106,0.6703634262084961,0.6195448637008667,-0.4416521489620209,-0.03718765079975128,0.20530928671360016,0.21333558857440948,-1.4346365928649902,-1.3091217279434204,1.4209527969360352,-1.13111412525177,-0.5980695486068726,0.30007508397102356,-0.23087696731090546,-1.5612070560455322,0.3463675379753113,0.14747098088264465,2.136622905731201,-0.14521557092666626,0.8188744187355042,0.8417896628379822,0.912422776222229,0.9813076257705688,-1.7305467128753662,0.6510602831840515,0.5453454852104187,0.279215008020401,-1.690425157546997,-2.0146148204803467,-0.21607302129268646,-0.13245181739330292,-0.6252249479293823,-0.5727943181991577,2.900808095932007,0.5501430630683899,0.9656157493591309,-0.3443673253059387,1.4560625553131104,0.09146670997142792,-0.2884066104888916,-0.03120993636548519,0.6043142676353455,-0.18541181087493896,1.0385936498641968,0.8770491480827332,1.8626703023910522,2.5492312908172607,-1.0091238021850586,0.42569223046302795,-0.23357881605625153,-1.2512626647949219,-1.5226675271987915,0.31967994570732117,-0.846432626247406,-1.6446983814239502,-0.41443008184432983,-0.5817460417747498,0.8224637508392334,-0.5491646528244019,-0.07705730944871902,0.3369411528110504,-0.38320785760879517,0.8259994983673096,0.8287914395332336,0.4746144115924835,0.499915212392807,-1.0070596933364868,-0.5609379410743713,0.7817838191986084,-0.3098571002483368,2.5852737426757812,-1.4738383293151855,-0.22803552448749542,-0.9972771406173706,-1.0577239990234375,0.8811123967170715,-0.11796438694000244,-0.6435539722442627,1.59749174118042,0.8698627948760986,-0.8552899956703186,0.7960970401763916,-0.03264402970671654,1.0368417501449585,1.3137390613555908,0.3304007649421692,0.31999728083610535,-0.23306794464588165,1.455251693725586,-0.07100224494934082,0.3289240300655365,-0.7896146774291992,0.6244734525680542,-1.0636566877365112,-1.1754978895187378,0.16187278926372528,-0.42950356006622314,-0.8084083199501038,-0.2832784354686737,-0.598859429359436,-0.3855404555797577,-0.9537374377250671,0.22398360073566437,-1.0990722179412842,-0.05662677064538002,1.3405810594558716,1.2929601669311523,-0.13961859047412872,0.4086877703666687,0.7777849435806274,0.5809715986251831,2.0330185890197754,1.2082096338272095,-0.555537223815918,-0.0785377249121666,0.26537665724754333,0.40680766105651855,1.1574325561523438,-0.6135457158088684,-0.6439831852912903,0.262952983379364,0.49834463000297546,0.8175635933876038
5,-2.413872241973877,0.2987698018550873,1.329252004623413,-0.06642067432403564,-0.01961723528802395,1.3585693836212158,1.1534239053726196,0.10590871423482895,0.7886812090873718,0.17078085243701935,1.6777125597000122,-1.0108907222747803,0.06552652269601822,-0.21840378642082214,-0.2701229453086853,0.22243551909923553,-0.13229846954345703,-0.2539302706718445,0.05479297414422035,-0.4655871093273163,0.48862043023109436,1.0730905532836914,0.8924959897994995,-0.9609463810920715,-0.8431069850921631,-0.47179970145225525,-2.617302894592285,0.41384562849998474,1.7676198482513428,0.32790350914001465,0.1330336183309555,-0.6716967821121216,0.28849709033966064,-0.08425025641918182,-0.7750729322433472,1.296505093574524,-0.9332453608512878,-1.1270697116851807,0.020527906715869904,-1.0034321546554565,-0.9183890223503113,0.4589352011680603,-0.21263200044631958,-0.34613972902297974,-0.10770061612129211,-0.6542160511016846,0.09047266095876694,0.08528106659650803,-1.1475456953048706,0.3918475806713104,0.5596938133239746,0.5766229033470154,-0.4220607876777649,0.3662872910499573,-0.06733819097280502,-1.8436568975448608,-1.0624594688415527,-0.7725157141685486,-1.194987177848816,-1.6742373704910278,-1.7142267227172852,0.4757240414619446,-1.5174833536148071,-0.052265360951423645,1.1875327825546265,-1.6381698846817017,-0.4198247194290161,1.4233019351959229,-0.2082420438528061,0.21643555164337158,-0.7765979766845703,-0.6138343214988708,0.6721265316009521,0.8910471200942993,-1.9704279899597168,0.689918041229248,0.6123403310775757,0.1696062982082367,0.009083517827093601,-0.33450180292129517,1.211837887763977,0.6948764324188232,-0.10931985080242157,-0.42404407262802124,-0.5009860396385193,-0.15762755274772644,0.23794659972190857,-0.522804856300354,-1.0226534605026245,0.932637631893158,0.7590715885162354,-1.1807254552841187,-1.276570200920105,0.8431251645088196,1.4588953256607056,0.5477821230888367,-0.32056841254234314,-1.3884657621383667,-1.1812982559204102,-1.1022645235061646,0.8062969446182251,1.1501003503799438,0.8425899744033813,1.0276892185211182,1.2835776805877686,0.25957435369491577,0.5576556324958801,-0.21870489418506622,-0.4523155093193054,0.08789342641830444,0.44630423188209534,0.4061717391014099,-0.21790462732315063,-0.537240207195282,1.2857646942138672,0.6707993149757385,-0.27317014336586,0.34279781579971313,-0.861953616142273,-0.26257574558258057,0.2631135582923889,0.8594405055046082,0.6532095074653625
6,0.12888488173484802,1.0617464780807495,0.2430957704782486,-1.4841265678405762,-0.26598110795021057,0.9981523752212524,-1.0948514938354492,0.8263872265815735,-0.14508876204490662,1.2075071334838867,-0.27937328815460205,0.3147239685058594,-1.2723675966262817,-0.3380907475948334,0.22347693145275116,-0.2536207437515259,0.2077537328004837,-0.7406767010688782,-0.26053252816200256,0.12399672716856003,-0.11511392891407013,-0.8896435499191284,0.8034246563911438,-0.20475715398788452,0.56490558385849,1.3046624660491943,-0.5826985836029053,-0.6361110806465149,2.2457659244537354,0.5334293246269226,-1.1166784763336182,0.0058853840455412865,-0.34494179487228394,0.14324899017810822,-1.8278220891952515,-0.6406727433204651,-0.2709050476551056,0.27209630608558655,0.7149897217750549,0.02694024331867695,-0.7722716331481934,0.11471489816904068,-0.049333151429891586,-0.9776493310928345,0.47711536288261414,-0.6398749351501465,0.048491016030311584,-0.6685794591903687,0.3705745339393616,0.9127181768417358,0.7785225510597229,0.15980635583400726,0.08384399861097336,-0.530830442905426,0.009747954085469246,0.060395631939172745,0.33389121294021606,0.732172966003418,-2.325986862182617,-0.947192370891571,1.1603659391403198,0.33445900678634644,-0.0082215191796422,0.44613778591156006,0.5951586961746216,-0.005436882376670837,-1.6479262113571167,0.3724527060985565,0.6757606267929077,-0.6086597442626953,0.5693473219871521,-0.5947107076644897,-0.9710606336593628,0.5231838822364807,-2.8814103603363037,0.2240072339773178,1.4901080131530762,-0.5310068726539612,0.47256454825401306,-0.9021997451782227,-1.8051813840866089,-1.0452756881713867,-0.45192256569862366,-1.3503186702728271,-1.8224551677703857,0.864448070526123,-0.6527820229530334,0.739651620388031,1.9035608768463135,1.6077085733413696,0.8863664269447327,0.5951123833656311,-3.2895236015319824,-1.6244547367095947,1.2889981269836426,-0.8942938446998596,-0.15196025371551514,-0.6276082992553711,-0.7574044466018677,2.405082941055298,0.37201571464538574,1.5301307439804077,0.65525221824646,-0.6018055081367493,-0.18848244845867157,-1.0269367694854736,0.20567670464515686,0.22419412434101105,1.0236223936080933,-0.14462557435035706,0.6171351671218872,-0.5079931020736694,0.1511959284543991,-1.3011581897735596,0.2476583570241928,-2.001711130142212,-1.2985910177230835,-1.863011121749878,-0.6119324564933777,0.38568127155303955,-1.4225066900253296,-0.9643362760543823,1.0053138732910156
7,-0.5644490718841553,-0.8609038591384888,2.4636127948760986,-0.42369458079338074,-1.5696003437042236,1.425146222114563,-1.260450005531311,-0.07742612808942795,1.517738699913025,-0.9783065915107727,0.8449862599372864,-0.14525750279426575,1.9597241878509521,0.5484468340873718,0.4250529706478119,-1.3046891689300537,-0.34121108055114746,-0.9069170951843262,-0.6117208003997803,1.1248990297317505,1.4850342273712158,-0.9802859425544739,-0.49644213914871216,0.9378568530082703,-1.2298104763031006,-0.682267963886261,0.8273884654045105,-0.726806640625,-0.5262529850006104,-1.0681856870651245,0.43988117575645447,-0.17270773649215698,-0.0625576302409172,-0.5142432451248169,-0.08362182974815369,-0.40259918570518494,-0.6162023544311523,0.03409057855606079,0.7259865999221802,-0.2823842465877533,-0.8941590785980225,0.6919597387313843,0.7506545186042786,0.388638436794281,1.122143030166626,-0.2928750813007355,-2.0289504528045654,-0.6181595921516418,-1.4126394987106323,1.270914912223816,0.38488563895225525,-0.8740338683128357,0.5027180314064026,-1.810858130455017,-0.9342774748802185,0.7166818976402283,-0.5640109777450562,0.7447229027748108,1.9604065418243408,-1.0561306476593018,-2.0584909915924072,-0.027227099984884262,-0.6379852890968323,-0.03958840295672417,0.4690626859664917,-1.2716730833053589,0.5496774315834045,0.15138442814350128,0.40407058596611023,-1.1138557195663452,0.9616537094116211,-0.89374840259552,-1.3374837636947632,-0.6617947816848755,0.5012637376785278,-0.9484047293663025,0.9197369813919067,1.0771807432174683,-0.8134573101997375,0.7504046559333801,-1.5565088987350464,-1.5685968399047852,0.2442619502544403,-1.4814705848693848,-1.557076334953308,-0.8661354184150696,1.1035393476486206,-0.1742502748966217,-1.2007906436920166,-0.11725959181785583,-0.15004418790340424,0.43457600474357605,1.01836097240448,-0.5332320332527161,-0.5584092736244202,0.5938582420349121,0.15244431793689728,1.3271087408065796,0.19469934701919556,0.24886955320835114,-0.47246047854423523,-0.3881480097770691,-0.25664979219436646,-1.055789828300476,0.32705697417259216,0.1433573216199875,-1.1921228170394897,-1.2843074798583984,-0.0160595141351223,-1.322440505027771,0.020821671932935715,0.5524451732635498,-0.3149060010910034,0.7054556608200073,-0.03792031109333038,-0.1448688954114914,-0.6654114723205566,-0.3870374262332916,-0.7665925025939941,0.22757169604301453,-0.36514902114868164,-0.8447055816650391,-0.1158992201089859
8,2.513150930404663,0.20762458443641663,0.30979594588279724,0.06673728674650192,-0.2929762601852417,0.21974927186965942,-1.4094293117523193,-0.6087163090705872,0.21829485893249512,-1.693331003189087,-0.19485405087471008,-0.3762105405330658,-2.370877265930176,0.08511016517877579,-1.5354136228561401,-1.012316107749939,-2.3502392768859863,-0.011365987360477448,0.5362805724143982,0.3157517910003662,1.6544594764709473,-0.6622173190116882,0.5205381512641907,1.3430449962615967,-1.633034110069275,-1.1210161447525024,-1.3233985900878906,0.3363065719604492,-0.355549156665802,-0.4373096227645874,0.7463981509208679,1.7445379495620728,0.0730477049946785,0.23674272000789642,0.23126906156539917,0.3725922405719757,-0.8416344523429871,-0.2036060094833374,0.42534640431404114,-0.8649513125419617,0.23898130655288696,0.637522280216217,-0.8403971195220947,-0.6568058133125305,-1.0152194499969482,0.8669790029525757,-1.0831559896469116,-1.022432565689087,-1.0285922288894653,0.20744621753692627,1.0905687808990479,0.061281945556402206,-1.1195265054702759,0.4540424048900604,-0.861962080001831,-1.0236051082611084,-1.9742215871810913,-1.001031756401062,0.17061279714107513,-0.9045420289039612,0.7580600380897522,0.05191120505332947,-0.05664621293544769,0.08586413413286209,-1.1725544929504395,-1.1267715692520142,0.2362636923789978,-0.5130531191825867,-0.19752416014671326,0.6983526945114136,-0.5258370637893677,0.39549657702445984,0.4560356140136719,0.009152836166322231,-0.4891265332698822,-0.2410697638988495,-1.3035255670547485,-0.7964239716529846,0.867113471031189,0.6050329208374023,-0.46736007928848267,-0.2475842535495758,0.1348412185907364,-0.015149842016398907,0.47404584288597107,0.34752824902534485,-0.5609100461006165,0.31973254680633545,-1.2721682786941528,-0.5102100968360901,0.21802960336208344,-0.5109905004501343,-1.300879716873169,0.6743472814559937,0.24990682303905487,0.3000403940677643,0.6940194964408875,1.9247726202011108,1.250866413116455,0.34524568915367126,-0.09369286894798279,-1.6982417106628418,0.8664674758911133,0.8513394594192505,-0.7044062614440918,-0.3671201169490814,1.4807182550430298,1.065137267112732,-0.11707158386707306,0.1370885670185089,-1.2361270189285278,-1.5862318277359009,0.8379217982292175,-1.4837831258773804,-0.24844489991664886,0.8413857221603394,-0.7419654726982117,0.6276829838752747,-2.158351182937622,-0.7095487117767334,0.16385412216186523,1.0047487020492554,0.9157001376152039
9,-0.04042500630021095,-1.1215144395828247,0.011993031948804855,0.6444973349571228,0.5699672102928162,-0.04152361676096916,-1.1867647171020508,-0.21395300328731537,-2.826350450515747,-0.006418186239898205,-0.9955699443817139,0.906592071056366,-0.4788955748081207,0.13060985505580902,-0.07636803388595581,1.0899549722671509,-0.3920077085494995,-0.24227029085159302,-2.1977286338806152,-1.0138901472091675,-1.3161256313323975,-0.3275480568408966,0.6222128868103027,0.5778194665908813,-0.7401273250579834,-0.11619124561548233,-0.3553163707256317,-0.7906313538551331,1.0008361339569092,-0.8887776136398315,1.482931137084961,-2.2335569858551025,1.3014817237854004,-0.005451987497508526,1.2137353420257568,0.24784167110919952,-0.6050890684127808,-0.6312203407287598,-0.6349849700927734,-1.9783064126968384,0.661584198474884,0.6393484473228455,0.49643176794052124,-0.7012836933135986,0.7104240655899048,1.0141891241073608,0.5473514795303345,0.9282369017601013,1.0586833953857422,-0.03188866376876831,-1.4248671531677246,1.0496364831924438,0.09406749904155731,-1.7507567405700684,0.36559948325157166,-1.1765772104263306,-0.25950610637664795,0.5975887775421143,0.31110769510269165,-0.7157450318336487,-0.26557233929634094,-1.2148685455322266,-1.3755356073379517,0.5838245153427124,-1.2637145519256592,-0.2575812339782715,-0.8534902930259705,0.527803897857666,-0.06452657282352448,-0.715985894203186,-0.5100618600845337,0.5471726059913635,1.0640051364898682,0.4854087233543396,-0.9728885293006897,0.7044667601585388,1.090985655784607,1.0750362873077393,-1.1691639423370361,-0.6337900161743164,-0.11408262699842453,0.45840466022491455,0.7859411239624023,0.35984253883361816,-0.3870735764503479,0.11978882551193237,-2.5797221660614014,0.14494742453098297,-0.1840974986553192,0.0375220887362957,0.8564555644989014,-0.3398455083370209,-0.12371951341629028,0.5247962474822998,1.06801176071167,0.09336985647678375,1.5320662260055542,-0.43228617310523987,-0.6279094815254211,0.34131109714508057,-1.3779934644699097,0.28567400574684143,1.2305656671524048,0.19166260957717896,-1.8163001537322998,-0.5611424446105957,-0.31877240538597107,-1.8114495277404785,-0.8155481815338135,-0.6158202886581421,-0.21980223059654236,1.388209342956543,0.7701416015625,-1.1255900859832764,-0.4794449508190155,-0.822519063949585,1.639057993888855,0.11620739847421646,0.20843899250030518,-0.6074830889701843,0.651238739490509,0.455212265253067,1.245992660522461
10,-0.15539947152137756,-0.06196148321032524,-1.4291685819625854,-0.5541532039642334,0.5851534605026245,2.228257179260254,-1.1676360368728638,0.8927148580551147,0.45052632689476013,0.6507670283317566,0.5087231993675232,-0.7899651527404785,-0.42766082286834717,-0.42558473348617554,-2.059265375137329,0.04772451892495155,1.1174917221069336,-1.9373012781143188,-1.104673981666565,0.1678817719221115,-0.8061729669570923,0.9732953310012817,1.0252470970153809,-0.12825118005275726,0.031949978321790695,-0.8102569580078125,1.0808353424072266,0.9386435747146606,-1.9223078489303589,0.007072838954627514,-2.4357519149780273,-1.4650673866271973,0.38757583498954773,1.2035001516342163,-0.21221128106117249,0.6407762169837952,-1.4627727270126343,-0.6167948842048645,1.357113242149353,0.39910760521888733,-1.2833209037780762,0.15896724164485931,-0.9065262675285339,1.331735610961914,-0.14994917809963226,-1.7458797693252563,-0.4975948631763458,0.024295024573802948,-0.8019921183586121,0.03786054253578186,-0.9624992609024048,-0.12004414200782776,1.0657256841659546,1.478381872177124,1.7695369720458984,-3.847926378250122,-0.7802388668060303,-0.16599495708942413,-0.07054692506790161,-0.5649540424346924,1.0737190246582031,-1.8578510284423828,-1.6257048845291138,-0.3009485900402069,1.032530426979065,-0.6570397019386292,0.8937813639640808,1.6210720539093018,1.2246239185333252,-0.4314066171646118,0.3329163193702698,0.3235624134540558,0.892121434211731,-0.9037569761276245,-0.6521884799003601,-1.3309359550476074,-0.5613598227500916,0.5647268295288086,1.015750527381897,0.005523007363080978,0.6766937375068665,0.37210962176322937,-0.21585558354854584,-1.7936698198318481,0.007150070276111364,0.23313948512077332,-0.3734242618083954,1.47048020362854,0.4099719822406769,-0.7103636860847473,1.8564584255218506,0.6073962450027466,-0.6377777457237244,-0.29127463698387146,-0.9864341020584106,1.6489976644515991,-0.8082239627838135,0.35153552889823914,-0.969258725643158,-0.7930899858474731,-0.5370143055915833,-0.008659977465867996,-0.6816213130950928,0.5450024604797363,0.2945755422115326,0.26993897557258606,-0.36345240473747253,-0.15773524343967438,0.3699546456336975,0.3851083517074585,-2.0298328399658203,-1.09163498878479,0.6886109113693237,-0.39311084151268005,0.38882976770401,-0.3463748097419739,0.18027222156524658,0.7886493802070618,0.8147192597389221,-1.0350364446640015,0.43871235847473145,-0.8325231671333313,0.5357882976531982
11,-1.6902239322662354,-1.9064439535140991,-0.3301599323749542,0.5312823057174683,0.2502279281616211,-0.20182651281356812,-0.07215077430009842,-0.15442267060279846,-2.282827854156494,0.36090224981307983,-1.1212501525878906,0.3631456792354584,-0.38015344738960266,1.0017926692962646,0.7781794667243958,-0.0677068904042244,1.31222403049469,0.6258738040924072,0.1252000629901886,0.03225305303931236,-0.23305998742580414,0.1976872980594635,0.644528865814209,0.4858856499195099,-0.7017543315887451,-0.21165987849235535,-1.0604052543640137,-0.8512006998062134,-0.19943879544734955,0.14969846606254578,-2.2461249828338623,-1.9916625022888184,-0.9373109936714172,1.1138874292373657,-0.5580624341964722,0.43515104055404663,0.059628646820783615,-0.6699365973472595,0.538490355014801,0.2399938553571701,-0.8711602091789246,-2.5851492881774902,-0.01864181086421013,-0.625278115272522,-1.4489043951034546,0.11099069565534592,-0.7731412053108215,-0.2884916663169861,-0.2559870183467865,-0.8548642992973328,-0.8748325109481812,0.08859875053167343,0.20641367137432098,0.5190293788909912,-0.08641136437654495,-0.1202312558889389,-1.325433373451233,0.03331177309155464,0.02510136552155018,1.7749841213226318,-0.38571682572364807,-1.4612094163894653,0.9224866628646851,-1.1863408088684082,0.08832726627588272,0.410023957490921,-0.36926043033599854,0.23305489122867584,-1.0858278274536133,0.7258622050285339,0.3442143499851227,0.8691093921661377,2.3749639987945557,0.6322379112243652,-0.2912938892841339,-0.0274478979408741,-0.44115063548088074,-0.8393765687942505,0.5264450311660767,0.0050203679129481316,-0.6096214652061462,-0.63226318359375,-0.6776860952377319,-0.17502595484256744,1.4253512620925903,-0.33120959997177124,-0.5491291880607605,-1.5021063089370728,-0.1459461897611618,0.28826016187667847,-0.6588929295539856,0.36710304021835327,-1.4902399778366089,0.39618679881095886,-0.3888459801673889,-0.6688264608383179,-0.20105823874473572,-0.7296290993690491,-0.38620781898498535,0.43324559926986694,-0.46865904331207275,-0.11347607523202896,-1.2223293781280518,0.3482082188129425,-0.9358982443809509,-0.13041554391384125,0.8717604279518127,-0.02574979141354561,-0.6765509247779846,-0.6995998024940491,0.32312634587287903,0.8941104412078857,-0.8891089558601379,-0.20077911019325256,-0.39251700043678284,-1.2826764583587646,1.257547378540039,1.2806693315505981,-0.7126956582069397,-0.10158888250589371,-1.1140480041503906,-0.5722974538803101,0.4987713098526001
12,-0.40169674158096313,0.09317608177661896,-1.1646941900253296,-0.04968241974711418,0.034754909574985504,-1.672937035560608,0.04062008857727051,1.7040760517120361,1.666785478591919,1.2037969827651978,2.2524027824401855,0.3933168053627014,-1.69868004322052,-0.677215576171875,-1.839702844619751,0.04579775780439377,1.028357982635498,-1.5435104370117188,0.7889583110809326,-0.4423660933971405,1.0002613067626953,-0.8479948043823242,-1.4090298414230347,-0.8718380331993103,-0.023915816098451614,-0.23398177325725555,0.6038639545440674,-0.8780449628829956,-0.015090136788785458,0.7600463032722473,-0.4565447270870209,-1.3177846670150757,0.7378453016281128,-0.871929943561554,0.05737276002764702,0.09652213007211685,-1.9217453002929688,-0.04134803265333176,-0.6820233464241028,-1.4363055229187012,0.01001639012247324,1.74928879737854,-1.8803478479385376,-1.0056430101394653,0.3386353850364685,-0.4819943606853485,-0.9238201975822449,-0.6268389821052551,0.8715195059776306,-1.531968116760254,1.3088022470474243,-1.1578818559646606,-0.5421199798583984,-0.5949973464012146,0.7902605533599854,-0.5775173306465149,1.0090452432632446,0.058247167617082596,-1.1870853900909424,-0.4750955104827881,0.5694103837013245,1.4699064493179321,0.24027273058891296,-1.5667812824249268,0.8872605562210083,1.0573523044586182,-1.5743815898895264,0.32995107769966125,0.42993977665901184,-0.9337377548217773,0.043734557926654816,0.8483083844184875,0.23929883539676666,-1.445749282836914,-1.089108943939209,0.19254231452941895,-0.22864852845668793,-0.41134780645370483,0.8620449304580688,-0.029528969898819923,-1.0092345476150513,0.8901076316833496,0.9186924695968628,-1.83711838722229,0.2522743344306946,-0.049941159784793854,0.7389974594116211,-0.23098903894424438,1.7651375532150269,0.5135815143585205,0.47530603408813477,1.0289666652679443,0.9958093762397766,0.4553931653499603,-0.030821122229099274,-0.9273886680603027,0.5364688634872437,1.6058411598205566,0.46578943729400635,-1.0746855735778809,0.8830055594444275,-1.0558351278305054,0.09704156219959259,0.20936505496501923,-1.534088134765625,-1.270751953125,0.2082696259021759,0.792354941368103,-1.863351821899414,0.05351782590150833,0.6351026296615601,0.577764093875885,0.21374356746673584,-1.74956214427948,-0.9130563139915466,-0.45168110728263855,0.44465091824531555,-0.21614700555801392,2.6241424083709717,0.2691265940666199,-2.633685350418091,-0.8864371180534363,-0.08041997253894806
13,-1.9408012628555298,0.8557626008987427,-0.5596140623092651,0.6575207114219666,1.2342619895935059,0.2533024549484253,-1.2071760892868042,-0.2086828351020813,0.019033344462513924,-0.36094486713409424,0.08202259242534637,1.619704008102417,-0.6843288540840149,-1.2155523300170898,-0.998020589351654,-0.18340586125850677,0.43178340792655945,0.26602476835250854,-0.3022073209285736,-0.3431369960308075,1.770757794380188,0.9438121914863586,-0.36870333552360535,-1.3014243841171265,-0.08477916568517685,-1.7019082307815552,-1.25444495677948,-0.2364066243171692,-0.7828855514526367,0.6383538246154785,-2.6782379150390625,-0.1871194988489151,-1.0344611406326294,1.3265340328216553,0.6796668767929077,2.0086193084716797,-0.5531066656112671,0.898899257183075,0.09124549478292465,-0.06561028212308884,-0.5665208101272583,0.3697485029697418,0.7310135364532471,1.0214104652404785,-0.2338290512561798,-0.935046374797821,-2.535245418548584,0.7990452647209167,-0.4167686104774475,-0.8432676792144775,-0.9686355590820312,0.7898874878883362,0.6935024261474609,-0.8754482865333557,-0.03569497540593147,-1.1330360174179077,0.18545374274253845,0.32547688484191895,1.4148014783859253,0.20460398495197296,0.4825328588485718,1.5985389947891235,-1.8703957796096802,2.154721736907959,0.43601179122924805,-0.1220855638384819,1.5183347463607788,0.8553746938705444,-1.443488597869873,-1.2595068216323853,-1.4325286149978638,-0.36912068724632263,0.031645312905311584,-0.7285625338554382,-0.45933446288108826,-0.3864021599292755,-0.3714938759803772,-0.6333975195884705,-1.3818285465240479,-0.6883662343025208,-0.5957754850387573,-0.7015482783317566,0.31874459981918335,-1.7078522443771362,-0.6986013054847717,-0.2653590440750122,-0.8618921637535095,1.3530548810958862,0.3372117280960083,1.1061480045318604,0.3777856230735779,0.5410962104797363,0.4580265283584595,-0.39577826857566833,0.020037027075886726,-1.5780119895935059,-0.8500620722770691,0.22287306189537048,-1.6651279926300049,-0.009967245161533356,0.7257543802261353,-0.329727441072464,-0.05399138480424881,0.29663342237472534,0.026907438412308693,-0.21912452578544617,0.5227798819541931,0.5735436081886292,1.042109727859497,1.3897517919540405,0.6709905862808228,0.151249960064888,1.8097972869873047,0.3340521454811096,0.8703023791313171,0.7794579267501831,1.2101131677627563,1.8113269805908203,-0.4199513792991638,1.4758167266845703,-0.04236166551709175,-0.45550957322120667,-0.5650885701179504
14,2.0172531604766846,1.4022186994552612,-0.3579360544681549,0.1201881617307663,-0.7337465286254883,-0.6916472315788269,1.5033317804336548,-0.9962261915206909,-0.23499862849712372,0.8020949959754944,1.6378777027130127,-1.009848952293396,0.5315278172492981,-0.6670814752578735,-0.3612598776817322,1.0191779136657715,0.21570973098278046,-1.6361395120620728,0.32030853629112244,0.15656165778636932,-0.8650569915771484,1.1867653131484985,0.02486434206366539,-2.1458020210266113,0.8230339288711548,0.9883347153663635,0.6877384185791016,-0.5842405557632446,-1.2094261646270752,-0.17803168296813965,-0.567536473274231,-1.3961268663406372,0.24146567285060883,-0.8266125321388245,0.00276521616615355,1.5330370664596558,0.3256458342075348,-0.35489290952682495,1.005061388015747,-1.7888160943984985,-1.212744116783142,-0.7017340660095215,0.9735640287399292,0.32455974817276,0.9262523651123047,0.6241003274917603,1.1922802925109863,0.7377536296844482,1.966138482093811,-1.5467358827590942,-0.5460200905799866,0.9667875170707703,0.4674617052078247,-0.8035182356834412,-1.017703890800476,1.390417218208313,0.2423812597990036,-1.6737276315689087,1.3701157569885254,1.557115077972412,0.005021651275455952,0.7844762206077576,0.21145854890346527,-1.2605617046356201,-0.39871105551719666,-0.8941764235496521,-0.977484405040741,2.0893735885620117,-0.8159807324409485,0.5053607225418091,0.48118719458580017,1.0254162549972534,-0.12810704112052917,-1.0861135721206665,1.6672784090042114,1.0925999879837036,0.09649711847305298,-0.16755512356758118,1.1716216802597046,-0.19734719395637512,-0.9680606126785278,-1.84976065158844,-0.5817631483078003,-0.606279730796814,-0.7915812134742737,0.9127801060676575,-0.5722018480300903,-0.25794482231140137,-0.4748843312263489,-0.9158742427825928,0.46280115842819214,0.294886976480484,0.45011651515960693,-1.5116485357284546,1.5147773027420044,0.7466196417808533,-0.8638437986373901,-0.5681641101837158,1.0138698816299438,0.2720186114311218,-0.3686104118824005,0.26487720012664795,0.35007017850875854,-1.5940449237823486,0.043598998337984085,-1.2208824157714844,0.2597370147705078,1.1490825414657593,0.37256890535354614,2.0062365531921387,0.12187918275594711,1.0148786306381226,-0.22984789311885834,1.0906381607055664,-1.2869141101837158,0.552748441696167,-0.6808034777641296,-0.5765204429626465,-0.8609858751296997,-0.6363937854766846,-0.059304557740688324,-0.3998509645462036,-0.41484126448631287
15,-0.6954933404922485,-0.972021222114563,0.4025038778781891,0.524661660194397,-0.5447390079498291,-0.5574879050254822,0.2645389139652252,0.8339241147041321,0.8625136613845825,-2.4084744453430176,0.08114083856344223,0.7920212745666504,0.5751498341560364,1.6614305973052979,-0.1965274214744568,0.8367254137992859,0.18878598511219025,0.20712752640247345,-0.20715484023094177,0.6598532795906067,-0.10435459762811661,-0.04456989839673042,-1.8135913610458374,-0.22647778689861298,-1.4198757410049438,-2.9534835815429688,-1.9253648519515991,-1.6370054483413696,0.049883682280778885,-2.326320171356201,0.23595747351646423,-0.02568335272371769,1.9272459745407104,-2.579685926437378,-0.9099478125572205,0.1423414796590805,-0.874690055847168,-1.2474372386932373,-0.13849057257175446,1.8136838674545288,-1.2750602960586548,-1.5409295558929443,-1.2321122884750366,-0.5657786130905151,1.3327255249023438,-1.9284271001815796,0.26706498861312866,-0.49998852610588074,0.29957932233810425,-0.1940329521894455,0.3043406009674072,-0.23824095726013184,-1.7087500095367432,1.067867636680603,-0.6056885719299316,-1.4798760414123535,0.316832572221756,-0.7001956701278687,0.5277911424636841,0.8758878111839294,0.947967529296875,-1.112151861190796,-0.7932415008544922,0.7418308854103088,0.8332781791687012,-0.4650634527206421,-0.6733266711235046,-0.5199745893478394,0.5446355938911438,-0.337222158908844,-0.20717543363571167,-1.658302903175354,-0.9964559078216553,-0.355312705039978,-1.2443573474884033,0.03212098032236099,-1.599892020225525,-0.6447920799255371,-0.879766047000885,-2.178767442703247,0.04831067845225334,-0.4741634428501129,-0.6498263478279114,-0.17586250603199005,2.2166085243225098,0.8852131366729736,0.005910162813961506,-0.9188457131385803,-0.729962170124054,1.6610606908798218,0.2555549442768097,-1.2101335525512695,0.062439534813165665,1.0280042886734009,0.4902820885181427,1.6625999212265015,-0.016481509432196617,-0.24446585774421692,-0.0685439258813858,1.0334858894348145,0.1923755407333374,-0.47316908836364746,1.3317945003509521,-1.3756449222564697,-0.5183159112930298,1.2064965963363647,-3.1470792293548584,-0.3572954535484314,-0.0007213485077954829,-2.041775703430176,0.6371294260025024,-1.1265274286270142,1.3075153827667236,-0.5858473777770996,1.2013589143753052,-2.606180191040039,0.46554410457611084,-1.3891992568969727,0.23504452407360077,0.4449406862258911,0.39770615100860596,1.2400825023651123,-1.876480221748352
16,0.7150326371192932,-1.4919178485870361,-1.7538566589355469,0.33366072177886963,-0.17110185325145721,0.10664579272270203,0.7223979234695435,-0.2270602136850357,-0.5229411125183105,-0.48996078968048096,1.1313204765319824,0.9173876643180847,-1.9297446012496948,-1.662519097328186,-0.9374245405197144,-0.492326557636261,-0.4362896978855133,0.5064685344696045,-1.9629340171813965,0.42197057604789734,-0.7465255260467529,-0.7832807898521423,0.19878943264484406,-1.2633681297302246,0.24775521457195282,-0.12537261843681335,-0.6572032570838928,-0.12238262593746185,-1.009139895439148,-0.6559997797012329,-1.4495445489883423,-1.4493741989135742,0.45286282896995544,-0.421671986579895,1.013328194618225,-1.0689690113067627,0.1650988608598709,-0.40334588289260864,0.017541229724884033,0.3036881387233734,-0.44210487604141235,-0.14829587936401367,0.4820730984210968,-0.2917104661464691,-1.7094088792800903,0.08305328339338303,0.31710317730903625,-1.3116201162338257,0.9224447011947632,-0.45683303475379944,-0.04125603288412094,-1.0074323415756226,-0.07869575172662735,-0.3775691092014313,-0.8700113296508789,3.033247709274292,-0.42468416690826416,0.678095281124115,-0.07054740190505981,-0.7642421126365662,2.0228471755981445,-0.18772777915000916,1.4420251846313477,0.08013547211885452,-0.18473955988883972,0.4802309572696686,1.402153730392456,0.4142245352268219,-0.1963367462158203,-1.9974753856658936,-0.5761762261390686,1.2740405797958374,-1.1455129384994507,-0.2335887849330902,0.34217536449432373,-0.7509758472442627,-0.7949078679084778,0.2771109342575073,-0.04894391819834709,-0.913664698600769,-1.6251156330108643,-1.1082050800323486,0.944405734539032,0.009740645065903664,-0.39470526576042175,-0.2418617308139801,0.6247571706771851,-1.0702471733093262,1.2058242559432983,-0.539912760257721,0.14594431221485138,0.9654245376586914,0.75323885679245,0.39001569151878357,-1.0155701637268066,1.4357848167419434,0.8624922633171082,-0.06663165241479874,-0.8474687337875366,-0.8161461353302002,-1.6256858110427856,0.8630079627037048,0.27487409114837646,-0.7839877009391785,-1.639866828918457,0.4446956217288971,-0.5874450206756592,-2.731598377227783,1.2642368078231812,-1.5061097145080566,0.21223138272762299,-0.35342586040496826,0.7171644568443298,0.1611292064189911,-1.2620447874069214,-0.05814911052584648,-0.2636374831199646,-1.224102258682251,0.7015653848648071,1.1102875471115112,0.07071041315793991,0.23352009057998657,0.7989290356636047
17,1.8292992115020752,0.669108510017395,-0.27929309010505676,2.4986040592193604,0.3214387893676758,0.34337159991264343,0.72044438123703,-0.721627414226532,-0.6073279976844788,-1.2190324068069458,-0.5357547402381897,-0.8837970495223999,1.154094934463501,0.3221800923347473,-1.989203691482544,0.7586742043495178,0.4559076130390167,0.04632972180843353,0.7010884881019592,-0.9088267087936401,-0.7649783492088318,0.2600000202655792,1.1008760929107666,0.5494257211685181,-0.40055930614471436,0.5206025242805481,-0.5229311585426331,-0.5948943495750427,-1.1450389623641968,0.18999360501766205,0.11674598604440689,0.24576784670352936,-0.9741695523262024,-0.1376909464597702,0.8934468030929565,0.1338571161031723,-0.46760427951812744,-0.8252124190330505,-0.24145929515361786,-0.28435179591178894,-0.7276899814605713,-0.8364129662513733,0.4096653163433075,0.7850059866905212,0.962153971195221,1.3153076171875,0.7458623051643372,0.31692424416542053,-0.25905969738960266,-0.13547374308109283,1.7466013431549072,-0.5350608229637146,-1.3648804426193237,-0.02680801786482334,1.1493384838104248,-0.26328638195991516,0.6452791690826416,-0.27360936999320984,0.7877978682518005,-1.0039972066879272,0.7815998792648315,-0.28838250041007996,0.7867340445518494,-1.4539974927902222,-2.780125141143799,2.273158550262451,-0.08413822948932648,0.4169985055923462,-0.9560693502426147,0.4919608533382416,-0.8454916477203369,1.824535846710205,1.7625759840011597,-0.10254143923521042,0.8847581148147583,0.34628912806510925,1.4392940998077393,0.150662362575531,-0.10518589615821838,-0.7529256939888,-1.299093246459961,-0.9338364005088806,-0.24997365474700928,0.43451398611068726,0.005729998927563429,-1.7027628421783447,1.2880417108535767,0.1400703340768814,0.3221800923347473,1.9126121997833252,-0.6953423619270325,-1.2239748239517212,0.21278415620326996,1.5043781995773315,-2.1816816329956055,-0.6160995960235596,-0.11515039205551147,0.6206873655319214,0.7683539390563965,0.8027805089950562,-0.9777913689613342,0.5191255211830139,0.8447455167770386,-0.46807268261909485,0.11931352317333221,0.3829139769077301,-1.263419270515442,0.5561866164207458,1.102623701095581,0.2794032096862793,-0.4179491400718689,-0.9417053461074829,-0.9351795315742493,-0.7989962100982666,-0.17597836256027222,1.646301031112671,-0.5914628505706787,1.2410832643508911,0.06178116425871849,0.267790824174881,0.16079474985599518,-0.1291314959526062,-1.5475395917892456
18,0.34713879227638245,0.43099552392959595,0.12259455770254135,0.6169832944869995,0.09166359901428223,0.7032299637794495,-0.3342575430870056,0.098472461104393,-1.5440596342086792,0.02701427787542343,-0.47820067405700684,1.473099708557129,0.21856087446212769,0.29881995916366577,-0.6340295672416687,-0.265542596578598,0.5244576930999756,0.29720601439476013,0.7434763312339783,1.5397515296936035,1.3841571807861328,1.8144499063491821,-0.44189777970314026,-0.5356270670890808,-1.3041293621063232,0.4768002927303314,1.4497859477996826,-0.4792211651802063,1.6524019241333008,-0.3488386571407318,-0.17257718741893768,-0.18739105761051178,-0.07076691091060638,1.4313631057739258,1.6815365552902222,-0.021131888031959534,0.6558152437210083,0.5787991881370544,-0.9210234880447388,1.1078155040740967,0.6284498572349548,-0.3435959815979004,-1.154530644416809,0.4842778146266937,0.5777878165245056,1.7914904356002808,0.8745190501213074,-0.398608535528183,0.23297198116779327,1.181797981262207,-1.115882396697998,-0.23625357449054718,-0.23576435446739197,0.2476978451013565,0.11908657103776932,-2.1576714515686035,-0.3581291735172272,0.5771524906158447,0.608307957649231,0.005782081745564938,-0.2767709195613861,-1.6527605056762695,0.6983597278594971,0.13049723207950592,0.42096441984176636,-0.30889347195625305,0.45638033747673035,-0.2508111000061035,1.2847577333450317,0.5359521508216858,-1.9733966588974,-2.078827142715454,0.5775777697563171,-1.5260530710220337,-0.3216020166873932,-0.4825734794139862,-0.1871090978384018,1.186299204826355,0.35969215631484985,-0.7536100149154663,0.1263815313577652,0.927318274974823,0.004475954920053482,0.7427623271942139,1.166113018989563,0.5340020060539246,0.8206719756126404,-0.8801255822181702,-0.9036232829093933,-0.5422062277793884,0.9101686477661133,1.1182037591934204,-1.0981786251068115,-0.5915618538856506,0.6939235925674438,0.029437918215990067,-0.6249014735221863,-1.534498929977417,-1.0637160539627075,-1.4231942892074585,0.32836052775382996,0.6677623391151428,-0.6261441111564636,-0.2372412234544754,0.4788750112056732,2.679368734359741,1.0122545957565308,0.6265903115272522,0.45349061489105225,-0.5131129622459412,0.16999052464962006,-0.585465133190155,1.3258984088897705,0.6096333265304565,-0.6038880348205566,-1.1680985689163208,2.431370973587036,-0.2865353524684906,0.5265454053878784,0.4603009819984436,0.35396531224250793,1.242105484008789,1.602138876914978
19,-0.3935960531234741,-1.4132975339889526,-1.4786865711212158,-0.8490857481956482,-0.7740170359611511,0.7967274785041809,0.14419753849506378,0.9008433222770691,-1.0070793628692627,-0.7203295826911926,0.03699057921767235,1.417275071144104,-1.3603395223617554,0.35862573981285095,-1.2346012592315674,0.4091067910194397,0.6143515706062317,-0.39501991868019104,-0.5642713308334351,0.9941939115524292,-0.5120395421981812,-0.141719251871109,0.7002149224281311,0.6984381079673767,0.5632345676422119,1.2282943725585938,-1.5292418003082275,0.02707505039870739,0.20348267257213593,-1.4937553405761719,-1.4942158460617065,0.8562829494476318,-0.580537736415863,-1.964531421661377,-0.975878894329071,0.6304078102111816,-1.430083155632019,0.8202114701271057,1.5487335920333862,0.2710503339767456,-0.45562314987182617,0.09471416473388672,0.15251943469047546,1.0506771802902222,-1.1310728788375854,0.9828916788101196,-0.7122501730918884,-1.4330320358276367,-0.012266288511455059,-0.8895373344421387,-1.1699457168579102,0.729335367679596,-0.5315682888031006,0.5138135552406311,-0.10183770209550858,0.6613598465919495,-0.4679751694202423,1.5686306953430176,0.11611698567867279,1.3639163970947266,0.0943179726600647,-1.1696374416351318,-2.041652202606201,-1.0745693445205688,-0.09507789462804794,1.1297476291656494,0.6276205778121948,0.6349507570266724,-0.00496210902929306,-0.5611670017242432,-1.0184006690979004,-0.6628115773200989,0.9511781930923462,1.720536470413208,-0.765227735042572,0.07518286257982254,-0.5543826222419739,-1.3828444480895996,-1.2938061952590942,-0.5814070105552673,1.6512998342514038,-1.3174563646316528,1.170332670211792,-2.2229933738708496,1.226297378540039,-0.4585445821285248,0.4494268000125885,0.09649313986301422,-0.341295450925827,-1.9686987400054932,-0.8947632312774658,0.18837448954582214,0.3582834005355835,-0.7329579591751099,1.9763110876083374,-1.2586147785186768,-1.3908532857894897,0.2535303235054016,0.08887313306331635,-0.3044375479221344,1.0942492485046387,1.9508780241012573,0.38523170351982117,-0.17401926219463348,0.031033551320433617,1.2110142707824707,0.12346971780061722,-0.9305244088172913,-1.1391263008117676,0.5542897582054138,0.22150324285030365,0.45890694856643677,-2.2768986225128174,-1.620524525642395,-1.5163531303405762,-0.18944944441318512,-0.4079495966434479,-1.8021246194839478,-0.971051812171936,0.3218041658401489,-0.9515537023544312,0.6879594922065735,-0.5927824378013611
20,-0.7316518425941467,0.9092824459075928,-1.5617233514785767,-0.3944421708583832,-1.5181536674499512,0.4562176764011383,1.4611148834228516,-0.5375469923019409,0.6227654218673706,0.42103204131126404,0.9810271263122559,-2.0925238132476807,-0.6552499532699585,-0.3027547299861908,-1.6414211988449097,-0.20624637603759766,-0.8823190927505493,-0.5539885759353638,0.777302622795105,-0.34040459990501404,-1.676897406578064,-0.562816858291626,3.5858819484710693,0.9891500473022461,1.678257942199707,-0.7648419737815857,1.2870166301727295,0.9095059633255005,-0.5935955047607422,-0.9282387495040894,-0.07900799810886383,0.14758197963237762,-1.1493299007415771,-0.15771391987800598,-0.07434408366680145,0.23469986021518707,-0.6578777432441711,2.0352976322174072,-0.45614564418792725,1.050091028213501,-0.6109012365341187,0.5585845708847046,1.0332388877868652,0.8020400404930115,-0.5207661390304565,0.592479944229126,1.0590574741363525,0.0888015478849411,0.14621657133102417,0.9579022526741028,0.1648499071598053,-2.0573980808258057,0.20228564739227295,2.5873305797576904,0.20780114829540253,-0.6937060952186584,-0.5494481325149536,0.185379296541214,-1.5499153137207031,-0.9372286200523376,0.6285051107406616,0.5342228412628174,-0.5734935402870178,-1.5553054809570312,-0.4052123427391052,-0.04413039982318878,0.03713936731219292,-0.21425922214984894,0.4571995735168457,1.7035115957260132,-1.4064639806747437,0.5556392073631287,0.08987745642662048,-0.41365450620651245,-0.9399382472038269,-1.4275966882705688,0.3151635527610779,0.15384690463542938,-0.3625757694244385,1.3465423583984375,-0.35467061400413513,0.0014844764955341816,-1.910290241241455,0.17504528164863586,0.05975097045302391,0.5852412581443787,0.15671376883983612,0.3290524482727051,-1.4148930311203003,-1.1313883066177368,0.898618221282959,-0.6116416454315186,-0.8940407633781433,-0.41458746790885925,1.3174618482589722,1.5558874607086182,2.327561616897583,-1.0497938394546509,-0.4198240339756012,0.9037234783172607,0.12689903378486633,-0.04145115241408348,1.4947326183319092,-1.375797152519226,0.28611499071121216,-0.8749434947967529,-2.0871376991271973,-0.31222325563430786,0.8636075854301453,-0.829018771648407,0.14637239277362823,-0.4181579053401947,-0.4543382227420807,-0.04257820174098015,-0.2739095389842987,0.2046351134777069,-1.1954345703125,0.20288699865341187,-1.0367268323898315,-0.17474466562271118,0.9258003234863281,0.513986349105835,0.026846319437026978
21,1.2899212837219238,0.8080703020095825,-0.06424225121736526,-1.3039497137069702,-0.6479950547218323,-0.24203941226005554,-0.7660710215568542,0.9236592650413513,-0.5094026327133179,0.9560251832008362,-0.000352594128344208,-0.6928449869155884,0.3172858953475952,-1.28425133228302,-0.4245525598526001,0.24361652135849,-0.39735305309295654,1.0314089059829712,-1.125587821006775,-0.16814330220222473,-1.1768180131912231,-1.0406639575958252,-0.13896481692790985,2.182082176208496,-0.4629122316837311,0.7314099669456482,0.21144293248653412,0.9628767371177673,1.4172930717468262,0.6103566884994507,1.9147061109542847,-1.1221189498901367,0.04227720573544502,1.3087306022644043,1.1544194221496582,0.3479718267917633,-1.534798264503479,0.9368312358856201,0.41460922360420227,0.3886849880218506,0.22193092107772827,-0.05394655093550682,-0.2545073628425598,1.5141711235046387,0.1269896924495697,0.6915781497955322,-0.2310899943113327,-0.45481812953948975,1.006643295288086,-1.765682339668274,0.6579993367195129,-0.4461424946784973,-0.5968639850616455,0.07875993102788925,1.106014370918274,-0.9030174016952515,-0.08015325665473938,0.384205162525177,-0.4265859127044678,0.07831404358148575,-0.37616196274757385,-0.25388219952583313,2.3167097568511963,-0.08614235371351242,-0.4610394537448883,0.43010589480400085,-0.012128651142120361,-0.3021112084388733,-0.11813008040189743,-1.7719801664352417,1.5380280017852783,1.744278907775879,-0.19551704823970795,0.569117546081543,2.52606463432312,0.5571667551994324,0.716040849685669,-0.23302027583122253,0.38161101937294006,0.08599593490362167,0.9762892127037048,-0.6290786266326904,-0.7824354767799377,0.7188863158226013,-0.2098556011915207,-0.10480215400457382,0.8213375210762024,-0.8700924515724182,0.1280442327260971,0.6040942072868347,-0.3681938350200653,-0.5951339602470398,6.638554623350501e-06,-0.1036282405257225,0.3293231427669525,0.9781384468078613,-1.2151906490325928,-0.11361867934465408,0.9087392687797546,-0.08061370253562927,-0.3255665898323059,-0.07991369068622589,-0.09314490854740143,1.2818909883499146,-1.0752122402191162,0.6817774772644043,0.5650610327720642,-0.23946553468704224,2.1306347846984863,-1.0759069919586182,-0.5413171648979187,0.021006427705287933,-0.3557112514972687,-0.18714691698551178,-0.44237449765205383,-1.0827606916427612,0.9066731333732605,1.1706463098526,0.841796875,-0.6020500063896179,-0.22033920884132385,-0.2575642168521881,-0.24278174340724945
22,-1.7082663774490356,-0.6943216323852539,0.5675482153892517,1.1995457410812378,-0.5649389624595642,0.018842585384845734,0.11848591268062592,1.4262550394050777e-05,-0.19210799038410187,0.5996599197387695,0.4764695167541504,0.0001929516438394785,0.4036981463432312,0.08544159680604935,-0.20196956396102905,-1.2886329889297485,-0.8536432981491089,-3.103283405303955,0.09317797422409058,0.8097488880157471,-0.029025813564658165,-0.8872820138931274,0.7468860745429993,-0.9751780033111572,-0.2262243777513504,0.23825444281101227,0.8837353587150574,-2.3675856590270996,0.07137930393218994,0.2713213562965393,-1.866537094116211,0.8824819326400757,-0.37645506858825684,-0.8601762056350708,-0.4028524160385132,0.2545824348926544,0.39848485589027405,-0.4653746485710144,0.01596490666270256,-0.43418124318122864,0.43501314520835876,-0.47389110922813416,1.106801152229309,1.0418028831481934,-0.9904425740242004,-0.5741549730300903,-0.5792444944381714,-1.394770860671997,-0.5009816288948059,1.1317954063415527,-1.2609361410140991,-0.15080496668815613,-0.8633984923362732,0.09535250812768936,1.0466691255569458,2.4311115741729736,0.9943079948425293,-1.498184084892273,0.4956660270690918,0.9497460722923279,-0.24009789526462555,-1.6739413738250732,1.0813908576965332,0.4662347733974457,-0.37341901659965515,-0.9342080354690552,0.1443289816379547,0.05797986686229706,0.3601410984992981,-0.20536212623119354,-1.4421418905258179,-0.812095582485199,-0.9828962087631226,-2.0248851776123047,-0.13616521656513214,0.5612923502922058,0.6391358971595764,-0.9714799523353577,-2.1927499771118164,0.6314060688018799,-1.1490497589111328,0.809472918510437,0.12466562539339066,-2.642247200012207,-0.2236809879541397,-0.11760842055082321,1.70535409450531,0.058507587760686874,-0.09399177134037018,-0.8053199648857117,0.36521703004837036,1.0320910215377808,-0.38748881220817566,1.7059842348098755,-1.2954686880111694,-0.32346564531326294,0.22910310328006744,1.2176836729049683,-1.0148742198944092,-1.3274630308151245,-0.9506233334541321,0.4453894793987274,-0.7641729116439819,-0.5609188079833984,-0.6788525581359863,0.34898534417152405,1.0171033143997192,-2.3598058223724365,0.895135223865509,1.4571068286895752,0.8025681376457214,-0.2865041494369507,-1.0042707920074463,-0.6894511580467224,-0.623664915561676,-1.5216755867004395,-0.4396613836288452,-0.15745225548744202,-0.934194803237915,0.22522149980068207,-0.06289748847484589,-0.29426127672195435,-1.4825397729873657
23,-2.06162166595459,1.071915626525879,0.16541986167430878,0.6925844550132751,-1.703154444694519,0.40686818957328796,-1.4101405143737793,0.345598042011261,0.6603953242301941,-0.4199543595314026,1.0811119079589844,1.6888445615768433,0.5802586078643799,0.726753830909729,-0.693199098110199,-0.046861231327056885,-0.37161317467689514,-0.490185409784317,-0.5790802836418152,-1.3026748895645142,-0.2903083264827728,-0.13361592590808868,-1.1175976991653442,0.03571750223636627,-0.6392794251441956,-1.1868592500686646,1.3823626041412354,-1.72882080078125,-0.5448213219642639,0.42434242367744446,-0.2578645944595337,-0.6233285665512085,-1.0290216207504272,-0.8285709619522095,0.2642471194267273,0.19700834155082703,1.690273404121399,0.5266707539558411,0.9714391231536865,0.623584508895874,-0.5648897886276245,2.0998666286468506,0.28893882036209106,1.1021896600723267,0.3794829249382019,-0.07385540753602982,0.20066650211811066,-2.034834384918213,-1.2501882314682007,1.567439079284668,-0.16025486588478088,0.8248901963233948,0.013420440256595612,0.19793203473091125,0.32840201258659363,-1.7426116466522217,-0.42442405223846436,-0.21104799211025238,0.5813233852386475,0.4362768828868866,-1.9497754573822021,-0.08143690228462219,-0.25973033905029297,0.5456638336181641,-0.3612770736217499,-0.450204998254776,0.6365118026733398,-0.6953262686729431,-0.8988737463951111,-1.2965378761291504,-0.941291093826294,0.6935664415359497,0.37911027669906616,0.620374858379364,-0.5865058898925781,-0.013982068747282028,-1.6862497329711914,0.2692321836948395,0.7415685057640076,0.49754172563552856,-1.436347246170044,1.7007439136505127,0.2998088002204895,0.0250466950237751,0.332976758480072,2.2583885192871094,-0.6160480380058289,0.5270571708679199,-0.7862226963043213,-1.0692129135131836,0.3291997015476227,0.08809281885623932,-0.21513110399246216,-1.3569515943527222,-0.8932153582572937,-0.05781213939189911,-0.07191170752048492,1.3383607864379883,0.2801625430583954,-1.6183925867080688,-0.4796995222568512,0.46798446774482727,1.6653656959533691,0.8355565071105957,0.7282408475875854,0.06442022323608398,0.3135974109172821,0.8015784025192261,1.1560074090957642,-0.36488741636276245,1.6483415365219116,1.3520121574401855,0.3689732551574707,0.581933319568634,-0.13810615241527557,0.5847087502479553,0.23272714018821716,-0.42691770195961,0.26825398206710815,-1.1815789937973022,-0.2071755975484848,0.3477242588996887,0.14927490055561066
24,-0.31797680258750916,-0.048627424985170364,1.5049911737442017,-0.961683452129364,-0.8165866732597351,-0.6088244318962097,0.16347604990005493,0.7938961982727051,0.21294838190078735,0.15006448328495026,-0.3222470283508301,0.27606886625289917,-0.5804994702339172,-0.28570911288261414,0.510384202003479,-0.6239078044891357,1.1652193069458008,-0.8167029619216919,-0.3511793315410614,-0.19971026480197906,0.22651824355125427,-2.0105888843536377,-1.0204492807388306,-0.2015208899974823,-0.5486857295036316,-0.6152985692024231,-0.3120729923248291,-0.3306586742401123,0.7835039496421814,-0.8102777600288391,-1.0677169561386108,0.566501796245575,1.4507381916046143,-0.2418384850025177,-0.4255794286727905,0.15237516164779663,0.3274884819984436,-1.253149390220642,-0.39039313793182373,1.7779476642608643,-0.7599062919616699,-0.5412969589233398,-0.976671040058136,1.003956913948059,0.6621153354644775,-1.477524995803833,0.11095937341451645,-1.5103107690811157,1.4954121112823486,1.487618327140808,0.001000522170215845,0.5062073469161987,0.20311665534973145,0.06542004644870758,-0.12702125310897827,0.049495525658130646,0.6967483162879944,0.86216139793396,0.9200013875961304,0.8572996258735657,-0.6501419544219971,0.48731428384780884,-1.5073611736297607,-2.53273606300354,0.6278194785118103,-0.7893741726875305,1.6486111879348755,0.3669218122959137,-1.65626060962677,0.9995247721672058,-0.3683694899082184,-1.019085168838501,1.1612125635147095,0.9730068445205688,0.3436221480369568,-0.8115025758743286,-0.31836849451065063,1.1066486835479736,-0.9665963649749756,1.1095739603042603,-1.3265188932418823,-1.1210684776306152,-0.8037774562835693,0.032135970890522,-2.106626033782959,-1.581152081489563,0.5014393925666809,-0.5479059219360352,-1.025040864944458,0.5159116983413696,0.5283942818641663,-0.010087545029819012,-1.8153550624847412,-0.3879431188106537,0.7451595067977905,-1.5593817234039307,1.05031156539917,-1.2366079092025757,-1.8415688276290894,0.07457313686609268,0.42725491523742676,-1.2925466299057007,1.2088861465454102,-0.9248202443122864,0.07119645923376083,-1.700879693031311,-0.9437710642814636,0.6754798293113708,-1.6010035276412964,-1.1727700233459473,0.6255198121070862,-2.081803560256958,-0.8367550373077393,-2.140497922897339,-0.26860904693603516,-0.4728893041610718,-0.555066704750061,0.14325906336307526,-0.3103025257587433,-0.8367688059806824,-0.619881808757782,-0.012694787234067917,-0.3792111277580261
25,-1.1761442422866821,-1.4546189308166504,-0.48104435205459595,-0.8181739449501038,-0.9087234735488892,-0.14716044068336487,-0.4245031476020813,-0.45896220207214355,-1.8032628297805786,-1.8714640140533447,0.6680967807769775,-0.6511030793190002,-0.9913296103477478,-0.8031733632087708,0.6549903154373169,-0.8609976768493652,0.3762468695640564,-0.9181243181228638,1.6378535032272339,2.20625638961792,0.1687099039554596,0.1672305017709732,-0.16255560517311096,0.6821451187133789,-0.6923918128013611,-1.6622519493103027,0.5130085349082947,0.2020489126443863,0.013571679592132568,1.736586332321167,-1.1496552228927612,0.623729944229126,0.937374472618103,0.2799451947212219,0.6699317693710327,-1.7321467399597168,-0.6981499195098877,0.442964643239975,-0.29478734731674194,0.024157535284757614,0.2711627185344696,-1.8887566328048706,-1.6280075311660767,-1.5338177680969238,0.3270605504512787,-0.4434836804866791,1.626159429550171,-0.5335410833358765,2.5452606678009033,-0.6625532507896423,1.1936155557632446,1.412811040878296,0.24520233273506165,0.1619206666946411,0.6088566780090332,-0.6737360954284668,0.5596123337745667,-2.8448150157928467,-0.7033568620681763,0.03315437212586403,-0.3612881302833557,-0.568167507648468,0.027211930602788925,1.0768522024154663,0.1449516862630844,-0.043201301246881485,0.39770272374153137,-2.3440279960632324,-0.8029724955558777,-0.7603586316108704,-0.9581626653671265,0.5758606791496277,-1.0718551874160767,1.2350133657455444,-1.0964677333831787,-0.2504253685474396,-1.484359860420227,-1.4273667335510254,-1.7511831521987915,0.18616361916065216,-1.076951503753662,-1.9290167093276978,-1.7125978469848633,-0.11571424454450607,1.5784562826156616,-0.9861316680908203,-0.4935762584209442,0.9833776354789734,-1.0254368782043457,0.6461156010627747,0.699203372001648,-1.2059621810913086,1.2081445455551147,-0.09655455499887466,-1.2438311576843262,1.1053932905197144,0.05657175928354263,0.9088508486747742,1.0869663953781128,0.8803955316543579,-0.6366024613380432,-0.531726598739624,-2.3177073001861572,-1.0332773923873901,0.14805902540683746,0.9791163802146912,-0.17617036402225494,-0.578639805316925,-1.8993436098098755,-0.7819675207138062,-0.901190459728241,1.2715727090835571,0.21327655017375946,-0.29466891288757324,0.8046990633010864,0.8728643655776978,-1.796015739440918,1.6199500560760498,-1.2840344905853271,0.29195263981819153,0.22806885838508606,-1.0325645208358765,0.09293884038925171
26,-1.4345791339874268,0.01437358744442463,0.48811715841293335,-1.1950277090072632,-0.3963203728199005,-0.07910673320293427,-0.662336528301239,1.2002230882644653,1.2608320713043213,-1.1826832294464111,-0.2982967495918274,0.34521251916885376,0.44508427381515503,-0.19985611736774445,-0.9716463088989258,-1.5027803182601929,-0.8064239621162415,-0.408331036567688,-0.9742844700813293,-1.286367654800415,-2.3164291381835938,-1.3202236890792847,0.48271119594573975,0.41999104619026184,1.1447614431381226,-2.0304999351501465,0.8784666657447815,-0.904486894607544,-0.7186618447303772,-0.8767270445823669,-1.6179043054580688,-0.16061167418956757,1.4048683643341064,0.21858422458171844,-0.18929962813854218,-0.20190778374671936,0.5036775469779968,-1.766348123550415,-0.7448272705078125,-1.174656867980957,-0.022584084421396255,1.1735912561416626,1.4006495475769043,-1.3362147808074951,-0.4470817744731903,-0.4900287985801697,-0.6845402717590332,-0.11679291725158691,-0.2823081612586975,-0.9600130915641785,0.025639580562710762,-1.4438945055007935,0.4225994944572449,0.007795365527272224,-0.6564324498176575,-0.03356219828128815,0.5091244578361511,-0.9812079668045044,-0.8304662704467773,-0.30857524275779724,-1.654358148574829,-0.8580752611160278,0.6450077295303345,-0.6411996483802795,0.338697224855423,1.1168431043624878,0.5394757986068726,-2.992807149887085,-1.3614951372146606,0.6087451577186584,-0.5700608491897583,0.10015051066875458,0.33317190408706665,-1.826656460762024,-0.13597917556762695,-2.0698068141937256,-1.2971009016036987,0.5530562996864319,1.9196293354034424,0.38775405287742615,-0.45579150319099426,1.0555672645568848,0.8200036287307739,-1.3947503566741943,0.3415936231613159,-0.6670148968696594,-2.199232339859009,-1.021910548210144,-0.29941675066947937,-0.8391811847686768,-0.18016844987869263,-0.03785160556435585,-0.2751038074493408,-1.051283359527588,0.40662363171577454,-0.9755703806877136,-1.1979120969772339,1.0988001823425293,-1.8084850311279297,-0.9992870092391968,-1.703919768333435,-0.910733699798584,2.3699612617492676,0.6986696720123291,-0.6473627090454102,-0.1587364375591278,-1.5229166746139526,-0.31971195340156555,-0.3614842891693115,-1.0603240728378296,-0.5099462270736694,-0.5511965155601501,0.22936329245567322,-0.06026119366288185,0.13345375657081604,0.001399036729708314,1.785905122756958,-0.13297048211097717,-1.3521169424057007,-2.429941415786743,-1.328992486000061,2.0711071491241455,-1.642858624458313
27,1.3817250728607178,0.7521258592605591,-0.82631915807724,-0.620686948299408,-0.31823819875717163,-0.3445485830307007,-0.33501049876213074,0.3738105893135071,0.07742123305797577,0.4599955976009369,-0.5441440939903259,-0.009417706169188023,0.6571921110153198,0.8223406076431274,-0.12396111339330673,0.2978217899799347,2.073367118835449,-0.31185057759284973,0.2902660071849823,0.13588398694992065,-1.0880059003829956,2.1851706504821777,1.0331815481185913,-0.10680058598518372,-1.1235190629959106,0.41003188490867615,1.048113465309143,-2.236745595932007,-0.396828293800354,0.9433885216712952,0.1551760584115982,1.1771355867385864,1.7063868045806885,-0.40150249004364014,0.3997284770011902,-0.8979002237319946,-0.2207532823085785,0.19624677300453186,0.8473719954490662,-1.5879799127578735,2.7569034099578857,1.1793749332427979,-0.14771124720573425,-0.5557646751403809,0.8097840547561646,0.9967899918556213,0.595667839050293,-1.0558600425720215,0.7823484539985657,-0.3946627080440521,0.6444874405860901,-1.44344162940979,-0.4531736969947815,0.5266318321228027,2.0207464694976807,1.0259467363357544,1.516436219215393,1.0747051239013672,-1.2770568132400513,0.40215712785720825,0.0812888965010643,-0.06396768242120743,1.2813513278961182,0.3068132698535919,0.24658484756946564,0.5361587405204773,-0.9007530808448792,1.9186713695526123,-1.2598066329956055,-0.41883283853530884,0.24155759811401367,1.0996909141540527,-0.5318636298179626,0.25895652174949646,0.3677225708961487,-0.8220813870429993,-0.536077618598938,0.48113805055618286,-0.13057702779769897,-0.7772882580757141,0.643351137638092,-0.39482825994491577,-0.3147188425064087,-0.07162671536207199,0.9988094568252563,-0.6750672459602356,0.26683494448661804,0.20752552151679993,0.6783329844474792,-0.08794096112251282,-0.40794748067855835,0.7616392970085144,-1.8146657943725586,0.2031412273645401,0.9667838215827942,-0.3023524880409241,0.3915853500366211,-1.0795257091522217,0.7621540427207947,-1.0993013381958008,-2.1173384189605713,-1.160751223564148,1.1317540407180786,-0.2209402471780777,1.3924139738082886,0.0986545979976654,-0.9573597311973572,0.7419426441192627,0.2380673587322235,0.14407022297382355,0.6700285077095032,0.35180535912513733,-0.14326421916484833,0.1084306463599205,-0.9545776844024658,-1.0788546800613403,0.8492674231529236,0.5415886640548706,0.1490228921175003,0.7986735701560974,-0.04695146158337593,0.9501118659973145,1.5380961894989014
28,-0.8103471398353577,0.47985512018203735,-0.7430180907249451,-0.52072674036026,-1.902069091796875,-0.14557617902755737,-0.7111920118331909,-0.13435083627700806,0.16473866999149323,0.7165571451187134,1.142391324043274,-0.07795221358537674,-1.901080846786499,-2.082184314727783,-1.552418828010559,0.42495834827423096,0.016232704743742943,-2.225916624069214,-0.7180407643318176,-0.6747398972511292,-0.38396644592285156,0.09429140388965607,1.112379550933838,-1.061000108718872,0.3773477375507355,-0.4969136118888855,-0.3662131428718567,0.3636416792869568,-0.31681105494499207,2.6310794353485107,2.0071353912353516,1.3140980005264282,-0.7351852655410767,1.2342501878738403,-0.09528312087059021,-0.05294689163565636,0.5569688081741333,0.1683092713356018,2.3252527713775635,-2.373115062713623,-1.8785902261734009,0.38896289467811584,1.8116073608398438,0.7676602005958557,-0.12751995027065277,-0.27685239911079407,-0.9101024866104126,-0.3944723606109619,-0.8222995400428772,-0.5107271075248718,-1.5292868614196777,-0.8397888541221619,-1.6751757860183716,0.4977482557296753,-1.7586115598678589,-1.7264240980148315,2.066312313079834,-0.12140585482120514,0.0050595770590007305,-0.9868649244308472,0.2867927551269531,-0.9910568594932556,0.39485329389572144,-1.3285459280014038,-0.13729192316532135,-0.16189393401145935,-0.05700471252202988,-0.5148450136184692,-0.796079158782959,-1.1669806241989136,-1.2233742475509644,-0.5259247422218323,-1.0560230016708374,-1.0230650901794434,0.39198577404022217,0.24687527120113373,-0.805098295211792,0.5801107287406921,0.19372344017028809,0.8700195550918579,-1.3865224123001099,-1.1058324575424194,0.544221043586731,-2.8381383419036865,2.199812650680542,0.6077021956443787,-1.466467022895813,0.7101221084594727,-0.4102444648742676,0.890716552734375,0.7084560990333557,-0.11695852875709534,0.47029250860214233,-0.7630641460418701,-1.1440995931625366,1.6993941068649292,0.7977238893508911,0.022066734731197357,0.4477168321609497,-2.5225303173065186,1.427816390991211,0.8285502791404724,0.3584887981414795,0.3327063322067261,-0.31330302357673645,-0.2987940311431885,-1.4595154523849487,0.31982508301734924,0.23769491910934448,0.5966657400131226,-0.24548643827438354,-2.304342746734619,-0.1545201689004898,1.107043981552124,-0.990388035774231,-0.05174054950475693,-0.9994158744812012,1.1964898109436035,0.005327066872268915,1.0120126008987427,-0.9524002075195312,-0.49469536542892456,-1.2153494358062744
29,-1.6792720556259155,-0.24585659801959991,0.3451942503452301,0.041914306581020355,0.42950981855392456,0.34224405884742737,-0.599743664264679,-0.2923542559146881,3.3325724601745605,0.5424585938453674,0.28632086515426636,1.9887720346450806,0.047542259097099304,0.0029428370762616396,-1.7849390506744385,-0.6452035903930664,0.2133694440126419,1.1125348806381226,-1.7588051557540894,0.9882115125656128,-0.9514361023902893,1.6494430303573608,-0.597048819065094,-0.7795496582984924,1.5420974493026733,-0.5116104483604431,1.7302463054656982,0.11383704096078873,0.31079334020614624,-0.31698834896087646,-0.07404562085866928,0.015115988440811634,0.6615898609161377,1.3042960166931152,-1.0144569873809814,-0.4038178622722626,0.12326576560735703,0.1791895627975464,-0.6550030708312988,1.6282763481140137,1.2932857275009155,0.6341319680213928,-0.42640963196754456,-1.0306742191314697,-1.170338749885559,0.6797810196876526,2.7283995151519775,0.5076456069946289,1.2250443696975708,-0.11572577804327011,-0.9109861254692078,0.22715580463409424,-0.27315396070480347,1.7395350933074951,1.0720369815826416,0.007406177930533886,-1.9746389389038086,1.5946632623672485,0.3196365535259247,-0.6440533995628357,-0.08852654695510864,-1.3191697597503662,0.2585907578468323,0.2580162584781647,-0.07534901797771454,1.564376711845398,-0.5638938546180725,1.4274663925170898,1.7447441816329956,0.6066600680351257,0.24215412139892578,-0.27559953927993774,0.24100784957408905,0.3591870665550232,0.970074474811554,-0.8107348084449768,-0.4539424479007721,0.0519578792154789,0.3438604176044464,-2.075160264968872,2.060811758041382,-1.2561172246932983,0.9041971564292908,-2.060478687286377,0.07712972164154053,-0.728289783000946,0.7018187046051025,-0.051968611776828766,-0.8512604236602783,-0.25687915086746216,-0.5386312007904053,0.8569629788398743,-0.13109643757343292,-0.5982502102851868,0.8929553627967834,-0.049890365451574326,0.3274126350879669,1.0537233352661133,-0.39107707142829895,1.231783390045166,1.90280020236969,-0.38795262575149536,-0.28586944937705994,1.6225810050964355,-0.2760491967201233,-1.340288519859314,-0.039054881781339645,-1.4068769216537476,1.378674030303955,0.8728312253952026,1.6630408763885498,1.20139479637146,0.9068111181259155,0.9706506729125977,0.25729334354400635,-1.183748483657837,1.469296932220459,0.17031799256801605,-0.3212643563747406,-0.1943550705909729,-0.09230852872133255,0.18510279059410095,-1.0823322534561157
30,-1.1051394939422607,1.3106297254562378,2.04725980758667,0.7176564931869507,-0.3779332935810089,0.2774304747581482,-0.16920965909957886,0.8193516731262207,-0.49727949500083923,1.3566006422042847,-0.2832356095314026,0.5628716945648193,-1.6529897451400757,0.5090970993041992,1.2228295803070068,1.1206190586090088,-0.011414585635066032,-0.8710706830024719,0.19476114213466644,-0.3444390892982483,-1.2219336032867432,-0.2032465785741806,1.3093098402023315,0.24930024147033691,0.42178457975387573,-0.8390206694602966,0.7789820432662964,-0.1069190725684166,-0.16772565245628357,1.7989177703857422,-0.5285768508911133,1.4196088314056396,0.7156276106834412,0.9810476303100586,-1.2183412313461304,-0.07278595119714737,0.738277792930603,-2.0883476734161377,-1.2821862697601318,-0.5066857933998108,-0.28403738141059875,-1.334517240524292,-0.503722071647644,0.7062471508979797,-1.7686282396316528,-0.25293898582458496,2.1180429458618164,-0.8346216678619385,-0.45757976174354553,-1.4196149110794067,-0.12005074322223663,-3.2692368030548096,-1.584647536277771,1.038554072380066,-1.6695986986160278,-0.25486066937446594,-0.425223708152771,0.4048629105091095,-0.40918242931365967,-1.1544272899627686,0.3972857892513275,-0.1099672019481659,-0.3676169216632843,-0.5060147643089294,-1.1170374155044556,0.32790133357048035,0.3494082987308502,-2.255465269088745,1.1760956048965454,-0.3321746587753296,0.041049715131521225,0.2800983786582947,-0.6899215579032898,-1.405099868774414,-1.2254406213760376,0.43330156803131104,0.3375226557254791,0.692252516746521,0.21217148005962372,-0.2624415159225464,-0.09751013666391373,-0.9761990308761597,-0.1912422776222229,0.2548485994338989,-0.895156741142273,0.08186355233192444,0.8791567087173462,0.7931792736053467,-1.0244437456130981,0.05917865410447121,-0.1155841052532196,0.3468097150325775,-1.2426340579986572,-1.418433427810669,1.8736850023269653,-1.7273355722427368,0.5567153692245483,-0.9442287683486938,-0.7751612663269043,-0.0013377789873629808,-1.8324754238128662,0.8600471615791321,-0.3584979772567749,0.1748300939798355,0.7449796795845032,-1.4344426393508911,-0.04247744008898735,0.545172393321991,-1.2360502481460571,-0.5999580025672913,-0.2978430390357971,0.8153552412986755,-1.563421368598938,0.7645991444587708,-2.072373867034912,1.404737114906311,-1.98067045211792,-1.1005839109420776,0.19959169626235962,-0.02482927031815052,0.13596311211585999,-2.199622869491577,-0.26088955998420715
31,-0.05665962025523186,1.0229113101959229,-0.20144960284233093,0.9470407366752625,-0.21481779217720032,-0.9056017398834229,0.8135708570480347,1.6232397556304932,1.6855137348175049,-0.6598681211471558,1.0819580554962158,0.07413937896490097,0.23065119981765747,-0.6379631757736206,-1.0824850797653198,0.6800862550735474,0.6748594045639038,0.13815709948539734,-0.2644749879837036,-0.1444418579339981,-1.4510273933410645,0.5852102041244507,-0.3473863899707794,-1.345510482788086,3.16337513923645,0.19871968030929565,-0.6629840731620789,1.3835619688034058,-0.09469825029373169,0.5617930889129639,-0.7857518792152405,0.46001383662223816,0.6547835469245911,0.7248068451881409,-0.8272298574447632,-0.6838052272796631,-0.6644148230552673,0.8748788833618164,0.0345432348549366,0.7083757519721985,-0.4444315731525421,1.3618202209472656,1.0479742288589478,0.5608832836151123,-0.26379305124282837,-0.7626805901527405,-0.4057201147079468,-0.6279855966567993,1.1162470579147339,0.8804000616073608,1.5041457414627075,0.04882369935512543,0.5852855443954468,1.194817066192627,-0.7456268668174744,0.6652637124061584,-0.35952457785606384,2.048988103866577,-1.0817456245422363,-0.26234665513038635,-0.268231600522995,0.5276004076004028,-1.5872159004211426,-0.8689047694206238,0.774554967880249,0.0707763135433197,1.0874983072280884,0.2488633543252945,-0.7863923907279968,0.015035497955977917,-0.702851414680481,0.2525590658187866,1.2078728675842285,0.44518476724624634,1.3642020225524902,0.11435432732105255,-0.8404403924942017,2.1046321392059326,0.9493882060050964,1.3818937540054321,-0.6073926091194153,-1.9589252471923828,-0.016707252711057663,-1.6557745933532715,-0.6647843718528748,2.0496890544891357,-0.6764333248138428,2.4073355197906494,0.9918482899665833,-2.183586835861206,-0.030090106651186943,1.0741034746170044,-0.2715505063533783,-1.0691397190093994,0.390234112739563,2.3896303176879883,0.10925634205341339,-0.81705242395401,-0.657197117805481,-2.5136566162109375,0.1809438169002533,0.0929180234670639,-0.342386931180954,0.2679542899131775,-0.25321733951568604,2.3102078437805176,-0.6922529935836792,-0.93751060962677,-1.732350468635559,1.0298117399215698,0.9665051102638245,2.860239267349243,-0.47117483615875244,1.0329651832580566,-0.18422512710094452,-1.3147274255752563,-0.05537334457039833,-0.45413246750831604,-0.5549946427345276,0.568039059638977,-1.3843914270401,-0.26166650652885437,0.39642971754074097
32,-1.2631014585494995,-0.715229868888855,0.12175547331571579,0.9979435205459595,-0.353081077337265,-0.3691468834877014,0.7633503079414368,1.6200228929519653,-0.38119885325431824,2.1553800106048584,0.7145461440086365,0.13519436120986938,0.6854137182235718,1.093791127204895,-0.0790734589099884,0.6863046288490295,-0.3665843605995178,-0.5998598337173462,0.025086652487516403,2.5937469005584717,0.09995978325605392,1.3659443855285645,-0.6150282025337219,1.3832175731658936,-0.9339075684547424,-0.9169065952301025,-0.8127564787864685,0.10631341487169266,-0.4427327513694763,-0.9165000915527344,-2.5370404720306396,1.0703788995742798,1.1959196329116821,0.402648001909256,0.8535821437835693,-0.45056474208831787,0.6909390091896057,-0.33121421933174133,-0.07457751035690308,0.5149549841880798,-0.14188243448734283,-1.9427443742752075,1.3035820722579956,-0.12839215993881226,-0.4261378049850464,-0.9042895436286926,0.3969905376434326,0.6787053346633911,0.6201856136322021,1.2665959596633911,0.8985787034034729,1.0213956832885742,0.11682157218456268,0.013563482090830803,0.4582802653312683,1.0121986865997314,-0.2751308083534241,-0.4643525183200836,0.16714556515216827,-2.970491647720337,-0.7945830225944519,-0.5393517017364502,1.5275124311447144,-0.2427693009376526,-1.1904475688934326,0.8639624714851379,0.6205454468727112,0.37148624658584595,1.1333249807357788,0.20135341584682465,2.0021793842315674,-1.000844120979309,-0.3258333206176758,0.18117763102054596,-1.8392670154571533,2.4076430797576904,-0.5653650164604187,1.4437587261199951,0.9189094305038452,-0.13699494302272797,1.3307850360870361,-1.0009095668792725,1.6152476072311401,-0.09769031405448914,-1.82526433467865,1.4178366661071777,0.2035795897245407,0.7844866514205933,-0.45267707109451294,0.8517676591873169,-0.17592120170593262,0.2215013951063156,-1.2813764810562134,0.07599970698356628,-1.6228176355361938,-0.629592776298523,0.4114517867565155,1.0637714862823486,0.5273478627204895,1.7834848165512085,0.06007281318306923,0.4786902964115143,-0.47464388608932495,0.5102466940879822,-0.44762131571769714,-0.29130837321281433,0.25146782398223877,0.4838607907295227,-0.10318244993686676,-0.3419877588748932,0.7851229906082153,0.48103442788124084,-0.5834353566169739,1.249914526939392,-0.5791077613830566,0.7995148301124573,0.8908922672271729,0.838790774345398,0.9330660700798035,-0.509560763835907,2.3798255920410156,0.7871571779251099,0.3139379024505615
33,-0.14353376626968384,-0.6321943998336792,-0.5747080445289612,0.26199182868003845,-0.41564881801605225,-0.2298448234796524,-0.21927225589752197,-1.2086836099624634,-1.1940096616744995,-1.9299640655517578,0.25389066338539124,-0.13456842303276062,0.5719352960586548,0.7177042365074158,-0.38184547424316406,-2.350724458694458,-0.42915940284729004,-0.17185533046722412,-0.04479203373193741,0.7566272020339966,-1.3043230772018433,1.1696789264678955,0.5500154495239258,-0.2658160626888275,2.0262696743011475,1.1885007619857788,0.31538277864456177,1.1595607995986938,-0.11768405139446259,-0.8930192589759827,-1.322718620300293,-0.3778938353061676,-0.16734112799167633,0.16868112981319427,0.7083820700645447,-0.23840975761413574,0.6261116862297058,-1.1172343492507935,1.450703740119934,1.52834951877594,-0.11344600468873978,0.2522963285446167,-0.9893350601196289,-1.0436288118362427,-0.6589789390563965,0.011534922756254673,-0.5991156697273254,1.1100202798843384,-1.1998355388641357,0.6283120512962341,1.2413196563720703,-0.15962554514408112,-0.2663494646549225,0.013338591903448105,1.9363301992416382,-0.9575863480567932,-0.39451780915260315,-0.7034679651260376,0.7518743276596069,0.7298198342323303,-1.2722609043121338,-1.386501669883728,-0.7192296981811523,0.3060799837112427,0.635115921497345,0.13133227825164795,0.4095286726951599,0.30516043305397034,-0.04337406903505325,-0.7427034378051758,0.2854560315608978,0.5580342411994934,-0.6247320175170898,-1.4845277070999146,-0.11495686322450638,0.5178412795066833,-0.6654329895973206,-0.10936479270458221,-0.36750084161758423,-1.3318850994110107,0.6685762405395508,-1.6219409704208374,-0.2856684923171997,1.3943766355514526,0.9840384125709534,-0.9599573016166687,1.8238886594772339,0.40385112166404724,0.7625390291213989,-0.6144468784332275,0.7230385541915894,0.5740660429000854,-0.021984392777085304,0.4325743615627289,0.12782776355743408,-0.5515535473823547,-0.6107767224311829,0.08790028095245361,1.0076801776885986,-1.231250286102295,0.003737200051546097,-0.49531957507133484,1.2403477430343628,0.5883533954620361,0.3983675539493561,-0.05237350985407829,0.4886859059333801,-0.07456756383180618,-0.7236263155937195,0.2539680302143097,-0.07953616976737976,-1.418520212173462,0.06427460163831711,0.5882061123847961,2.3706603050231934,-1.7714074850082397,-0.4690793454647064,-0.8153302073478699,-0.267001211643219,-2.2935678958892822,-2.900391101837158,0.395354688167572,0.53813236951828
34,0.18781301379203796,0.9943656921386719,0.5112091302871704,0.4504346549510956,0.8702515363693237,1.0670212507247925,-0.49097636342048645,-1.1462866067886353,-0.34837543964385986,1.3222475051879883,-0.48666688799858093,-2.1861343383789062,-0.527718722820282,-0.5378180742263794,-0.16553664207458496,0.6642511487007141,-0.8432045578956604,-0.17934547364711761,0.7230685949325562,0.4535485804080963,-0.16405527293682098,-1.173910140991211,-1.0912669897079468,0.2644628584384918,1.4534807205200195,0.7848165035247803,0.7561014294624329,-1.6853054761886597,-0.7986007332801819,-0.9099745750427246,-0.7586379051208496,-0.5934531688690186,0.9648303389549255,0.8757525682449341,0.284532368183136,0.40510597825050354,-1.948386549949646,-1.9820306301116943,-0.2730051875114441,1.3108038902282715,-0.03985702991485596,-0.563110888004303,-0.4062722325325012,0.1373860090970993,-0.08606788516044617,1.1153744459152222,-0.7631259560585022,-0.28454291820526123,0.20931340754032135,-0.022365570068359375,1.0935364961624146,0.47549328207969666,-0.21147038042545319,-0.4641135632991791,-0.17433366179466248,-1.6265329122543335,0.3409784734249115,-0.443429172039032,1.1393635272979736,-0.7471625208854675,-1.4706504344940186,0.32999280095100403,-0.7065362334251404,0.5537261366844177,0.05527283251285553,-0.10012175142765045,-1.4050235748291016,0.27024126052856445,0.3850024938583374,0.6416950821876526,-0.370642751455307,0.2516305446624756,0.22121059894561768,-0.09660069644451141,-1.3382396697998047,0.7102535367012024,0.43820977210998535,0.1715792864561081,0.7143540978431702,0.28447574377059937,1.9331278800964355,0.5323424935340881,0.22027917206287384,-0.5744336247444153,0.6185894012451172,1.0354394912719727,0.8512470722198486,-0.5168298482894897,1.2636510133743286,0.6527793407440186,0.15476106107234955,1.0722461938858032,-2.262523889541626,-1.2696139812469482,0.8167513012886047,-0.8128085136413574,-0.7058388590812683,-0.5163226127624512,0.011355714872479439,0.6587271094322205,0.2643914520740509,-0.053089872002601624,-0.4063056707382202,0.04648435488343239,0.9162837266921997,1.362191915512085,-0.20150814950466156,-0.2239101529121399,1.3789314031600952,-0.6000511050224304,1.4557757377624512,1.5967684984207153,0.9687947630882263,-0.022099195048213005,1.1335972547531128,0.8589829802513123,-0.3328060805797577,2.1158573627471924,0.9188879728317261,-0.16399283707141876,-0.41173407435417175,-1.143723964691162,-0.054277047514915466
35,-0.8016374707221985,-0.0018587401136755943,1.529928207397461,-1.346801996231079,-1.9313561916351318,-2.936356782913208,0.014115319587290287,1.099024772644043,-1.0650908946990967,-0.46669822931289673,1.1831612586975098,1.6090222597122192,-0.17321714758872986,0.08648189902305603,1.293053388595581,0.8708310127258301,1.1245774030685425,0.9092701077461243,1.883108377456665,0.5190245509147644,0.34349560737609863,-1.0192967653274536,0.46075117588043213,-1.7849254608154297,0.7514779567718506,-0.6067354083061218,-0.9656886458396912,0.7249405384063721,-0.04613367095589638,-1.7724361419677734,-0.05211051180958748,1.0915535688400269,-0.6743531227111816,1.2014414072036743,-0.8002703785896301,0.3919224739074707,-0.6593291163444519,0.8461799621582031,1.4121719598770142,0.29095906019210815,0.7651554942131042,1.506272554397583,-0.8356572985649109,-0.3641188442707062,0.5669443607330322,-1.288376808166504,-0.7812103033065796,0.3905732035636902,0.30121269822120667,-0.4106539189815521,-0.4303004741668701,-0.5120726227760315,0.6131722927093506,-0.07853222638368607,0.1708269864320755,-0.6348633170127869,-1.3128151893615723,-2.972353935241699,0.01049483846873045,1.4955658912658691,-0.06914220005273819,-0.3429524004459381,2.3568639755249023,-1.6174076795578003,-0.9511632919311523,-0.8009777069091797,0.2465507537126541,0.24220751225948334,0.02755190059542656,-1.1450293064117432,-1.1995666027069092,-0.4476609528064728,0.5088541507720947,-0.5391503572463989,0.5147877931594849,-0.461507111787796,0.0464351624250412,0.14540478587150574,-0.712441086769104,-2.313469648361206,-0.15468686819076538,1.1449332237243652,-1.9548481702804565,-0.9978986978530884,-0.20671747624874115,-0.13560152053833008,1.7747864723205566,0.6448672413825989,-1.1742982864379883,0.6815932393074036,-0.22280582785606384,-0.7128888368606567,-0.005943345837295055,0.6963247656822205,-0.41407158970832825,-1.318737268447876,-0.7786151170730591,0.17439419031143188,-0.16147218644618988,-1.7004566192626953,-2.118565082550049,-2.0256128311157227,-1.0794042348861694,-1.558587670326233,-1.0813510417938232,-0.154041588306427,-1.4601398706436157,0.4714343249797821,1.1993964910507202,0.4905339777469635,-0.2028999626636505,-0.5916587710380554,0.22507591545581818,1.972347617149353,0.16964088380336761,-0.10931932181119919,-0.6376979351043701,0.06298903375864029,0.8194650411605835,0.7454092502593994,1.9032927751541138,0.0754629448056221,-0.9063187837600708
36,0.44168567657470703,0.7223520874977112,0.3382789194583893,1.1161397695541382,-0.09770210087299347,-0.49808749556541443,-1.281990885734558,0.9852285981178284,0.11207141727209091,-1.3822804689407349,1.583621621131897,-0.8145542144775391,-1.186550498008728,0.5636051893234253,-0.013329819776117802,0.556735634803772,0.5897331237792969,1.0607410669326782,-1.4235910177230835,0.13440461456775665,-1.5964406728744507,0.03536507114768028,2.247040033340454,-0.3257404863834381,-0.019673693925142288,0.03282934054732323,-0.4964923858642578,0.024171113967895508,1.2326006889343262,1.395277500152588,-1.228513240814209,0.5595220923423767,-0.057326868176460266,0.12479105591773987,-0.935681164264679,-2.5655477046966553,-0.6684173345565796,-1.861413836479187,-1.2865713834762573,-0.14077460765838623,-0.024203993380069733,0.6871480941772461,0.2024076133966446,-0.5600724816322327,-0.8963200449943542,-2.2827813625335693,1.838494896888733,0.8881881237030029,-0.5303093791007996,0.3765481114387512,-0.868043839931488,-0.6194178462028503,-0.3913916349411011,0.044684723019599915,-0.2141893208026886,0.4618910253047943,-0.21205031871795654,-0.40815073251724243,0.4321843981742859,-1.826634407043457,-0.785631537437439,0.0713653415441513,0.9207647442817688,-1.3863767385482788,0.6161669492721558,-2.221208333969116,-1.5931302309036255,0.12733040750026703,-1.2804557085037231,0.30745360255241394,-2.7717223167419434,0.0007290923385880888,0.4476247727870941,-1.3302888870239258,0.5111441612243652,-1.0196118354797363,1.4417152404785156,-1.155852198600769,-0.5051767826080322,-0.09413725882768631,-0.2971535623073578,-0.5201040506362915,-0.7999229431152344,0.4955936372280121,0.2251986712217331,-2.2045302391052246,-1.6537188291549683,0.22253219783306122,0.9685916900634766,0.6285434365272522,-0.28692126274108887,-1.3268429040908813,-1.4856979846954346,-1.2665876150131226,-1.977811574935913,-0.3388303816318512,-0.41775307059288025,-1.0221543312072754,-1.2126898765563965,-0.37267571687698364,-0.6207060217857361,0.40600618720054626,-1.0968388319015503,0.24443300068378448,0.48749715089797974,-1.1147595643997192,-0.6232601404190063,0.21058711409568787,-0.05649663880467415,-0.09859000891447067,-0.9409070611000061,-0.8434247374534607,0.2815502882003784,-0.48067617416381836,0.30353817343711853,0.6039914488792419,-0.32985562086105347,1.5394296646118164,-0.8371115326881409,0.21281826496124268,1.5614262819290161,-0.10289046913385391,0.8897528052330017
37,-0.40001988410949707,-0.21040858328342438,1.3756402730941772,-1.610683798789978,1.0625879764556885,-1.2183356285095215,-0.7684383988380432,0.4850943088531494,-0.13524968922138214,-0.45628821849823,-0.2334931641817093,1.7085908651351929,-2.1402881145477295,0.352175235748291,0.887566328048706,0.6260022521018982,1.0618728399276733,-0.7457331418991089,-0.2886561155319214,-0.22295130789279938,0.1307573765516281,1.1160205602645874,-0.026291850954294205,1.4205899238586426,1.5542161464691162,-0.44022148847579956,0.17604996263980865,-1.2489917278289795,-0.17161419987678528,-1.1944637298583984,0.0679112896323204,1.43830406665802,0.14172935485839844,0.225571870803833,-0.015438109636306763,1.1127952337265015,1.1985570192337036,1.1631826162338257,1.4346510171890259,-1.1961815357208252,-1.0843815803527832,0.5114611983299255,0.7147942185401917,-0.17063383758068085,0.48392099142074585,0.18889012932777405,-0.13361075520515442,0.10213380306959152,-0.06186596304178238,-2.111485004425049,-0.9220037460327148,-0.2954566478729248,-0.5601802468299866,1.7701506614685059,-1.0438655614852905,-1.12949800491333,-0.7657784223556519,-0.9742226600646973,-0.9772346019744873,-0.49812498688697815,-1.481632947921753,-2.353602170944214,-1.3433929681777954,1.205708622932434,0.07485707849264145,-0.585677444934845,-0.8445757627487183,1.4960888624191284,0.6592106819152832,1.5157102346420288,1.0728065967559814,-0.6326310634613037,1.0400065183639526,-0.07649647444486618,0.7824150919914246,-0.5697464942932129,0.20412583649158478,1.6450607776641846,-1.5436147451400757,-1.663435697555542,0.9101717472076416,-0.0251784548163414,0.4488161504268646,0.918947160243988,-0.08832602947950363,1.2570823431015015,0.5061576962471008,-1.3801681995391846,0.31210675835609436,0.7504420280456543,-0.9254009127616882,1.6455018520355225,-0.451992928981781,-2.22414231300354,0.6447188854217529,-0.49261051416397095,-1.295821189880371,-1.7402969598770142,-0.6413595080375671,-1.8335977792739868,0.050049152225255966,1.044612169265747,0.553784966468811,-1.6374539136886597,-0.26978540420532227,0.7158781886100769,0.36042001843452454,0.8549728989601135,-1.735411524772644,0.6975386142730713,-1.2451105117797852,0.34417101740837097,-0.8140375018119812,1.1857142448425293,0.07486402243375778,0.26166170835494995,-0.6780202984809875,-0.8299248218536377,0.7865738868713379,-0.9397546052932739,-1.9676551818847656,1.6605042219161987,-0.33120909333229065
38,-1.6762053966522217,0.32713446021080017,-0.28081828355789185,0.7478609085083008,1.0362632274627686,-0.6637030243873596,2.6394290924072266,-0.5115271210670471,-1.0035055875778198,0.7097544074058533,0.8832497596740723,-0.9507477879524231,-0.4675147831439972,0.2212553769350052,-0.3051038980484009,-1.8356022834777832,-1.3749370574951172,-0.661965012550354,-0.6595261693000793,-0.009765837341547012,0.2726905941963196,1.0559992790222168,1.8059066534042358,-1.1304986476898193,0.25931012630462646,-2.3108060359954834,-0.3659745156764984,-0.4844895899295807,0.7441478371620178,-1.653883934020996,-1.1595479249954224,0.8317975997924805,-0.05101553723216057,1.2840272188186646,-1.6727039813995361,1.0247514247894287,-0.694340705871582,-0.5495722889900208,-0.9050945043563843,0.8890613913536072,0.8112143278121948,1.1286087036132812,0.6054021120071411,0.7660423517227173,0.15342481434345245,1.547349214553833,1.674170732498169,-1.1667068004608154,-1.2359057664871216,-0.39519548416137695,-1.5615170001983643,-0.6821042895317078,-1.9839043617248535,0.2756887972354889,-1.4638440608978271,0.16618409752845764,-0.17800383269786835,0.050406474620103836,-0.543812096118927,-0.7635014057159424,-1.3074135780334473,-0.8730752468109131,-0.6794779300689697,0.8742771148681641,0.4785723388195038,-0.5854506492614746,0.8969788551330566,-1.6499613523483276,0.9491688013076782,-1.703413963317871,-1.1334688663482666,1.3888734579086304,0.5877052545547485,0.5244653820991516,-2.667438507080078,1.2146741151809692,0.7710509300231934,-0.011948063969612122,1.5693682432174683,1.1075040102005005,0.7286159992218018,-0.6096411347389221,-0.20394393801689148,-0.42542794346809387,0.1911303848028183,-0.702753484249115,1.3980705738067627,0.9483501315116882,-1.4682778120040894,-0.5874160528182983,1.7906203269958496,0.009817092679440975,0.8414648771286011,-0.16947171092033386,0.7851040959358215,1.2031593322753906,0.7872735261917114,0.6934471130371094,-1.3790228366851807,1.7868982553482056,0.18772117793560028,-0.5338875651359558,0.9378251433372498,-1.9452141523361206,1.7305265665054321,-1.2644349336624146,-1.887053370475769,-1.1813310384750366,-1.1790128946304321,0.10419733822345734,-1.5037943124771118,0.9974108338356018,-0.7837125062942505,-1.9697694778442383,-1.0682954788208008,0.15502361953258514,0.18316365778446198,0.08763395249843597,-0.8426184058189392,0.1001860722899437,-1.2923630475997925,-0.620111882686615,1.3725483417510986
39,-0.49496251344680786,0.7525901794433594,-0.5002829432487488,-1.204599380493164,0.38132283091545105,0.07059576362371445,0.31303510069847107,-1.7228264808654785,0.33579203486442566,0.9289491772651672,0.11356417834758759,-0.1972326785326004,-0.8654468655586243,-0.5655950903892517,0.5134498476982117,0.24884024262428284,-0.31685683131217957,-1.0349913835525513,-0.7182703018188477,0.8877410888671875,-1.099256157875061,1.4085344076156616,-0.4262613356113434,1.1341696977615356,0.20653797686100006,1.3027396202087402,-0.42702651023864746,-0.12618280947208405,-1.4183403253555298,0.013849375769495964,0.49189504981040955,-0.7537266612052917,1.3455032110214233,-0.9713901877403259,0.3901117742061615,-0.41731497645378113,1.1979832649230957,0.7043685913085938,0.19275705516338348,-1.342480182647705,-0.0030926137696951628,1.143712043762207,-0.25886139273643494,-0.845171332359314,0.46501198410987854,0.5581440925598145,1.0979549884796143,1.5564624071121216,0.10106481611728668,-0.7718503475189209,0.6056443452835083,0.17227979004383087,0.4093688726425171,1.01380455493927,-2.2025418281555176,-1.7923396825790405,-0.9163671731948853,1.935003399848938,-0.7222051024436951,-0.02752857282757759,-0.7799007296562195,1.4921120405197144,0.47410085797309875,1.3703712224960327,-0.22986632585525513,-1.296284556388855,-0.9664450287818909,-0.8891265988349915,-0.4047064781188965,-0.8549910187721252,0.26143646240234375,1.2545051574707031,-0.6803261041641235,-0.06421227753162384,2.6129631996154785,-0.3210964798927307,-0.5992178320884705,0.41570815443992615,-1.0686570405960083,-0.9771696329116821,-0.5632913112640381,-1.1696124076843262,-0.32381153106689453,0.1685049682855606,1.6125714778900146,0.2087998390197754,-0.311877578496933,0.07759181410074234,0.9280528426170349,-3.585740566253662,1.346625804901123,1.472079873085022,-1.1689881086349487,-0.2534466087818146,0.5106918811798096,-0.5826728940010071,-0.6066619753837585,-0.4525127112865448,-0.28453823924064636,-0.24439017474651337,1.1248985528945923,1.4970052242279053,-0.565151572227478,0.7715948224067688,0.11824452877044678,-1.0156424045562744,-1.2929140329360962,0.6131877303123474,-1.0593206882476807,-0.9948306083679199,0.3870449662208557,-0.8328197598457336,-2.1845569610595703,-0.9289684891700745,-0.4332314133644104,-0.33097949624061584,0.5508814454078674,-0.5790022611618042,-0.5703931450843811,-0.36555108428001404,0.16389724612236023,-1.1721727848052979,-1.9908264875411987
40,-1.4443310499191284,-0.1967184990644455,0.6647165417671204,-2.173198938369751,-0.4189005196094513,0.8819536566734314,-1.9186400175094604,0.4534415304660797,-0.7539186477661133,-0.8882775902748108,1.0057774782180786,-0.15127220749855042,-0.5798488855361938,-0.13133518397808075,0.3285670876502991,-1.3604069948196411,0.23600183427333832,0.1383320540189743,-0.08019436150789261,0.8478104472160339,-1.248461365699768,0.47199010848999023,-1.7629719972610474,1.1202669143676758,1.1272863149642944,-0.023280847817659378,-1.6446415185928345,-0.4093126952648163,0.17561191320419312,0.9039626121520996,0.19392754137516022,0.7944522500038147,-1.1492149829864502,2.0741655826568604,0.8191455006599426,1.4857858419418335,1.1510363817214966,-0.08658190816640854,1.0476704835891724,-1.18761146068573,0.06926891207695007,-0.2885446548461914,2.2608673572540283,0.20802545547485352,1.351859211921692,-1.8635141849517822,0.647421658039093,-0.21431751549243927,1.2770434617996216,0.8912800550460815,1.4956601858139038,-1.688631296157837,1.5328363180160522,0.6158502697944641,0.11582674831151962,2.000377893447876,0.6262335777282715,1.221680998802185,0.5515998601913452,0.008875155821442604,-0.041740935295820236,-0.04569673910737038,-0.5651204586029053,0.9495726227760315,1.2212127447128296,0.9525240659713745,-0.4645529091358185,0.395948588848114,-0.8735329508781433,-0.2958531975746155,-0.5365848541259766,-1.265154480934143,-2.1914443969726562,-1.1352241039276123,-1.229079246520996,0.03472698852419853,-1.1145541667938232,1.502538800239563,1.8228216171264648,0.1489090621471405,2.579124689102173,0.09522908926010132,1.8296722173690796,-0.43521973490715027,-0.1163673922419548,1.2292159795761108,1.1663625240325928,-0.061201393604278564,-0.15393531322479248,-1.664429783821106,-0.7067137360572815,-2.425493001937866,0.06324335932731628,-0.762401819229126,0.7792932391166687,0.5833277702331543,-0.7023733854293823,-0.5729895234107971,-0.38689491152763367,0.36205780506134033,-0.8195131421089172,-2.144282579421997,1.1235740184783936,0.272710382938385,0.3457828462123871,1.532165288925171,-0.2512899935245514,1.4169379472732544,0.5897856950759888,-0.25197190046310425,0.36337724328041077,-0.2785530090332031,0.07346782088279724,1.6566855907440186,0.3327460289001465,1.322471261024475,0.8392903804779053,0.6218903064727783,0.6303287148475647,-1.2360328435897827,0.5761318206787109,0.3643520176410675,-1.4248042106628418
