,0,1,2,3,4,5,6,7,8,9,10,11,12,13,14,15,16,17,18,19,20,21,22,23,24,25,26,27,28,29,30,31,32,33,34,35,36,37,38,39,40,41,42,43,44,45,46,47,48,49,50,51,52,53,54,55,56,57,58,59,60,61,62,63,64,65,66,67,68,69,70,71,72,73,74,75,76,77,78,79,80,81,82,83,84,85,86,87,88,89,90,91,92,93,94,95,96,97,98,99,100,101,102,103,104,105,106,107,108,109,110,111,112,113,114,115,116,117,118,119,120,121,122
0,-1.5870009660720825,-0.6242755651473999,-0.5978698134422302,2.8981704711914062,2.114335775375366,-0.226277157664299,1.3364580869674683,0.634948194026947,1.3061190843582153,-0.04686842858791351,0.08445529639720917,-1.7543903589248657,-1.0175671577453613,0.22364670038223267,-1.4887295961380005,-0.05761813744902611,0.1663219928741455,-0.0922558382153511,-1.3284505605697632,0.303890198469162,0.5755831599235535,0.313301682472229,-0.09514538198709488,1.5644731521606445,1.696960687637329,2.872074604034424,0.733889639377594,1.1556193828582764,-1.799251914024353,0.42383918166160583,-0.36115705966949463,3.1675736904144287,1.220964789390564,-0.22297222912311554,0.007427694741636515,0.7168194055557251,0.4363764524459839,1.9093867540359497,-0.6593624949455261,-0.1343790888786316,0.4931371212005615,1.4865329265594482,2.11865234375,1.209161639213562,-0.575594425201416,1.6520801782608032,1.4377522468566895,0.5209857821464539,1.7077765464782715,0.9610326290130615,-0.4265407919883728,1.732792615890503,1.0733212232589722,1.7492117881774902,0.14998261630535126,-0.2742536962032318,1.7460682392120361,0.9700018763542175,-1.1225037574768066,0.12971848249435425,0.5551769137382507,0.31569528579711914,-0.07372278720140457,-0.5097360610961914,-1.251876950263977,0.8455985188484192,-0.904353141784668,0.20556746423244476,0.5173758864402771,0.9543794393539429,0.8282601237297058,-0.7333493828773499,0.2995753884315491,0.4680051803588867,0.10798952728509903,0.5373609662055969,0.4053136706352234,-0.8902722597122192,-3.1690516471862793,0.48470538854599,0.6567533612251282,1.2626794576644897,-0.8857389092445374,-1.6200237274169922,-0.6257399320602417,-0.11340484768152237,-0.3432190418243408,-0.32160133123397827,1.7211438417434692,-2.4238545894622803,-2.5785694122314453,-0.9107358455657959,-0.8321568369865417,0.5708521604537964,-0.3243470788002014,-1.6959034204483032,1.6797094345092773,0.24725432693958282,-0.24152030050754547,-0.6399941444396973,-1.2564482688903809,1.9658585786819458,0.3819736838340759,1.5686676502227783,-1.2218105792999268,1.0252211093902588,-0.005026069935411215,-0.5241902470588684,-0.5232759714126587,0.09657730162143707,0.3596719801425934,-0.704870343208313,0.5142959952354431,-1.9060418605804443,0.17947135865688324,1.4889589548110962,2.0200698375701904,-1.1348856687545776,1.7358368635177612,-1.4463958740234375,1.8391515016555786,0.4071215093135834,-0.37836307287216187
1,-0.2053825557231903,0.37486928701400757,-0.10995560139417648,-0.3294997215270996,1.3663371801376343,0.0937584713101387,0.013996797613799572,1.6860660314559937,1.6026908159255981,-1.027909755706787,-1.3867602348327637,1.384717345237732,-1.0395196676254272,0.37888211011886597,-0.6133862733840942,-0.18440383672714233,-0.2354373186826706,-0.5624844431877136,-0.042070042341947556,0.35204392671585083,-0.7100456357002258,0.8040490746498108,0.6875386238098145,0.6371592879295349,-1.2895673513412476,-0.11367105692625046,1.5924001932144165,-2.231116533279419,-0.4682636559009552,1.8162007331848145,0.48758068680763245,0.9439454674720764,-1.371311902999878,0.7100606560707092,-0.3509197235107422,-0.5245500206947327,1.719843864440918,1.1064047813415527,-0.0005308069521561265,0.22319228947162628,-0.7750899791717529,-0.376422643661499,-0.28390535712242126,-1.0160220861434937,-0.15055875480175018,-0.564746618270874,0.2335657775402069,0.12304632365703583,-0.5142353773117065,0.7254326343536377,-0.22984330356121063,-0.3633953332901001,0.43707624077796936,1.5499643087387085,-0.00011937176168430597,-1.0196943283081055,-1.6551079750061035,-1.1772273778915405,-0.2984699606895447,0.689159095287323,-0.03940531238913536,0.9310202598571777,0.5525088310241699,0.15011247992515564,0.46988445520401,2.199678659439087,1.7079423666000366,-0.7561140656471252,-0.8056371808052063,-0.9151938557624817,-0.3838033378124237,0.5711121559143066,2.107895851135254,-0.8957080245018005,-1.0144439935684204,-1.8020085096359253,-1.4221587181091309,1.6692237854003906,0.7017800211906433,-1.6870529651641846,-0.8425021767616272,-0.2304365187883377,-0.6016981601715088,-0.9258032441139221,0.7744333148002625,-1.5321016311645508,0.8575347065925598,1.2812248468399048,0.17865394055843353,0.09112569689750671,-0.42435356974601746,0.8390994071960449,0.09599480032920837,1.2446346282958984,-0.587765634059906,0.6019653677940369,0.6564497947692871,0.8342551589012146,1.1472660303115845,-1.0987155437469482,-1.191602349281311,-0.06823589652776718,-1.4354851245880127,-1.6711891889572144,-1.6768935918807983,0.9096378087997437,0.7306861877441406,0.8772525787353516,0.40664148330688477,-0.309187650680542,0.24026338756084442,0.9041451811790466,-1.141473412513733,1.6933319568634033,0.9245545268058777,0.10537896305322647,0.03544227406382561,0.9483071565628052,-0.8726187348365784,-0.0028091324493288994,0.03887011483311653,0.9503529667854309,-0.33523866534233093
2,-0.32064780592918396,0.8946911096572876,1.1766234636306763,-0.8650946617126465,-1.6986761093139648,-1.6292359828948975,-1.2646238803863525,-0.6800022721290588,-0.419107049703598,-1.4470616579055786,1.1147949695587158,-2.1464781761169434,1.4153931140899658,-2.353156328201294,-0.4661492705345154,-0.3483661413192749,-1.230799913406372,-0.3699794113636017,-0.35484379529953003,1.6007530689239502,0.4059382677078247,0.4321569502353668,0.47142666578292847,0.05276622995734215,-1.4669135808944702,-0.5655947327613831,-1.3188917636871338,1.58402681350708,3.3435659408569336,-0.36220553517341614,0.05641249567270279,-1.5125463008880615,0.49676641821861267,0.9458950757980347,-0.7763245701789856,0.017195016145706177,1.1588352918624878,1.4399046897888184,-0.07102333754301071,0.36593005061149597,-0.5056759715080261,-0.5665156841278076,-0.6888831853866577,1.5792584419250488,0.5774632096290588,-0.3018781840801239,-1.1001579761505127,1.06908118724823,0.3030269145965576,-0.9219774603843689,-0.4282115399837494,-1.0502088069915771,-0.9738654494285583,-0.5409847497940063,0.5065098404884338,-2.6923372745513916,0.7438184022903442,-0.07168187946081161,-0.1684267371892929,-0.5961400866508484,0.723258912563324,0.3284090757369995,-0.23818238079547882,-0.07156386971473694,-2.299323320388794,-1.0526063442230225,0.5289728045463562,0.5910142064094543,-0.7264743447303772,0.29613053798675537,0.8344948291778564,-0.39746081829071045,-0.5077834725379944,0.2559072971343994,-0.7437515258789062,1.131704568862915,0.1716732531785965,0.37958332896232605,0.71974116563797,0.043548353016376495,0.32969900965690613,-0.29292792081832886,-0.9660020470619202,-0.04824964329600334,2.306384325027466,-0.5931091904640198,-0.13432295620441437,-0.4389255940914154,2.536529541015625,0.8051776885986328,0.4980543553829193,1.9823437929153442,-0.20146581530570984,-1.0307717323303223,-1.255059838294983,-1.8685357570648193,-1.9047107696533203,2.1359658241271973,-0.4943642318248749,-0.45670410990715027,-1.7695918083190918,-0.18095946311950684,-0.2360944151878357,-0.10475214570760727,-0.4292236268520355,-0.08120297640562057,0.6078816056251526,0.22702182829380035,-1.0076210498809814,0.7335529327392578,-1.9752155542373657,-1.2692956924438477,-0.6864213347434998,1.0579196214675903,-1.6922214031219482,-0.07514221221208572,-2.22688889503479,-0.26033005118370056,-0.37639451026916504,-0.04842611402273178,0.2414228320121765,-1.495030164718628,-0.04414850100874901
3,-0.1244489997625351,1.7683171033859253,0.1772918701171875,-1.8869227170944214,0.014573182910680771,-2.391814947128296,-0.7524533271789551,-0.7364394664764404,-0.7607580423355103,0.37833172082901,-0.13223549723625183,-0.7714874744415283,1.3477046489715576,-2.3216359615325928,-1.0788054466247559,-1.0937695503234863,0.4994668662548065,-2.0047945976257324,0.8367707133293152,0.10382165014743805,0.6414013504981995,0.15273982286453247,0.24595601856708527,-0.12811240553855896,-1.7155401706695557,1.2460596561431885,-0.6727285981178284,-0.4803028106689453,0.7809880375862122,-0.996155321598053,-1.4928549528121948,1.9465121030807495,-0.9511843919754028,-0.3935509920120239,0.8737838268280029,-1.0010733604431152,0.19276650249958038,-2.0620672702789307,0.16503876447677612,-0.07893413305282593,2.182877540588379,0.7268663644790649,0.2888741195201874,0.3060721158981323,-0.5563687086105347,-0.800102949142456,-0.5012041926383972,0.20285189151763916,-0.22662779688835144,-0.9416806101799011,-0.9707197546958923,0.9420686960220337,0.6679123044013977,-1.9150264263153076,0.0843101441860199,0.3008697032928467,-1.5094623565673828,-1.5562753677368164,-2.3239896297454834,-0.5574589371681213,-0.061429932713508606,-0.43988439440727234,0.29070761799812317,-1.266920566558838,-1.6656012535095215,-1.397241234779358,-0.37537211179733276,-0.29637137055397034,-1.6989977359771729,-0.5983961820602417,2.0768110752105713,-0.6871404647827148,-0.20369496941566467,-0.3408876061439514,-1.3970047235488892,0.7909119129180908,-1.7888275384902954,-0.8416304588317871,0.5641817450523376,0.8105393052101135,-0.5140117406845093,-0.2850842773914337,0.022857841104269028,-0.8313559293746948,-0.05803821608424187,-1.0225862264633179,0.7859841585159302,0.4164189100265503,1.1806763410568237,1.340301275253296,-0.5612022876739502,-2.086766481399536,-0.24625486135482788,0.39218446612358093,0.3956330716609955,-0.9352523684501648,-0.48162978887557983,0.5191701054573059,0.029001759365200996,0.11583404242992401,-0.2609471082687378,0.01600857451558113,-0.43883511424064636,-1.5439555644989014,0.35242459177970886,1.1540902853012085,0.10402312874794006,-0.29297134280204773,-1.8467516899108887,-0.6945992708206177,-1.233916997909546,-0.32928451895713806,1.208391547203064,1.245228886604309,-1.3238216638565063,-1.3612934350967407,-0.38259178400039673,1.546322226524353,1.0643925666809082,0.8051064610481262,0.5058308243751526,0.5093157887458801,-1.3828861713409424
4,-0.8747194409370422,-0.9228176474571228,0.8413118124008179,-0.2529725134372711,0.09732300043106079,0.6648847460746765,0.9140522480010986,-0.7858126163482666,0.3632931709289551,-0.36739739775657654,-0.7252359390258789,-1.360575556755066,-1.104132056236267,0.4729468822479248,-2.8072450160980225,0.6724735498428345,-1.3436808586120605,0.03283969312906265,-0.06265299022197723,-0.06725496798753738,0.5639752149581909,0.9658945798873901,0.04094136506319046,0.04905719682574272,0.04270150139927864,0.18828582763671875,-1.6540446281433105,0.595950722694397,-2.2720065116882324,1.7829982042312622,0.5792431235313416,0.7318942546844482,1.480584740638733,1.5745444297790527,-0.44746002554893494,-1.2936147451400757,0.18248288333415985,-0.16347795724868774,1.860278844833374,1.1217916011810303,-0.8896674513816833,-0.13921689987182617,0.6082107424736023,0.08139903843402863,-0.30753448605537415,-0.026561608538031578,0.03694445267319679,-2.0754809379577637,0.5562164187431335,-0.32942095398902893,0.2581052780151367,0.45464766025543213,0.061580315232276917,-0.7050980925559998,-0.6999696493148804,0.38913944363594055,1.0959131717681885,1.1656404733657837,0.4004518687725067,0.02078910544514656,-0.08146659284830093,0.5396047830581665,1.9279818534851074,-0.6698996424674988,-0.7926479578018188,-0.8122578859329224,-0.33106452226638794,0.6661970019340515,-1.077789306640625,1.1258987188339233,0.1481224149465561,-1.6370165348052979,0.17330335080623627,-1.883033037185669,-2.5269570350646973,0.9707885980606079,-0.8742408156394958,-0.24576935172080994,1.0584359169006348,-0.22823333740234375,0.7196577787399292,1.1009416580200195,0.5084277391433716,-1.679389238357544,-0.007245921529829502,0.2117280811071396,0.8753290176391602,-2.1600279808044434,0.27441829442977905,0.9866101145744324,-1.1899908781051636,-0.20500460267066956,-0.6348693370819092,-1.1319019794464111,0.71665358543396,2.6810076236724854,-0.14486181735992432,0.3916764557361603,0.0822916179895401,0.6589418053627014,1.1436340808868408,-0.08170431107282639,0.3054302930831909,0.5916677117347717,0.31061992049217224,-0.24652019143104553,-0.8913119435310364,-0.9360073208808899,-0.5361610651016235,-0.5387898087501526,0.28061896562576294,0.04219285771250725,0.9281181693077087,0.33220750093460083,0.08625511080026627,0.9927183389663696,0.6597391963005066,0.7002027034759521,0.8011354804039001,0.34550946950912476,1.140565037727356,0.08666011691093445,0.10087862610816956
5,0.8090136051177979,0.5055437684059143,-0.3558206856250763,-0.4405631422996521,-0.6165707111358643,-1.2386152744293213,1.1583207845687866,0.4423326849937439,-0.20671166479587555,0.11487351357936859,0.14384157955646515,-2.3315701484680176,-0.41065284609794617,1.2394688129425049,0.17116433382034302,-0.3258165419101715,0.5621315836906433,1.497424602508545,0.9527550339698792,0.9152434468269348,-0.7326659560203552,-0.01583968475461006,-1.3918687105178833,1.3134217262268066,0.15142707526683807,1.1323515176773071,-1.0889188051223755,-0.34696730971336365,0.5748805403709412,-2.412838935852051,1.3692139387130737,0.11056370288133621,0.8395088911056519,1.740584135055542,0.3996758460998535,1.8135030269622803,-0.19793245196342468,-0.7045894265174866,0.8854694366455078,-0.6149752736091614,0.14751818776130676,0.08437822759151459,-0.27003535628318787,-1.6619141101837158,-0.13740205764770508,-0.7572188973426819,-0.992587149143219,0.6176324486732483,-1.1535300016403198,0.5339947938919067,-0.09512684494256973,-0.16928741335868835,-0.8488340973854065,0.11433455348014832,-1.5564284324645996,0.31025177240371704,0.03247378394007683,0.27209529280662537,-0.5105329155921936,-1.18690025806427,0.2448803335428238,-0.19922707974910736,-0.8351312279701233,0.3611026704311371,1.2761180400848389,0.03899385780096054,1.334815263748169,-0.48907145857810974,0.9998692870140076,0.5341811776161194,-0.8746393918991089,0.047908246517181396,-0.04333428665995598,2.035629987716675,0.9245677590370178,0.3689397871494293,0.46052286028862,-0.48859602212905884,-0.18293724954128265,0.13773050904273987,-1.2641631364822388,0.47108641266822815,-2.113473653793335,1.2752934694290161,0.13987882435321808,0.7615708112716675,0.15212419629096985,-1.1389625072479248,0.23775158822536469,1.1980512142181396,0.7167139053344727,-0.1730964332818985,1.5651715993881226,-0.6316061615943909,0.2605465352535248,0.08290576934814453,1.2365248203277588,0.5847721695899963,-0.48324742913246155,-0.6451042890548706,0.21064934134483337,1.3463555574417114,1.1036758422851562,-1.1399184465408325,-0.3863905370235443,0.7192638516426086,1.5994620323181152,1.4281532764434814,0.16727451980113983,-0.3739863336086273,-1.850003957748413,-0.36398041248321533,0.8068810105323792,0.0242318008095026,0.893998920917511,-0.27117714285850525,-1.150117039680481,-0.45470932126045227,-0.17968395352363586,-0.32727301120758057,-0.2414553165435791,-0.4257713854312897,1.1671168804168701
6,0.16478410363197327,-0.2775641679763794,0.9526291489601135,0.42386943101882935,-0.14707714319229126,-0.24708202481269836,-0.9498072266578674,-1.244339108467102,-1.2538833618164062,1.0328432321548462,-0.624597430229187,0.6953370571136475,-0.16195325553417206,-0.21218208968639374,2.5476882457733154,-1.0756679773330688,0.28820401430130005,-1.1048285961151123,-0.22612935304641724,-0.41250115633010864,0.2470676153898239,0.3907274603843689,0.3059341311454773,-0.6885846257209778,-0.2143423706293106,-0.09875219315290451,-0.5693605542182922,-1.415480375289917,-1.0625033378601074,0.42246928811073303,-1.9842461347579956,0.23960748314857483,0.704600989818573,-0.014253978617489338,-1.582135796546936,2.031768321990967,0.6891195178031921,0.9817391633987427,-0.18945300579071045,0.167515367269516,1.4028698205947876,0.26993903517723083,-1.3346924781799316,0.07375144213438034,0.9539669752120972,-0.9340397715568542,-1.114912748336792,-1.3738782405853271,0.6630179286003113,-1.0237154960632324,-0.6766334772109985,0.06414997577667236,0.42231565713882446,-0.2884896695613861,1.1189261674880981,-0.24478204548358917,0.1397031545639038,0.2606492340564728,-1.3326495885849,0.5895184278488159,-2.183262586593628,-0.33775508403778076,0.6428894400596619,0.6072203516960144,-1.175903558731079,-0.07797463238239288,-0.8902429938316345,-0.4268116056919098,-1.0901180505752563,0.5049170851707458,-0.18021336197853088,0.17697229981422424,0.10968752950429916,-0.8666790723800659,0.2799065113067627,-1.0482829809188843,-2.2743794918060303,-0.29900458455085754,-1.8921679258346558,-1.2540392875671387,-0.6688718199729919,-0.1512039750814438,-1.6188243627548218,-1.4221454858779907,-0.20131425559520721,0.5891640782356262,-0.22346511483192444,1.102591633796692,-0.8699022531509399,-0.38080930709838867,-0.5894018411636353,-0.5710092782974243,1.064543604850769,0.5603898167610168,-1.0666818618774414,-0.0796925351023674,-0.7364781498908997,-0.6652741432189941,-0.10002579540014267,-1.3011690378189087,0.0522492453455925,0.4558068513870239,2.3165345191955566,0.5796623826026917,-0.04965956136584282,-0.18473252654075623,-1.6274476051330566,-0.01095122192054987,-1.6305646896362305,-1.0469368696212769,-0.10332480072975159,0.254716157913208,-0.9345682859420776,-1.8178235292434692,-0.4091636538505554,-0.47711363434791565,-0.5855435132980347,-0.7466092705726624,-0.407991886138916,0.03597618266940117,-0.4631446301937103,0.28005340695381165,-1.1128617525100708
7,1.6877148151397705,0.2613229751586914,1.7387025356292725,0.4957886338233948,0.2601719796657562,1.281096339225769,-1.032306432723999,0.5769115090370178,1.192274570465088,-0.8330115079879761,-0.0957493782043457,-0.5753656029701233,0.20894305408000946,-0.7178515195846558,-0.061034396290779114,2.3261516094207764,-0.22873200476169586,1.7703434228897095,-0.23247674107551575,-0.2031640261411667,0.8404736518859863,-1.0922619104385376,0.7929635047912598,0.10334090143442154,-0.9707179069519043,-0.1629055291414261,-0.7528977394104004,-0.3649311661720276,0.9674158096313477,1.8479501008987427,0.32409340143203735,-1.1583842039108276,-0.35914304852485657,1.9419407844543457,0.6979150176048279,0.3053213357925415,-1.269897699356079,0.6622697710990906,-0.4054141342639923,-0.3357127010822296,-0.14706476032733917,0.035042863339185715,-0.7616971135139465,0.3555258512496948,-0.8831347823143005,-0.4460987448692322,1.1640758514404297,1.7606052160263062,-1.1478105783462524,1.323099970817566,0.4126434922218323,-0.7058907151222229,-0.025004001334309578,0.5521262884140015,-0.11440211534500122,-0.4408182203769684,1.7972372770309448,0.9442025423049927,-0.5196443200111389,-0.5876530408859253,-0.16076955199241638,0.5877301096916199,0.7081828117370605,0.4581124186515808,-0.8807400465011597,0.9748103022575378,-0.6223871111869812,-0.1342952698469162,-1.3398324251174927,-1.1526029109954834,-1.2185367345809937,1.035598635673523,0.28048786520957947,0.3989282548427582,0.6121169924736023,-1.022078037261963,-0.6663311719894409,-0.25663501024246216,1.7175722122192383,1.9758082628250122,0.5237362384796143,0.2711547911167145,-0.36750468611717224,0.49690449237823486,1.2587419748306274,2.4035563468933105,0.7872786521911621,-1.4728033542633057,-0.4701300263404846,0.2082003802061081,1.2530999183654785,1.9270914793014526,-0.18229041993618011,1.010900616645813,0.9137312769889832,-0.4385335445404053,-0.5353599190711975,2.354341745376587,0.19939427077770233,0.7205695509910583,-0.3596671521663666,0.7256448864936829,-2.136883497238159,0.7506668567657471,-0.1479339450597763,3.415193796157837,2.3453893661499023,0.6788785457611084,1.180506944656372,0.4883740544319153,0.048890721052885056,-0.04897646978497505,0.9542152285575867,1.4991323947906494,-0.17923471331596375,-0.8157370090484619,0.9494497776031494,0.6990270614624023,0.547220766544342,1.1428858041763306,0.40386366844177246,-1.1600682735443115,-1.2287858724594116
8,1.7419549226760864,0.030672824010252953,0.19528084993362427,-1.6917297840118408,0.05051180720329285,-0.6279528737068176,0.06741057336330414,0.22238534688949585,-0.7943472266197205,-0.6915447115898132,-0.5183706879615784,0.9632125496864319,0.15203404426574707,-1.6148478984832764,0.18736332654953003,1.5362087488174438,-1.458300232887268,1.1084054708480835,0.14181019365787506,0.8372867107391357,0.5953797698020935,0.11681904643774033,0.5792906880378723,-0.004467160440981388,0.7992439866065979,-2.3281755447387695,0.14699862897396088,0.6118917465209961,0.33106371760368347,0.29267418384552,1.5102165937423706,-1.3160758018493652,1.9343396425247192,0.9196915626525879,0.9472528100013733,0.5854200720787048,1.2367994785308838,-0.12984676659107208,-0.09015722572803497,1.4912129640579224,0.031230878084897995,0.4180321991443634,-0.5891751646995544,-0.2914014458656311,-0.24894513189792633,-0.2125042974948883,0.879447877407074,-1.1627821922302246,-0.2447948008775711,0.7691327333450317,1.4404456615447998,1.1394222974777222,-1.3971651792526245,0.7169464230537415,0.7532351613044739,0.37922751903533936,-0.6366063356399536,0.6012577414512634,-0.3151765465736389,1.8182446956634521,0.8438031673431396,-0.12945722043514252,-1.94596529006958,-0.6383390426635742,1.5043329000473022,0.6357082724571228,-0.0604272224009037,-0.30555710196495056,1.1610532999038696,-0.1009850725531578,-0.3903227746486664,0.27255749702453613,-1.143031358718872,0.5879106521606445,1.692803144454956,-0.24309244751930237,1.6630432605743408,-0.028164945542812347,-0.7990437150001526,-0.8677087426185608,-0.7572454214096069,-0.04831630364060402,-0.6721100211143494,-0.38430020213127136,-1.5703610181808472,-0.3733236491680145,-2.1488587856292725,-1.131914496421814,0.5452538132667542,-0.780606210231781,0.6154783368110657,-0.7544991374015808,-0.36428940296173096,0.5200608968734741,0.4356454610824585,-1.1093026399612427,0.27973508834838867,1.2106367349624634,1.2863645553588867,0.07769041508436203,0.06398139148950577,2.065816879272461,0.3525017499923706,0.6880688071250916,1.2091288566589355,0.09856700152158737,-1.5746185779571533,0.7441978454589844,-0.07252117246389389,-0.24111519753932953,0.03587362542748451,-0.3013516366481781,0.5648303627967834,0.11017986387014389,-0.09540858864784241,0.3777053654193878,-2.2462024688720703,1.1666576862335205,-0.8409194946289062,1.2413030862808228,-0.17368493974208832,1.3420703411102295,0.32008224725723267
9,-0.569004476070404,0.10732477903366089,-2.381688117980957,-1.4067103862762451,-0.7935883402824402,-0.757604718208313,-0.47437265515327454,0.5952244997024536,-0.6390633583068848,-0.21318776905536652,-0.6634178161621094,1.0644090175628662,1.4245821237564087,-0.24156710505485535,-0.4875199496746063,0.02959674783051014,-1.0947182178497314,1.3633246421813965,0.5041368007659912,0.09283976256847382,1.0341097116470337,0.7676404714584351,-1.1897728443145752,0.13924723863601685,-0.3496619760990143,0.17341282963752747,-1.0296921730041504,0.6393298506736755,-0.3119335472583771,-0.12945157289505005,1.4301866292953491,-0.7027504444122314,1.5772085189819336,0.4137902855873108,0.9183319211006165,1.4993231296539307,-0.41294750571250916,-1.0043901205062866,1.35603666305542,-0.32659780979156494,-0.4021596610546112,0.48985666036605835,1.60591459274292,1.289937138557434,2.3689308166503906,-0.816362738609314,0.6823264956474304,-2.5390400886535645,-0.925960123538971,0.1276940405368805,0.12260197848081589,0.9215293526649475,-1.4213274717330933,1.0559661388397217,0.6100642085075378,-0.7384466528892517,-0.7915606498718262,-0.6600344181060791,2.281569004058838,2.5769522190093994,0.3714119791984558,1.8679776191711426,0.7681147456169128,1.514382004737854,-0.1676575094461441,1.9798938035964966,-1.1552716493606567,0.5464179515838623,-0.9487764239311218,-0.8168418407440186,-0.4073900282382965,-0.682580292224884,-0.5076910853385925,-2.0964739322662354,0.37120622396469116,2.7523369789123535,1.771443486213684,-0.19698841869831085,-0.9224754571914673,1.3591715097427368,0.738107442855835,-0.2706337571144104,-0.06636103987693787,1.0274534225463867,-1.0062987804412842,-1.20978844165802,0.7321252822875977,0.05492406338453293,-1.3143190145492554,0.9895535111427307,-0.9501786828041077,0.2899615466594696,0.990526556968689,0.3341221511363983,-0.004660651553422213,-0.9630667567253113,-0.7712860703468323,-0.5260627865791321,0.28634798526763916,-0.946456253528595,0.4534190595149994,-0.5549047589302063,-0.732804000377655,0.6651886105537415,1.0284907817840576,0.3242169916629791,-0.580561637878418,-0.5982183218002319,0.6910857558250427,0.7646920680999756,1.6668221950531006,0.6742971539497375,0.2461368292570114,1.0308971405029297,1.4248546361923218,-1.9391993284225464,1.6907033920288086,1.1952768564224243,-0.47128546237945557,0.31636521220207214,0.2488369196653366,0.770995557308197,0.5127588510513306
10,-0.12023759633302689,0.6887826323509216,0.6278124451637268,-0.08634170889854431,1.5764946937561035,0.6665109395980835,1.3913204669952393,0.9602798223495483,1.3851875066757202,0.3865078091621399,-0.1978006213903427,-0.13448379933834076,2.077843427658081,-0.21728132665157318,-0.722312867641449,-1.0483938455581665,0.32593998312950134,-0.8745297193527222,1.720048427581787,-0.11100734025239944,1.5365791320800781,0.9603711366653442,-1.215636968612671,1.6740748882293701,-0.6984553337097168,-1.3136931657791138,-1.4654515981674194,1.1092369556427002,0.9389703273773193,0.3051866292953491,-0.8390793204307556,1.146803855895996,-0.7813840508460999,0.15519843995571136,-0.08978556096553802,0.5343961715698242,1.3973098993301392,-0.6519240736961365,-2.022399425506592,1.4484810829162598,-1.9712517261505127,0.42072179913520813,-1.2492477893829346,-0.6514690518379211,-1.391013503074646,0.9279623627662659,-0.08606556057929993,-0.42569804191589355,1.3450093269348145,-1.244154453277588,-1.0907174348831177,-0.7294734120368958,0.8309898972511292,-1.515913724899292,-1.5654044151306152,-1.1497735977172852,-0.09272057563066483,-0.45643267035484314,0.17967340350151062,-0.3906291723251343,-0.02472088858485222,0.7992132306098938,-0.31381508708000183,0.4896146059036255,0.13763229548931122,-0.035752858966588974,1.036913514137268,-0.616407573223114,-0.060939762741327286,0.8052096366882324,0.42953741550445557,0.8116322159767151,1.7726143598556519,-0.6664857864379883,0.14200982451438904,-0.4923664331436157,-0.730707049369812,-0.7545039653778076,-1.0246974229812622,-0.23056381940841675,-0.5414047241210938,1.5551155805587769,-2.777306079864502,-0.2971368134021759,-0.3962114751338959,-0.850908100605011,-0.675795316696167,-0.3332880139350891,1.4204388856887817,-2.155862331390381,0.49420979619026184,-2.6168012619018555,0.1940079778432846,0.9698794484138489,-0.30369433760643005,-0.8553696870803833,-0.9952199459075928,1.1355115175247192,-0.2299184501171112,-2.5380849838256836,2.027560234069824,-0.21385912597179413,1.545540690422058,0.9943320155143738,0.3951108157634735,0.2944374978542328,-0.93379807472229,0.1273559331893921,-0.7496743202209473,-0.2615180015563965,-0.5334723591804504,-0.9720728397369385,-1.2718321084976196,0.44890159368515015,-1.2838295698165894,-0.11947562545537949,-0.4816749691963196,-2.1880264282226562,0.7745414972305298,-1.8368113040924072,0.5634819865226746,1.512746810913086,1.6800109148025513
11,-1.5764076709747314,-0.35309579968452454,1.470249891281128,0.5723503232002258,0.2997276782989502,0.2998368442058563,-0.1317698210477829,0.14934523403644562,-0.7583001255989075,-0.8992926478385925,0.9958334565162659,0.2645396590232849,0.627447783946991,-1.2892096042633057,0.7390479445457458,1.0572328567504883,-0.9085032343864441,0.0953531414270401,-1.4364800453186035,-1.0147298574447632,-1.0607306957244873,0.9839091897010803,-0.918724536895752,1.8728113174438477,1.326361060142517,-0.9843283295631409,-0.5010587573051453,0.6054274439811707,0.5210175514221191,0.18804892897605896,1.075453758239746,0.3747461438179016,-0.7721946835517883,0.5855395197868347,1.226645827293396,0.8341993093490601,-0.17630106210708618,-0.4624865651130676,0.17827323079109192,-0.6995839476585388,1.7314469814300537,-0.5106506943702698,-0.8180996775627136,1.0744613409042358,0.7336031794548035,1.4024205207824707,-1.3726933002471924,0.6545764803886414,1.4881335496902466,-0.5874662399291992,-1.4025185108184814,-0.4124954044818878,0.9611260294914246,-1.1144260168075562,0.46463119983673096,0.6490982174873352,-0.2296987920999527,1.143736481666565,0.3412849009037018,-1.5064197778701782,-0.3816189765930176,-0.20958565175533295,-0.7855179905891418,1.9616891145706177,-0.2374703586101532,1.0602840185165405,-0.4507608711719513,-0.0629868432879448,-0.3966456651687622,0.6179765462875366,-1.2166752815246582,0.6759745478630066,0.2395147681236267,-0.5088883638381958,2.060940742492676,0.04632717743515968,-0.5211915969848633,1.5611637830734253,0.4576963186264038,-0.061450812965631485,0.20629557967185974,0.3947567939758301,0.31519028544425964,0.8003337979316711,0.2742319405078888,0.9784824252128601,1.3500183820724487,-1.1281729936599731,0.5504075288772583,-1.8189990520477295,0.7242485284805298,-0.9149736762046814,0.25214633345603943,-2.65572452545166,0.12569017708301544,0.7437090873718262,1.2156741619110107,-0.6139571070671082,0.7960244417190552,-1.2442076206207275,0.9354674816131592,0.9469863176345825,-0.8538633584976196,-1.3517889976501465,1.518898606300354,0.2808842062950134,0.5096402764320374,-2.1179590225219727,-0.5615584850311279,1.2488946914672852,0.3851608335971832,-0.43427303433418274,-0.6050846576690674,1.456178069114685,0.3226396441459656,-0.016004793345928192,-0.2210131287574768,-0.38747942447662354,0.6780568361282349,-0.4360462725162506,-0.3925851285457611,-1.1901410818099976,-0.009681561030447483
12,-0.20017771422863007,-0.4936743378639221,-0.16297711431980133,0.2749283015727997,-2.1312668323516846,0.834499716758728,1.5923709869384766,-0.11147329956293106,-0.6894368529319763,-0.1710498183965683,-0.6534830927848816,0.2936110496520996,0.6290225982666016,-0.10593042522668839,1.3687196969985962,-0.844736635684967,1.2940055131912231,0.6381744146347046,-1.8322563171386719,-1.0514652729034424,-1.2696894407272339,-1.3483461141586304,-2.9944710731506348,0.6495823264122009,0.3959978520870209,-1.074700117111206,-0.9385825991630554,-1.194307804107666,-0.4149487018585205,0.40382125973701477,-1.5404131412506104,-1.0486496686935425,-0.5079353451728821,0.2079363763332367,0.4393598139286041,0.5432049632072449,0.27864769101142883,-0.03427087143063545,-0.7698436379432678,0.2943028509616852,1.3135823011398315,0.491518497467041,1.0664024353027344,0.0879809781908989,0.9409160017967224,0.593178391456604,-0.5141927599906921,0.11341171711683273,-0.7933474779129028,-0.004592102486640215,-0.2747616171836853,-0.6604999899864197,-0.23289726674556732,0.15322941541671753,-1.33322274684906,0.6741305589675903,-0.8831988573074341,-0.1954776495695114,-0.6616294980049133,1.4901432991027832,-0.9292819499969482,-0.35520419478416443,1.9226467609405518,-0.24001556634902954,0.6321337223052979,-1.154728651046753,0.41426610946655273,-0.10219916701316833,0.21938206255435944,-1.8523015975952148,-0.08414909243583679,-2.2770297527313232,-1.2589832544326782,-2.0061535835266113,1.365825891494751,-0.35784465074539185,0.22727520763874054,-0.6363732814788818,-0.2894783318042755,-1.0535844564437866,-1.334494709968567,-0.5637246966362,1.5705291032791138,-0.7807941436767578,-1.190516710281372,0.5293717980384827,-0.7060877680778503,-1.4287891387939453,0.23407897353172302,0.02101004309952259,0.6516128182411194,-0.32742226123809814,-0.6183091402053833,-0.2421351820230484,0.9858496785163879,-0.156254380941391,0.6172623038291931,-0.022392338141798973,1.0745694637298584,0.7175171971321106,-0.27706220746040344,1.5747013092041016,-0.788927435874939,0.4041823446750641,-0.7795941233634949,0.1572037786245346,-0.23719815909862518,-1.8359488248825073,-0.7556173205375671,-0.45262184739112854,0.1939268559217453,0.7740179896354675,-0.05204789340496063,0.1100422739982605,0.829924464225769,0.7731831669807434,-0.27621349692344666,-0.27645325660705566,0.3143770098686218,-0.15905340015888214,-0.14822301268577576,-0.7498418688774109,-0.1588917374610901
13,-1.440627098083496,-0.007864519953727722,-0.6449750065803528,-1.390891432762146,0.9916175007820129,0.4635980725288391,0.34768328070640564,2.482499599456787,0.38970330357551575,0.19975551962852478,0.6356648206710815,1.4504013061523438,-2.1401002407073975,-1.2931956052780151,0.37642669677734375,-0.7455099821090698,0.30320990085601807,0.8271422982215881,1.4647454023361206,-0.5068314671516418,0.4672486484050751,0.13535693287849426,-0.7929437160491943,1.8983741998672485,-0.825667679309845,-0.9624280333518982,-1.2980071306228638,0.17306239902973175,0.833358108997345,0.13175934553146362,0.18153154850006104,-0.878810465335846,0.4974467158317566,0.1330804079771042,0.36714988946914673,-1.3171943426132202,0.6291819214820862,0.02534765563905239,-0.4456366002559662,-1.260977029800415,-0.03589710593223572,-1.3985097408294678,-0.2891618609428406,-1.3181397914886475,-0.8241872787475586,0.011800367385149002,-0.4568629264831543,-0.23957863450050354,-0.8979687690734863,-0.2706014811992645,-0.2589217722415924,0.07175625115633011,-0.30431708693504333,-0.8680458664894104,-0.222075417637825,-1.0647224187850952,-0.29372814297676086,-0.45196661353111267,-0.6769539713859558,-0.612284243106842,-0.903344988822937,0.09216141700744629,1.0764400959014893,-0.41288524866104126,0.8270694017410278,-0.862586498260498,-0.29219481348991394,-1.6634572744369507,-2.8455312252044678,-1.6621572971343994,-0.19061033427715302,0.6020031571388245,0.6454789638519287,-0.030074547976255417,0.8113399744033813,-1.8412938117980957,0.5639713406562805,1.5273404121398926,0.21073545515537262,-2.1887426376342773,0.15802401304244995,-1.321066975593567,0.3584437072277069,-1.4673110246658325,0.40540120005607605,-1.1019978523254395,0.17722243070602417,-1.8398106098175049,0.0933581069111824,-0.4659620225429535,-0.899253785610199,0.8675060272216797,-0.6159242391586304,-0.05070419982075691,0.4376212954521179,0.03500404953956604,-0.3394797146320343,-1.755834698677063,-1.6900005340576172,0.18368494510650635,-0.17762580513954163,-0.45091527700424194,-1.512034296989441,0.5915939807891846,1.1822972297668457,-0.34450358152389526,-0.7419319748878479,1.3866907358169556,1.4710874557495117,-0.09098341315984726,0.4816417098045349,-1.7287615537643433,0.41878798604011536,-0.7054515480995178,-2.1222517490386963,-0.41409623622894287,-1.4945082664489746,0.5642598271369934,-0.6165125370025635,0.21957162022590637,-0.4620529115200043,0.7313833236694336,0.20380587875843048
14,-0.5200516581535339,-0.1719628870487213,0.24031874537467957,0.7871345281600952,0.1449059098958969,0.21745598316192627,1.4170887470245361,0.5905566811561584,-1.8174175024032593,0.11529819667339325,0.5004632472991943,2.0833828449249268,0.7051094174385071,-0.1792643964290619,0.7401371002197266,-1.1404277086257935,-0.4608655273914337,-0.14687931537628174,1.2863402366638184,-0.052488621324300766,-1.2140181064605713,1.5838996171951294,-3.628847122192383,1.054184079170227,0.446454256772995,1.098943829536438,-0.23690883815288544,0.3145323693752289,0.6868539452552795,0.062478478997945786,1.3024206161499023,-0.08567535877227783,1.8147279024124146,1.7494511604309082,-1.488748550415039,0.6294529438018799,-0.8541684150695801,0.04319683089852333,0.34561023116111755,1.1023379564285278,0.08618348091840744,0.758307695388794,0.5634770393371582,0.5005567073822021,1.7069026231765747,1.3663500547409058,-0.529023289680481,0.06885742396116257,-1.1768823862075806,-0.5522055625915527,-0.5526884198188782,1.033286452293396,-0.909326434135437,1.1699390411376953,-0.39858195185661316,0.06713373214006424,1.1148107051849365,-0.26623404026031494,0.5178782343864441,0.5194323658943176,1.1013113260269165,0.7937132716178894,1.7325496673583984,1.0454789400100708,0.4533003270626068,0.933752179145813,-0.658129096031189,0.6880548000335693,-0.2837606370449066,-1.0817475318908691,0.2502490282058716,0.7043631672859192,0.49794626235961914,0.13376297056674957,0.06436329334974289,-1.1659601926803589,-0.14800575375556946,1.3978395462036133,2.1290295124053955,-1.1117349863052368,2.2426998615264893,-0.7817004323005676,1.048750400543213,0.13198959827423096,-1.135242223739624,0.9724863767623901,-0.9829553961753845,-0.2945025563240051,-1.7637124061584473,-0.8450074791908264,-0.7918714880943298,-1.3882982730865479,-1.1753079891204834,0.1828020215034485,1.657927393913269,0.9870926737785339,-0.4501250088214874,-1.413496971130371,0.45598065853118896,-0.1974567472934723,1.4959861040115356,-1.315706729888916,1.7423299551010132,1.632236361503601,-0.43680623173713684,-0.23412510752677917,2.0196890830993652,-1.7126978635787964,1.185968041419983,-0.7117305994033813,0.6437166929244995,0.18214625120162964,1.188407063484192,-0.7957397103309631,-0.18423816561698914,-0.4809410870075226,-0.3485167324542999,1.1703691482543945,-0.546137273311615,-1.337274432182312,-1.0420483350753784,0.017785711213946342,-1.9721399545669556
15,-0.7619637846946716,-0.861563503742218,-1.2337419986724854,0.7351353168487549,-0.47233572602272034,-1.1807634830474854,0.390165776014328,0.25585201382637024,-0.22149857878684998,-2.2312979698181152,1.145398497581482,-0.12410755455493927,1.0030416250228882,-1.3354921340942383,-0.6200327277183533,-0.21845677495002747,0.4175660312175751,-1.2184797525405884,2.548760175704956,0.9309276342391968,0.8852588534355164,0.9677330255508423,1.4290149211883545,0.7882055640220642,-1.6649150848388672,-0.7097649574279785,0.09456680715084076,0.815183162689209,-0.9694722294807434,1.494359016418457,-1.302311658859253,0.0013130685547366738,-2.1809041500091553,0.4008387625217438,0.03713345155119896,1.0303350687026978,-2.424058675765991,-0.3844103217124939,-0.5178025960922241,-0.15788818895816803,0.8874806761741638,1.0475115776062012,-0.5264220833778381,0.36773157119750977,0.2976488471031189,-1.3282259702682495,-1.5188950300216675,-1.003495216369629,-1.973380446434021,-0.11086868494749069,-1.5940072536468506,1.7480905055999756,0.6467614769935608,1.0275943279266357,-0.3977617919445038,0.6158214807510376,0.8788724541664124,-0.061093520373106,-0.3133605718612671,-1.0749406814575195,0.9599131345748901,0.03659239038825035,1.5025686025619507,-0.2846640646457672,0.26198139786720276,-1.2191864252090454,-1.0760287046432495,-0.24208283424377441,1.378708839416504,1.2594608068466187,0.4420866370201111,-0.646790087223053,1.4771912097930908,-0.22540679574012756,-1.3953256607055664,-1.8586448431015015,-1.1064751148223877,0.1743488907814026,0.4367488920688629,-0.44542041420936584,-0.3327980041503906,0.5347858667373657,-0.9678522348403931,0.6452105045318604,-2.4363746643066406,-1.2705814838409424,-0.7328017354011536,-1.9926307201385498,0.09296130388975143,-0.1603769063949585,0.7159523963928223,-0.8411439657211304,0.08545402437448502,-0.4396021366119385,-0.6534682512283325,-0.9089697599411011,-0.7063719630241394,-0.309792697429657,-0.4092901349067688,1.2607382535934448,-0.1831318736076355,-1.7303227186203003,0.723217785358429,-0.4148143529891968,-1.2203240394592285,0.19076453149318695,0.4531974792480469,1.6332345008850098,-0.02245648391544819,-0.19878803193569183,0.9203667640686035,-0.825981855392456,-1.6635265350341797,0.180278941988945,1.3263493776321411,-0.2864037752151489,-0.21917377412319183,-1.1905617713928223,-0.3690136969089508,0.8210068345069885,-0.27407118678092957,0.22786426544189453,-0.22507014870643616
16,0.18918867409229279,-1.6893510818481445,-0.5666208863258362,1.0989044904708862,0.042555082589387894,0.5946094393730164,2.727327585220337,0.29465624690055847,-1.380623459815979,0.504692018032074,-0.9725305438041687,-2.9136550426483154,-0.1648414433002472,1.0541365146636963,-0.45837289094924927,0.16014602780342102,0.9096750020980835,-0.44578635692596436,-0.6154447197914124,-1.3531789779663086,0.4527830481529236,0.03742269426584244,-1.1056209802627563,0.8579822182655334,-0.05054296553134918,0.24437539279460907,0.4012620449066162,-0.34684887528419495,-0.9722984433174133,-1.3333818912506104,-0.5473386645317078,-1.2704877853393555,-0.8218159079551697,-0.30766284465789795,0.25049400329589844,2.066848039627075,-1.6894848346710205,0.31300729513168335,-1.3902742862701416,0.9742527008056641,-1.1632142066955566,-0.47744041681289673,-1.04873788356781,0.245184525847435,1.0041779279708862,-0.2577204406261444,-1.5398426055908203,-0.3382757008075714,-1.1161751747131348,0.1746409684419632,0.7744105458259583,-2.875091314315796,-0.8162366151809692,-0.9318907856941223,-0.2850896120071411,-0.7051557302474976,-2.0320968627929688,0.324354350566864,0.6121099591255188,0.20086422562599182,-0.04999949410557747,-0.01534360833466053,0.6215505599975586,0.5672390460968018,-1.7116163969039917,-0.03965703025460243,-1.5111333131790161,0.7958803176879883,-0.7059006094932556,-0.6298524737358093,-1.2617415189743042,-0.8840013146400452,-2.1169891357421875,-0.06426386535167694,-0.8750435709953308,-0.4965212345123291,2.86842942237854,0.5952272415161133,-0.4404725432395935,-2.2644896507263184,1.0026768445968628,-0.8250511288642883,-0.36434343457221985,-0.9336445927619934,0.005045090802013874,-0.5557220578193665,1.932134985923767,-0.04195927828550339,1.2715680599212646,1.190889596939087,0.5140170454978943,0.06183917447924614,-0.6601901650428772,0.6850255131721497,-1.510521650314331,0.009240487590432167,0.6180440783500671,0.2973921597003937,-2.6235973834991455,-1.6492984294891357,1.5704158544540405,1.2049622535705566,1.0113283395767212,-1.233736515045166,1.7129263877868652,0.5181549787521362,-0.6607493162155151,-1.2391088008880615,-0.8413364887237549,0.5280555486679077,-1.303239107131958,0.20087799429893494,-0.1622726023197174,-1.9680424928665161,0.32509997487068176,0.04604838043451309,0.24466240406036377,-0.0693623274564743,0.35527247190475464,0.14910300076007843,-2.080235481262207,-0.28228944540023804,-0.0517137385904789
17,-0.18435919284820557,2.4921653270721436,-1.2037922143936157,-0.25514283776283264,-0.07962169498205185,1.274411916732788,-1.1003267765045166,-1.1042248010635376,-0.28320467472076416,0.4232664406299591,-0.1254976987838745,-1.0114004611968994,0.4606735408306122,-0.15451616048812866,0.5353177189826965,-0.389504998922348,2.1085026264190674,-1.310318112373352,-0.6706428527832031,1.3796343803405762,0.9277517199516296,-0.5199406147003174,-1.7691223621368408,-1.6173288822174072,-2.163517475128174,-0.8603012561798096,0.8516237735748291,0.10756716132164001,0.33085596561431885,1.8478002548217773,1.5708390474319458,-0.43876805901527405,0.9092103242874146,-0.782759428024292,1.4925442934036255,0.3423958122730255,-0.10708162933588028,-0.199949711561203,-0.10562403500080109,-0.8570038080215454,-0.7182151675224304,-0.16929243505001068,0.42392390966415405,-0.3518131375312805,1.8123198747634888,-0.16864679753780365,2.051342010498047,0.03174768388271332,0.8214246034622192,-1.0767265558242798,-0.9927714467048645,-0.5717731714248657,-1.1417334079742432,0.20843465626239777,-0.01635446771979332,-0.8456188440322876,0.5991222262382507,-0.862207293510437,0.5158400535583496,-0.614098310470581,0.05101291462779045,0.056497763842344284,0.846935510635376,-0.8071620464324951,-0.7728408575057983,-1.5647283792495728,-0.795119047164917,0.7209792733192444,0.36690428853034973,0.10235106945037842,-1.1059123277664185,1.6533468961715698,-0.22533632814884186,0.6823399662971497,1.480038046836853,0.7794476747512817,0.42299890518188477,-1.3729948997497559,0.9145486950874329,-2.1337766647338867,0.5206473469734192,0.532824695110321,0.7859344482421875,-0.7280521392822266,0.24700111150741577,-0.6990530490875244,-1.305646300315857,0.650489866733551,1.1304223537445068,-0.8168532848358154,0.789179801940918,-0.2997394800186157,-1.4247583150863647,-0.04683876037597656,0.45957618951797485,-0.5445246696472168,-0.3019111156463623,1.3643399477005005,0.5141751170158386,-0.5624440312385559,-0.2624205946922302,0.007382651790976524,0.1406826227903366,0.10379094630479813,-0.3356841206550598,-0.5966485142707825,-0.5199588537216187,0.5627068281173706,0.34563276171684265,1.459067702293396,1.020666480064392,-0.5656487345695496,0.031054139137268066,-1.2585257291793823,-0.6091538667678833,0.1315009444952011,0.6856960654258728,1.885026216506958,-0.6782960891723633,0.4136730432510376,0.057795461267232895,-0.5922009944915771,-0.8178240656852722
18,-1.1261247396469116,-0.8231580257415771,0.7256826162338257,1.2665365934371948,1.578102946281433,0.6924896836280823,-0.2939510643482208,0.07392045110464096,2.370927333831787,0.10183421522378922,0.4963972866535187,-1.2537654638290405,1.5293943881988525,0.3523271381855011,1.9958299398422241,-0.4688464403152466,0.18972836434841156,0.06383159011602402,-0.22484086453914642,0.0015447197947651148,-1.2303686141967773,0.06162085011601448,0.8661943674087524,-1.3939580917358398,1.0050978660583496,-1.1804633140563965,1.700417160987854,-0.3471757769584656,1.0639175176620483,0.7754598259925842,0.46314045786857605,-0.0762161910533905,-1.497422695159912,-0.17629489302635193,-1.2409095764160156,-0.9697299599647522,-3.2137131690979004,-1.56997811794281,1.4862881898880005,0.03161370009183884,-2.185431957244873,-0.8454726338386536,-0.8952441811561584,-0.2178594022989273,-0.9472739100456238,0.20373548567295074,-0.058500442653894424,0.9567969441413879,-0.05990343168377876,2.097092628479004,0.5925060510635376,2.0440711975097656,-0.9741644263267517,-0.7064074277877808,-0.9153502583503723,-1.1214163303375244,0.04004037007689476,0.36360567808151245,0.8492072224617004,-1.6399412155151367,0.8536415100097656,-1.3968923091888428,1.162320613861084,-0.2765274941921234,-0.40741288661956787,0.02830280177295208,0.36828625202178955,-1.1556525230407715,-0.2813127636909485,-0.23541642725467682,-0.1984352171421051,1.189717411994934,-2.116647481918335,1.0635818243026733,1.2258737087249756,-0.743553102016449,-1.5888184309005737,-0.43664172291755676,0.47447317838668823,1.1118369102478027,-0.9749578237533569,0.014599683694541454,0.036165326833724976,0.3769691586494446,-0.5909280776977539,-0.5471210479736328,1.022251009941101,-0.7256879210472107,-1.7041206359863281,1.6531274318695068,0.8099880814552307,-0.8777908086776733,0.479247123003006,-0.12958361208438873,-1.2622383832931519,-0.2776990532875061,-0.30489489436149597,-0.8719922304153442,-0.07645899057388306,-1.030705451965332,-0.44998255372047424,0.9541517496109009,0.607776403427124,-1.6581056118011475,-1.235298991203308,1.377903699874878,1.8770889043807983,0.267821729183197,0.20391125977039337,-0.634585440158844,0.9697635173797607,-0.9122227430343628,-0.5739147067070007,-1.394870400428772,-1.7154675722122192,2.089409589767456,-0.13782981038093567,0.7345415949821472,0.7885388731956482,1.2638698816299438,0.8675352931022644,-0.6945849061012268,0.17877092957496643
19,-0.9018887877464294,1.1462393999099731,-0.2812121510505676,-1.2976495027542114,-0.29367437958717346,0.4364434778690338,-0.7896474003791809,0.3568500578403473,-0.709893524646759,2.530627727508545,0.722327470779419,-1.3415824174880981,-0.6884747743606567,-0.5541333556175232,-0.017164139077067375,-1.2623506784439087,-1.40573251247406,-1.0783799886703491,0.6031193733215332,-2.2869882583618164,0.6840026378631592,-0.5553637146949768,-0.4051675796508789,-0.3225177228450775,-0.5065849423408508,-1.578046202659607,0.02998953126370907,-1.1984072923660278,0.9192570447921753,-1.2564003467559814,1.124827265739441,0.24470502138137817,-0.5211976766586304,0.4477696120738983,0.6434401869773865,-1.71122407913208,0.4242340922355652,0.14855925738811493,0.5863937735557556,1.0533645153045654,-0.9283519387245178,-1.0146957635879517,0.45342913269996643,-0.17339280247688293,2.2123732566833496,1.170148253440857,-0.15139468014240265,-0.7899932861328125,-0.022779790684580803,-2.393364191055298,-1.4592409133911133,0.242685928940773,-1.0943822860717773,0.26662465929985046,0.4715897738933563,1.6577067375183105,-2.1140220165252686,-0.4125482439994812,-1.8059417009353638,0.8549094200134277,-1.6105831861495972,-0.9571173787117004,1.739757776260376,-0.4774283170700073,-0.7358649969100952,-1.1728157997131348,-0.584681510925293,-2.0869333744049072,0.8440470695495605,0.5381762385368347,1.5673794746398926,0.7736297845840454,0.5490399599075317,-0.4078611135482788,-0.7668859958648682,1.2547105550765991,-1.0460222959518433,-0.6719340682029724,-0.524760365486145,-0.15905772149562836,-2.0911877155303955,-0.27490541338920593,0.9943366646766663,1.0819151401519775,1.2652803659439087,-0.3039515018463135,-0.3280157744884491,0.09266354143619537,0.8959165215492249,0.4087715446949005,0.7267470359802246,-0.45505377650260925,0.019234981387853622,-1.5269118547439575,0.858061671257019,0.8777554035186768,-0.8880033493041992,0.38871681690216064,1.284898281097412,-1.324226975440979,0.6320403218269348,-0.3847546875476837,0.6611771583557129,-0.6909089684486389,1.6133500337600708,-0.9515725374221802,-0.4657488167285919,-0.7873297333717346,0.8129186630249023,1.0028492212295532,-0.6710755228996277,-0.6881678700447083,0.1703364998102188,2.0666518211364746,-0.5644884705543518,-0.41803035140037537,-0.24562811851501465,-0.8710276484489441,1.7923237085342407,0.20478805899620056,0.34763970971107483,0.2540895342826843,-0.5785233974456787
