,0,1,2,3,4,5,6,7,8,9,10,11,12,13,14,15,16,17,18,19,20,21,22,23,24,25,26,27,28,29,30,31,32,33,34,35,36,37,38,39,40,41,42,43,44,45,46,47,48,49,50,51,52,53,54,55,56,57,58,59,60,61,62,63,64,65,66,67,68,69,70,71,72,73,74,75,76,77,78,79,80,81,82,83,84,85,86,87,88,89,90,91,92,93,94,95,96,97,98,99,100,101,102,103,104,105,106,107,108,109,110,111,112,113,114,115,116,117,118,119,120,121,122
0,-1.2874934673309326,-0.373862624168396,0.5455087423324585,0.27370500564575195,-0.023532144725322723,1.238470196723938,-0.5543838739395142,0.6271873116493225,1.553596019744873,1.4328455924987793,-0.18267767131328583,0.2031818926334381,0.9293251633644104,-1.19087553024292,0.9414985775947571,0.3242592215538025,0.504682719707489,0.985659122467041,0.0586121492087841,-0.16495661437511444,0.8357064127922058,-0.018580954521894455,0.6900734305381775,0.3031756579875946,1.3577035665512085,-0.7430088520050049,-0.5093604922294617,-2.582274913787842,0.2848503589630127,-0.06514466553926468,0.6315800547599792,1.8660072088241577,0.08980472385883331,-0.41186389327049255,-0.623526394367218,0.7236580848693848,0.7360190153121948,1.3338415622711182,1.9442238807678223,-0.6223623752593994,-0.1844473034143448,1.0637311935424805,-0.7483749985694885,-0.7039973735809326,1.598337173461914,2.358849287033081,1.7893766164779663,1.0835953950881958,0.9306432008743286,-1.1623765230178833,0.8591363430023193,-2.308971881866455,-0.8452187180519104,0.9084245562553406,0.6759862303733826,1.4698328971862793,0.6304684281349182,-0.5319313406944275,-0.640590488910675,2.1222853660583496,0.28620895743370056,-0.2061847448348999,1.2823435068130493,2.1231842041015625,-1.2932339906692505,1.027319312095642,1.120808482170105,-0.5853148102760315,-1.0231640338897705,0.9031206369400024,1.055290937423706,0.6316997408866882,0.15451215207576752,-0.3971485197544098,-0.06384453922510147,0.21369652450084686,1.335451364517212,-0.05914278328418732,-0.5670199990272522,-0.21794098615646362,-1.1967666149139404,1.6088060140609741,-1.1187148094177246,0.9924927949905396,-0.7001697421073914,-0.34935835003852844,1.5657182931900024,-1.1331719160079956,1.358097791671753,-0.1934087574481964,-1.1809909343719482,-1.1714359521865845,-0.9003334045410156,0.8097964525222778,-0.6825130581855774,-0.3047977387905121,1.3927778005599976,0.6824758052825928,0.6127081513404846,-1.127867579460144,-0.7689521908760071,0.6892917156219482,1.3154314756393433,1.1365711688995361,0.8806638717651367,-1.4078773260116577,0.041985370218753815,-0.9688213467597961,-0.12209414690732956,-0.44174817204475403,1.6451939344406128,0.631169319152832,0.22818604111671448,0.9960384368896484,0.7291015982627869,-0.39765384793281555,1.0282855033874512,-0.4350278079509735,-0.9632583856582642,0.07204022258520126,-0.8893399238586426,-0.3481716513633728,0.10205455124378204
1,0.265577495098114,-0.13178089261054993,0.11380308121442795,-0.24824193120002747,0.304352730512619,-0.6666867733001709,-0.3897528350353241,-2.084061861038208,-0.2495853751897812,0.43970179557800293,1.3331931829452515,1.654154658317566,-0.8284538388252258,-0.7564020156860352,-0.37459656596183777,0.5552483797073364,1.468949556350708,0.41922178864479065,1.4324402809143066,0.5566434860229492,-0.25034892559051514,0.5367449522018433,0.051881153136491776,-1.2681407928466797,-0.996040403842926,-0.8676559329032898,0.9220004081726074,-1.1050069332122803,-0.4351377785205841,-0.23438571393489838,-0.2811671495437622,1.2564921379089355,0.7635106444358826,0.5444474816322327,-1.4117424488067627,-1.67694091796875,-1.2438008785247803,1.5280452966690063,-0.40690284967422485,-0.14257237315177917,-0.20485417544841766,0.8342889547348022,-0.014196011237800121,0.6445350050926208,1.9271916151046753,-0.49015846848487854,-0.6747282147407532,0.39572325348854065,0.8289468884468079,1.1371793746948242,1.4841570854187012,0.03399421647191048,-1.1811879873275757,1.5030165910720825,-0.5171568393707275,-0.8738820552825928,-0.41024112701416016,1.458696961402893,0.7866494655609131,0.8196249008178711,-0.8127281665802002,-0.5465385317802429,1.0413918495178223,0.922774612903595,-0.5139500498771667,0.7828676104545593,1.1439458131790161,0.3800160586833954,0.39165061712265015,0.20403000712394714,-0.5848984718322754,1.6610201597213745,0.3305603265762329,-1.8985357284545898,-0.0671839639544487,0.6702433228492737,-0.48052117228507996,-0.1812056005001068,1.8084831237792969,0.38895905017852783,-0.5232742428779602,-0.6501613259315491,0.9209548830986023,-0.12098583579063416,-0.8199131488800049,-1.2643080949783325,1.1022272109985352,-0.3860994875431061,-1.9355729818344116,-0.519422709941864,0.688407301902771,0.07533460110425949,1.4423496723175049,-1.2316555976867676,-0.45178699493408203,1.1454170942306519,-0.1971110999584198,-0.7423071265220642,0.33705204725265503,0.09229770302772522,-0.6625772714614868,1.243545413017273,0.367509126663208,-0.1342920958995819,0.352281391620636,1.1189830303192139,0.5579571723937988,0.2425609827041626,0.6796619296073914,0.04400477558374405,1.249624252319336,0.04100728780031204,0.06247645989060402,1.0023528337478638,1.0825438499450684,0.5063597559928894,0.5658681988716125,-0.014146181754767895,0.2031744420528412,-0.23319266736507416,-0.2595319449901581,0.1729254275560379,-0.31272509694099426
2,-1.0720137357711792,0.29817405343055725,1.057470440864563,-0.9236183762550354,0.5967335104942322,1.2634357213974,-0.8589251637458801,-0.140606090426445,-0.2971803843975067,-0.9194697141647339,0.6169273853302002,0.6633514165878296,0.6232951283454895,-0.3030405044555664,-0.2728050947189331,0.8079425096511841,0.17828990519046783,-0.31831488013267517,-0.27867016196250916,-1.08953058719635,-0.014231301844120026,-0.3784633278846741,1.3728041648864746,-0.28652423620224,0.42275044322013855,-0.4328930079936981,1.7724050283432007,0.8784874677658081,0.14149945974349976,-0.7704569697380066,0.32158926129341125,0.6328352093696594,0.33459293842315674,0.2813994884490967,-0.4112396836280823,0.9518002271652222,-0.7411723732948303,-1.1980267763137817,-1.0875623226165771,1.6792327165603638,0.9207161664962769,-0.7639384269714355,0.7171962857246399,-0.1024702861905098,0.52294921875,-0.7107542157173157,-0.8221145272254944,-1.5286219120025635,0.7195613980293274,-0.5095163583755493,-1.1364902257919312,0.7318816781044006,1.0682063102722168,-1.4694349765777588,0.34700605273246765,-0.13719815015792847,-1.5519347190856934,-0.9940990805625916,0.25993818044662476,1.0221045017242432,1.176967740058899,0.16770900785923004,-0.3926381468772888,-0.5082286596298218,0.32681378722190857,0.6467648148536682,-0.5251935720443726,-1.4727202653884888,-0.8525726199150085,1.4203684329986572,-1.1434543132781982,0.32164308428764343,1.0186268091201782,1.7165734767913818,1.196732759475708,-0.21324320137500763,-0.24962466955184937,0.4331306219100952,-1.604102611541748,-1.0255486965179443,-1.1790540218353271,-0.9418331980705261,-0.28955480456352234,-0.8294277787208557,-0.14464978873729706,0.8026652336120605,0.881865382194519,-1.6314605474472046,0.47500061988830566,-1.166765809059143,1.7290563583374023,-1.0508474111557007,-1.9155806303024292,-1.3344924449920654,-0.9648336172103882,0.7210608124732971,-0.2610965967178345,0.14177517592906952,0.8169235587120056,-1.961185336112976,0.11455544084310532,-0.8645966649055481,-0.519024133682251,0.20645108819007874,-0.03216969594359398,-1.081868052482605,1.3965362310409546,0.3221759498119354,-0.6183456182479858,-0.05354549363255501,-1.132129430770874,-1.9117424488067627,-0.6512616276741028,0.2899709641933441,0.30129292607307434,0.5588542819023132,-1.9779905080795288,-1.5028724670410156,0.8127402067184448,-1.7562910318374634,-1.485008955001831,1.3520522117614746,-0.4180154800415039
3,0.400328665971756,-0.5378934144973755,-0.9366293549537659,-0.5334098935127258,-0.13525955379009247,-0.7876520156860352,-1.0488988161087036,-0.021986886858940125,0.3844424784183502,-0.7565084099769592,0.42498281598091125,1.2981377840042114,-0.030453382059931755,-1.4338469505310059,0.7072760462760925,-0.0853232592344284,0.5962697863578796,0.25647783279418945,-0.2723894715309143,-0.4078253209590912,1.5542274713516235,0.9604079127311707,0.17430973052978516,0.47766995429992676,-0.07369375228881836,0.27877017855644226,-0.1352348029613495,-1.2903882265090942,0.5432575941085815,1.8240382671356201,0.33847299218177795,-0.2010684311389923,-0.7666181921958923,0.9846410751342773,-0.0041021681390702724,1.0292720794677734,0.820300281047821,-0.21111120283603668,0.017657384276390076,0.4030579626560211,0.9040420055389404,0.11381309479475021,-1.0428022146224976,0.5685100555419922,1.298613429069519,1.1948665380477905,1.2694369554519653,0.7464621067047119,-0.7269096374511719,-1.3727396726608276,-0.529521644115448,0.07094276696443558,0.5840511322021484,0.9511473178863525,0.8737169504165649,-0.1625569760799408,1.1155717372894287,1.287324070930481,-0.5761858224868774,1.45099937915802,-0.30575597286224365,0.18000872433185577,2.200950860977173,0.4913443326950073,-1.9571235179901123,0.3603129982948303,-0.30050820112228394,0.5662398934364319,-1.3422565460205078,0.0740538015961647,2.1788809299468994,1.2876887321472168,-1.3179447650909424,-0.18792645633220673,-0.5984724164009094,0.8360127806663513,-1.215155839920044,0.9597697854042053,-0.6156412363052368,1.6294924020767212,1.2375903129577637,-0.19620247185230255,0.26833856105804443,-1.308476209640503,0.5792763829231262,1.1571266651153564,0.44456472992897034,0.2018900066614151,0.8319960832595825,-0.07728148996829987,1.1734657287597656,0.9137349128723145,-0.785332441329956,-0.7611915469169617,0.9441319704055786,0.5880728960037231,-0.9984469413757324,-0.5940273404121399,-0.36159998178482056,-0.07303381711244583,-0.2112182080745697,0.12951895594596863,0.18376825749874115,0.7806593775749207,-1.6398372650146484,0.5123478174209595,-1.7201842069625854,-1.0616028308868408,1.2625526189804077,-0.32080206274986267,-0.7342086434364319,0.39049211144447327,0.21362465620040894,2.454719305038452,-0.37187790870666504,-1.0211818218231201,0.794253408908844,-0.7062025666236877,-0.455387145280838,-0.10651689767837524,-0.3490631878376007,1.9481834173202515,0.24209298193454742
4,1.627492070198059,-0.07215934246778488,0.3431392312049866,0.3352392613887787,0.8922807574272156,0.6080800294876099,-0.47307565808296204,0.38988709449768066,1.0458375215530396,-0.18427647650241852,-0.7698061466217041,1.1951087713241577,0.9761037230491638,0.18495002388954163,-1.242604374885559,0.09371975809335709,-0.26665329933166504,2.4439969062805176,0.3260919153690338,1.2851346731185913,0.6150848269462585,-0.7121371030807495,0.4380497634410858,-1.8178883790969849,0.42151278257369995,0.09105274826288223,-1.619710087776184,0.3682500422000885,0.7555057406425476,-0.6177866458892822,-0.8261284232139587,1.2604163885116577,-0.8844395279884338,0.15572775900363922,1.1430596113204956,0.07441721856594086,0.7148717641830444,-0.9298816919326782,0.1435941755771637,1.5668590068817139,0.9256382584571838,0.33585894107818604,0.07100647687911987,0.5360697507858276,-0.20106738805770874,-0.19793015718460083,2.022568702697754,-0.5247674584388733,1.1349749565124512,1.0106394290924072,0.8609315156936646,1.666149377822876,1.3144474029541016,-1.3218863010406494,2.142650604248047,-0.6164998412132263,-0.5008658766746521,0.9133685231208801,0.4554474949836731,-1.933409571647644,1.7918537855148315,-1.4309557676315308,-1.1918176412582397,-1.4499613046646118,-0.09479742497205734,-1.189116358757019,0.14435650408267975,1.1410870552062988,0.03646860271692276,-0.911758542060852,2.0034358501434326,2.2079520225524902,1.2873562574386597,-0.16934287548065186,-0.055425480008125305,-0.7062714099884033,-1.2163844108581543,0.43456587195396423,1.0090625286102295,-1.4794429540634155,0.18898145854473114,-0.29181599617004395,0.9656156897544861,1.0544530153274536,0.37990453839302063,0.7951529026031494,0.11685053259134293,-0.06730925291776657,-1.151039481163025,-0.3939917981624603,0.11098982393741608,-0.7720255851745605,-1.670898199081421,-1.2481114864349365,0.03109826147556305,0.42648640275001526,-0.958016037940979,-0.4377395212650299,-0.4639860689640045,1.384659767150879,-0.8044333457946777,1.0328552722930908,4.2594895362854,-0.42172256112098694,0.22282648086547852,1.6839336156845093,-0.10059019923210144,0.24767902493476868,1.7822495698928833,0.33426475524902344,0.40055134892463684,0.5408018827438354,0.7088707685470581,0.6140600442886353,-0.2873859703540802,1.6149998903274536,-1.2662407159805298,0.04680759459733963,0.7464907765388489,-0.12840482592582703,1.2798012495040894,-0.030301546677947044,-0.17265185713768005
5,0.7446339130401611,-0.22742311656475067,-1.1182600259780884,0.5466564893722534,0.13948728144168854,0.6386955976486206,-0.4074503481388092,-0.3620944917201996,0.026609711349010468,-0.3952721953392029,-0.932263195514679,-0.7400450110435486,0.6450583934783936,0.22393594682216644,-1.2929565906524658,0.9503389000892639,1.3364508152008057,-2.19045090675354,-0.8590075969696045,1.1659072637557983,-1.0217667818069458,0.49348968267440796,-0.9668580293655396,-0.8158971071243286,-0.28524911403656006,-0.7686123847961426,0.6431416273117065,0.09389371424913406,2.6258668899536133,1.0097428560256958,1.8361097574234009,-0.5583829879760742,1.1700438261032104,-0.10374358296394348,0.6021942496299744,1.6139060258865356,-0.11277421563863754,-0.529966413974762,-0.06950364261865616,0.686682403087616,-0.150992751121521,0.6823272705078125,-0.5079182386398315,0.3539261221885681,0.4884571433067322,0.34914594888687134,-0.7216832041740417,0.054182931780815125,0.6681979298591614,-0.8487905859947205,0.5860364437103271,1.7138917446136475,-0.5683681964874268,0.44424086809158325,-0.07893931120634079,0.24091264605522156,0.2878793776035309,-0.4801745116710663,-0.8872546553611755,0.6082696318626404,2.0071825981140137,0.5493016242980957,2.2453341484069824,-1.428636074066162,-0.1374797523021698,-0.14640353620052338,-0.192647784948349,-0.15396611392498016,-0.7349104881286621,-0.34752705693244934,-1.7812994718551636,1.1535849571228027,-0.8207789063453674,-0.38415828347206116,1.0821906328201294,-0.10714368522167206,-0.5190239548683167,-0.6196035742759705,-0.9904718399047852,1.3503810167312622,-0.6468597650527954,-0.6201114654541016,1.2867754697799683,-0.8275809288024902,0.079800084233284,2.488391637802124,-0.5194551944732666,-1.928901195526123,-0.910258412361145,0.88088458776474,1.1880778074264526,0.22758397459983826,-0.9470406770706177,1.229362964630127,0.08136459439992905,0.01901540532708168,0.3042192757129669,-1.7879095077514648,-0.8883424997329712,-1.8072617053985596,0.915785014629364,-0.5577487945556641,0.2828173041343689,0.23738309741020203,-1.9709550142288208,0.2888604998588562,-0.6668522357940674,0.37920352816581726,1.0170215368270874,1.012796401977539,-0.009504826739430428,-0.1438995897769928,-0.48812246322631836,0.1490546464920044,0.26415956020355225,-0.6169175505638123,-0.4594466984272003,-0.5173803567886353,-1.1087778806686401,0.14132623374462128,-0.4689357280731201,1.5350216627120972,1.8159682750701904
6,-0.5505287647247314,0.21891243755817413,-0.0026246681809425354,0.6097665429115295,-0.550377607345581,1.0310918092727661,-1.8024173974990845,-0.8710523843765259,-1.0735375881195068,-1.1997851133346558,-1.6519931554794312,0.13269078731536865,1.7923047542572021,1.4788049459457397,-1.4994057416915894,1.0180320739746094,0.631514310836792,0.6048210263252258,-0.6308027505874634,0.5628241896629333,-0.41027623414993286,-0.5881314277648926,0.26815173029899597,-0.08798999339342117,0.20541995763778687,0.9052643179893494,-0.6532245874404907,1.3522014617919922,0.8431954383850098,-0.5716888308525085,0.6350135803222656,-0.22313208878040314,1.2265141010284424,-0.6745930314064026,0.6109192371368408,-0.1849127560853958,-0.5643019676208496,0.14994685351848602,-0.22685259580612183,-0.35700473189353943,2.3348581790924072,0.699704647064209,1.5721359252929688,1.9916032552719116,-0.4738532602787018,-0.4105881452560425,-0.5220540761947632,0.29534900188446045,-0.04433958977460861,-0.5546924471855164,-0.5015093684196472,-1.416644811630249,-0.5642146468162537,0.24965354800224304,2.473554849624634,-1.5126854181289673,0.7987491488456726,0.5678592324256897,0.7332218885421753,1.0222699642181396,-0.5377993583679199,-0.1648939847946167,-0.9207562208175659,-0.68840491771698,-0.1704133003950119,-1.193948745727539,-0.5192331075668335,0.0016771357040852308,1.7558144330978394,-0.41100648045539856,0.43460363149642944,0.710439920425415,-0.733999490737915,0.03859902545809746,0.9647037982940674,1.5213136672973633,-0.18933291733264923,0.7502542734146118,0.3016817569732666,-1.333238124847412,-0.929225504398346,0.23820854723453522,-0.13393819332122803,0.8699504137039185,-0.9260083436965942,-0.49225616455078125,0.050644971430301666,-0.3210732638835907,1.3803434371948242,-0.1056489646434784,1.2826007604599,-1.3194880485534668,0.023580197244882584,-0.35015320777893066,1.5059863328933716,-0.2005019187927246,0.29049333930015564,-0.6800941824913025,-2.720538854598999,0.8878186941146851,-0.431022047996521,0.5044521689414978,0.1931799352169037,-0.4232761859893799,-1.0899091958999634,-1.472353458404541,-0.5174474120140076,-2.529003620147705,-0.787451982498169,-0.7644596695899963,0.7017316222190857,0.6538160443305969,-0.4393947720527649,1.0037972927093506,1.645625114440918,0.3804068863391876,0.7236682772636414,-0.8319299817085266,0.16391831636428833,0.5610639452934265,0.847567081451416,-0.22547152638435364,1.5592730045318604
7,0.09816312789916992,-0.7886965274810791,-1.763633131980896,-0.18299874663352966,-1.0197664499282837,-1.0934498310089111,-0.1568594127893448,-0.4761733412742615,0.45114248991012573,-0.99848473072052,0.026211494579911232,0.6618441343307495,-1.4850879907608032,-0.24122411012649536,-0.5429353713989258,-0.6893923878669739,0.7307897806167603,0.19704635441303253,1.3591305017471313,-0.9864024519920349,-1.187361478805542,-0.6186553835868835,0.38187670707702637,0.7534055113792419,-0.4812045991420746,-1.406174659729004,-0.3447115421295166,-1.756242036819458,-0.7103206515312195,0.7817497253417969,-0.9425094723701477,-3.0903286933898926,-0.3730980157852173,-1.5988699197769165,0.5611438155174255,-0.2876211702823639,-0.6293321251869202,-0.7637186050415039,0.4003116190433502,0.23293328285217285,-0.4341670572757721,-0.3647890090942383,0.3709922730922699,0.3510480225086212,-1.0270583629608154,0.016204550862312317,0.9443430304527283,-1.0808156728744507,-0.16998061537742615,2.1417200565338135,-0.37881338596343994,0.042564406991004944,0.9558353424072266,-0.0518714115023613,0.5675415992736816,-1.1695374250411987,0.6575166583061218,-0.03313610330224037,-0.2110223025083542,-1.311478853225708,1.0455676317214966,-1.8344736099243164,-1.583567500114441,-1.9069150686264038,0.46258071064949036,0.9779443740844727,-1.6397007703781128,-0.12206389755010605,-1.6106492280960083,-0.6427618265151978,-1.0735421180725098,0.6819021105766296,-1.15461266040802,0.08967594057321548,0.06916449964046478,2.102144479751587,-1.0880130529403687,0.5992646217346191,-0.5314487814903259,1.7023696899414062,0.7377855181694031,0.9073617458343506,0.8720824122428894,0.11715953797101974,-0.5109185576438904,0.42421942949295044,-1.22907292842865,-0.12317180633544922,0.33655601739883423,-0.19926737248897552,-0.3256637752056122,1.9314073324203491,-0.9247927665710449,0.3172474801540375,0.46931979060173035,0.17565350234508514,0.17995572090148926,0.7136760354042053,0.6418763995170593,0.6680223345756531,-0.7717233896255493,0.8808615207672119,-0.020171934738755226,-0.546737015247345,-1.846083402633667,-0.024241188541054726,-1.2760897874832153,-0.6997445225715637,-0.06675039976835251,0.889011800289154,-0.5301188230514526,-0.1578117161989212,-0.13387243449687958,0.4829915463924408,-2.336801528930664,0.34256720542907715,0.37887975573539734,-0.004551372025161982,0.6409977078437805,-1.6545908451080322,0.04470852389931679,-0.07346973568201065,-0.40149322152137756
8,-0.34911179542541504,0.7080034613609314,-0.4567272961139679,0.7033968567848206,1.442949891090393,-0.4690137505531311,-1.2358324527740479,0.67254239320755,-0.3368091881275177,-0.3379823863506317,-1.6350176334381104,-1.471248984336853,-0.5215960144996643,0.8860628008842468,-0.15211935341358185,-0.9864522218704224,-1.3817479610443115,1.7830109596252441,-2.2932374477386475,0.6284906268119812,-0.9640249609947205,-0.8222452998161316,0.5665628910064697,1.4740424156188965,0.5736483931541443,-0.3824853301048279,-1.1318556070327759,-0.394159734249115,-0.10557519644498825,-0.27085867524147034,0.71490478515625,-1.0008630752563477,-1.8395286798477173,-0.47369110584259033,0.7290869355201721,0.04236205294728279,0.293552428483963,0.649844229221344,-0.14351898431777954,-0.6741012930870056,0.8259850740432739,0.4024489223957062,-0.31801363825798035,0.4891652464866638,0.8519206047058105,-0.3036186397075653,-1.3251224756240845,-0.0443415530025959,-1.1028790473937988,-0.8499786853790283,1.0137546062469482,-0.7565637826919556,-0.1637621521949768,-1.0022624731063843,0.5797961354255676,-0.010473569855093956,1.7510509490966797,0.027467777952551842,-0.964290201663971,-2.208749532699585,0.493505597114563,0.7380765080451965,-1.406565546989441,-1.0356067419052124,1.0884921550750732,1.5115183591842651,1.6676691770553589,0.006917873863130808,-0.6376662850379944,0.6885546445846558,-0.499627023935318,2.2585296630859375,0.2025056630373001,-0.37128815054893494,-0.24665150046348572,0.12862707674503326,-1.66824209690094,-1.1579620838165283,-0.782126247882843,-0.8091601729393005,0.482750803232193,0.3483404517173767,0.6494104862213135,0.10580382496118546,0.8898370862007141,-0.10670272260904312,1.5511469841003418,-1.2073813676834106,0.10024851560592651,-0.42158517241477966,-0.8135966062545776,-1.0883054733276367,-1.2113101482391357,-1.3669788837432861,-0.5988555550575256,1.3394237756729126,-1.494281530380249,-1.3036359548568726,0.36430755257606506,1.6537457704544067,-0.19042278826236725,0.3443518877029419,-0.1779015064239502,0.6548869609832764,-0.20604968070983887,0.08866716176271439,1.4380011558532715,-1.5682952404022217,-0.6219900846481323,0.6794033050537109,0.5251455903053284,-0.18631605803966522,-0.38580837845802307,-0.7255436182022095,-0.4584915041923523,-0.18957653641700745,0.37004029750823975,-0.8618535995483398,0.6208885312080383,-2.5657131671905518,0.6011726260185242,0.2770424783229828,-1.1970546245574951
9,-1.2981147766113281,-0.7488606572151184,-1.352791666984558,-1.540339469909668,1.614332914352417,0.8527219891548157,-0.18389205634593964,-0.7490135431289673,0.5314258337020874,0.4244396686553955,0.9534980058670044,-2.7313995361328125,0.5950254201889038,-1.089133620262146,-0.7823073863983154,-0.6882083415985107,-0.23287126421928406,-1.0838088989257812,1.4221705198287964,-2.304395914077759,-1.1950407028198242,0.27060946822166443,-0.42377984523773193,0.715513288974762,-0.05720537528395653,-0.6171460151672363,-0.30502817034721375,-0.8961420059204102,-0.04566448554396629,-1.078616738319397,-0.9712976813316345,0.23602989315986633,-1.5148506164550781,0.2306579351425171,0.06343898177146912,1.5318291187286377,0.3135961890220642,-2.4519550800323486,1.7353174686431885,-1.193365216255188,-1.7965911626815796,-0.3655378222465515,0.6112639904022217,-0.05398442596197128,0.6972899436950684,-0.589003324508667,-0.7280397415161133,-1.2960402965545654,-0.45509132742881775,-0.2073945701122284,-0.07791848480701447,0.4317314922809601,0.9920441508293152,0.27290675044059753,1.8225127458572388,0.33974379301071167,-1.1570510864257812,0.3182636499404907,0.8093032836914062,0.7842256426811218,-0.5344247221946716,-1.1130974292755127,-3.369373321533203,-1.5376644134521484,1.306883454322815,-1.3647288084030151,0.033900272101163864,0.1056128665804863,-0.48258647322654724,0.6720906496047974,0.8030746579170227,-2.520066022872925,-0.6779404878616333,-0.7189854979515076,-1.258195161819458,-0.7246091961860657,-1.7179629802703857,0.16782160103321075,-0.3132593333721161,-0.6304916739463806,0.8177918195724487,1.854292869567871,0.19798316061496735,-0.04324870929121971,2.7750887870788574,-0.7937171459197998,0.8972136974334717,-0.7455719113349915,0.7346280813217163,-0.4252009689807892,0.8797317743301392,-0.14394702017307281,-0.12114467471837997,-1.1713314056396484,-0.7069672346115112,-0.7152979969978333,-0.3484283983707428,0.37204086780548096,0.44749173521995544,-0.02258748933672905,0.02463972568511963,1.145322322845459,-1.2459218502044678,-0.00846181157976389,-0.3808220326900482,-0.31552740931510925,-0.37602347135543823,0.5929437875747681,1.264753818511963,0.407624214887619,0.5522444248199463,-1.1276689767837524,-0.8113077282905579,-0.3236510157585144,-0.844843864440918,1.126463532447815,-0.22933077812194824,-0.5158737897872925,-0.28282293677330017,-0.3099732995033264,0.05280635133385658,-1.2396957874298096,-1.2932976484298706
10,0.8457779288291931,-0.48030999302864075,0.40489286184310913,0.38332849740982056,-0.08838842064142227,1.9363456964492798,-0.45512840151786804,0.14106477797031403,-0.5688337087631226,-1.8077504634857178,-0.011623918078839779,-2.6757779121398926,0.49654215574264526,-0.43347302079200745,-0.3212025463581085,0.4249526262283325,-1.29116952419281,-1.3338335752487183,-0.06898325681686401,0.6726112961769104,-1.4741857051849365,0.504621148109436,-0.8344185948371887,1.281455397605896,-1.2648048400878906,0.4560019373893738,1.0045288801193237,0.5088784098625183,0.6780285239219666,0.2627047002315521,0.4657234847545624,-1.381163477897644,-0.06232312321662903,-0.9648796916007996,2.0813417434692383,-0.6766539216041565,-0.2588014006614685,1.4020434617996216,1.0808700323104858,-0.290160208940506,-0.6941362023353577,1.6070071458816528,0.9343181848526001,-0.07117749005556107,0.32036149501800537,0.4103114902973175,0.08806712925434113,0.5133470892906189,1.121915340423584,0.05961780250072479,0.7607734799385071,2.6664929389953613,1.2656795978546143,-0.19637098908424377,0.544135332107544,0.07836481183767319,-0.0591917410492897,0.6867045760154724,0.7227314114570618,-2.640139579772949,-0.627446711063385,0.34993329644203186,0.07840177416801453,1.1940587759017944,0.7326030731201172,-0.6722846031188965,0.8521435856819153,0.7630582451820374,0.7748593091964722,-0.911810576915741,-0.08357322216033936,0.9884185791015625,-0.7876095771789551,0.5332258939743042,-1.3313084840774536,0.21345634758472443,0.8180171251296997,0.5713652968406677,-1.1160176992416382,0.9213331937789917,1.8690249919891357,0.26958635449409485,-1.057299017906189,-1.1582005023956299,0.48484426736831665,0.3128211796283722,0.6775723099708557,-1.940940022468567,-0.1694430112838745,-2.3749945163726807,1.8100413084030151,0.0939568504691124,0.01732061058282852,-1.2041237354278564,0.1155923381447792,1.782338261604309,-0.5954005718231201,0.3912336826324463,-1.2981693744659424,0.06657171249389648,-0.8259485363960266,-1.6014999151229858,0.017412224784493446,1.9000722169876099,-0.2095537632703781,0.7557073831558228,-0.541623592376709,1.07267165184021,-0.12169134616851807,-0.25930076837539673,0.48100602626800537,-0.28038647770881653,0.3859733045101166,1.0650265216827393,2.2334911823272705,-0.61405348777771,-0.7334917187690735,-0.9235084652900696,-1.298364281654358,-0.4844307005405426,1.5901058912277222,0.34553834795951843,0.2983655631542206
11,0.9548391699790955,0.1713395118713379,1.4099867343902588,0.027042206376791,1.0631418228149414,-2.1038577556610107,-1.731217384338379,0.2842016816139221,0.43155914545059204,0.44848501682281494,-0.2546524107456207,-2.2576870918273926,-0.7194645404815674,-0.4481923282146454,1.9352883100509644,-1.6059527397155762,-0.5481734871864319,0.09076709300279617,0.47437673807144165,0.1537090539932251,-0.4103703498840332,-0.8538899421691895,0.6562882661819458,-0.8935650587081909,-0.7288941144943237,-0.6236637234687805,1.2681533098220825,0.24291110038757324,-0.4596971273422241,1.5920829772949219,0.07096071541309357,-1.4717828035354614,1.9648452997207642,-0.9271507263183594,-0.7213513851165771,-0.6858941912651062,-2.331745147705078,0.19709329307079315,-0.7742182016372681,1.3121116161346436,1.4219785928726196,1.8039298057556152,0.35311323404312134,-0.22172166407108307,-0.3167591094970703,-0.2608175575733185,-1.6073170900344849,2.257683515548706,-0.5414746403694153,-1.0489106178283691,-0.06114289164543152,-0.6851292848587036,-0.4069922864437103,-0.7555025219917297,0.16107836365699768,2.3450467586517334,-0.6163294911384583,-0.7266051769256592,0.7965043783187866,1.6293399333953857,-1.9742696285247803,-0.12691183388233185,-0.4591766893863678,-1.9051750898361206,0.7231970429420471,1.9703919887542725,-0.23949916660785675,1.382571816444397,0.26105478405952454,-0.9670738577842712,0.9200697541236877,-0.3081158399581909,0.46644431352615356,-1.3625367879867554,0.91555255651474,-0.6829795837402344,-1.134657621383667,-2.19897198677063,0.77201908826828,0.6655789017677307,0.12383148074150085,-1.2802025079727173,0.1571173071861267,-1.5670164823532104,-0.3656182289123535,-0.13826459646224976,-0.2018289566040039,-0.49900540709495544,-1.489365577697754,-0.8674220442771912,0.8836115002632141,-1.8580586910247803,-1.1014121770858765,-0.3908234238624573,-0.16681748628616333,-1.8493798971176147,-0.5856873393058777,0.25253865122795105,-0.5341765880584717,-1.7646207809448242,-0.6600966453552246,-1.4945118427276611,0.5953920483589172,0.566716194152832,0.25189027190208435,-0.14189209043979645,1.0475201606750488,0.4233510196208954,0.0682530403137207,-0.8545059561729431,-0.971422553062439,0.12310274690389633,-0.1585559993982315,0.8638730645179749,-2.5863583087921143,-0.8652183413505554,-1.5947798490524292,-0.7023836374282837,-1.8183051347732544,-0.1565486639738083,-0.898194432258606,-0.29661422967910767,0.42360031604766846
12,-0.17920149862766266,-0.6667991876602173,0.1747293770313263,1.7239184379577637,-1.0894569158554077,0.6422560214996338,0.04719501733779907,0.25892147421836853,-0.29494336247444153,-2.435507297515869,1.2961766719818115,0.19876393675804138,0.23229528963565826,-2.015314817428589,0.7792820334434509,-1.2428432703018188,-0.5157236456871033,-0.15245744585990906,0.9923346638679504,-1.126225471496582,-0.45672154426574707,0.42446938157081604,0.4774075448513031,0.030140144750475883,0.2996368408203125,-1.6543363332748413,0.46031928062438965,-2.3935561180114746,-1.7774523496627808,0.4345933198928833,0.38080033659935,-0.8318051695823669,0.9318303465843201,1.007669448852539,-0.26550212502479553,0.5281453728675842,1.3503165245056152,-0.6088603138923645,-0.22880829870700836,1.1220999956130981,-0.6324939727783203,0.25679290294647217,-1.8672200441360474,-1.7160744667053223,-0.8612813353538513,-1.9676892757415771,0.17260126769542694,-0.6868836879730225,-1.3519290685653687,-0.2853870093822479,-1.020207405090332,0.7274658679962158,-1.7293522357940674,-1.948464035987854,-0.44880491495132446,-1.3206106424331665,1.0214707851409912,1.963683009147644,-0.6359822154045105,-0.16471149027347565,0.21100878715515137,-0.03454073145985603,-0.39533308148384094,-1.9984220266342163,1.281235694885254,0.8989614248275757,-0.674992561340332,0.8054453730583191,-0.5411760807037354,-1.6197844743728638,0.39139020442962646,0.12824153900146484,-1.4741541147232056,-0.30450239777565,-1.1348849534988403,0.20742167532444,0.1885317713022232,-0.08789348602294922,-0.7670501470565796,-0.38802358508110046,0.5531488656997681,0.484703004360199,-1.6978312730789185,0.46893900632858276,-1.6294020414352417,-0.908839762210846,0.0002807101118378341,0.38813817501068115,-0.30442801117897034,0.4319438338279724,-1.1183667182922363,0.42119932174682617,-0.0494915246963501,0.20176276564598083,-0.24309396743774414,-1.0287939310073853,-2.2216761112213135,1.7968069314956665,-1.331795573234558,-1.0137592554092407,-1.1406371593475342,-1.8152214288711548,-1.1862223148345947,0.15000633895397186,0.5388440489768982,-2.2555198669433594,0.12424477189779282,0.4053780734539032,0.04600846394896507,0.04524004086852074,-2.0962133407592773,0.04605105519294739,-0.28001081943511963,-2.140984058380127,-0.1999012678861618,-1.6448475122451782,0.8143634796142578,1.4425526857376099,-0.06673775613307953,-0.9805172085762024,1.5327608585357666,-0.5507739186286926,-0.1957627236843109
13,-1.3146008253097534,-0.9328383803367615,-0.2574945092201233,-1.3241878747940063,0.7419277429580688,-0.369006484746933,-1.4993724822998047,-0.49793124198913574,-0.018915047869086266,1.1158891916275024,0.47278857231140137,0.05031031370162964,0.5425407886505127,-0.28837350010871887,-1.432206392288208,-0.8419698476791382,-0.29675769805908203,-1.4975130558013916,0.23569372296333313,-1.3769004344940186,0.22476646304130554,-0.21805439889431,0.7587373852729797,0.1671731173992157,-0.8238971829414368,1.319105863571167,1.433656930923462,-1.3864904642105103,0.8984622955322266,-0.049025025218725204,-1.0604150295257568,-0.10543223470449448,0.6254792213439941,0.10612297803163528,0.9945629239082336,1.57107675075531,-0.7561817765235901,0.653974711894989,-0.9756621718406677,-0.664981484413147,-0.9729654788970947,-1.187938928604126,-0.392769455909729,-0.17239700257778168,0.33150115609169006,0.04003015160560608,1.4570307731628418,-2.0888173580169678,-1.0180717706680298,-1.4419814348220825,0.9659726023674011,0.2644013464450836,1.9909718036651611,1.0573939085006714,1.763717770576477,-0.9904268980026245,-0.23087722063064575,0.7297177314758301,1.246584177017212,0.2655111253261566,-1.6219500303268433,-0.9544330835342407,0.5129565596580505,-0.950776219367981,0.18821461498737335,0.4035298526287079,1.0761668682098389,-1.299837350845337,0.9362013936042786,0.6074569821357727,-0.7606769800186157,0.11065370589494705,0.10425666719675064,1.296376347541809,-0.35935652256011963,-0.2563503086566925,-1.5284065008163452,0.9421628713607788,0.5426345467567444,-1.7643609046936035,1.1722946166992188,-0.7899030447006226,-0.057674653828144073,0.7108759880065918,-0.2616010010242462,-0.8990521430969238,1.839395523071289,-1.9422829151153564,-1.1963481903076172,1.3866024017333984,-1.3448333740234375,-0.8753884434700012,0.5614114999771118,1.301732063293457,-0.1493617296218872,0.6727426648139954,-1.5785105228424072,0.5630843639373779,1.0957915782928467,-0.4196399748325348,1.851436972618103,1.0384665727615356,0.2822091579437256,0.588314950466156,-0.8175594806671143,-2.4963316917419434,-0.11941727250814438,1.9203412532806396,-0.42872682213783264,-0.21841515600681305,0.6164247393608093,0.8048955798149109,1.9026459455490112,-0.46377068758010864,0.08734341710805893,-0.2868553698062897,0.743652880191803,1.7313121557235718,-0.4631653428077698,0.42819589376449585,0.2088804692029953,-0.9925127625465393,0.1763249933719635
14,-1.968672275543213,-0.539118766784668,0.3237949013710022,0.7619969248771667,0.36052340269088745,0.7746259570121765,0.8183920979499817,1.0067164897918701,1.0023537874221802,-0.5272085666656494,0.2852177619934082,-0.5572189688682556,-0.22894567251205444,-0.29488229751586914,1.129303216934204,-0.3672451376914978,-1.4335743188858032,0.44886890053749084,-0.517035961151123,0.5127184391021729,0.2856295108795166,-1.475008249282837,-0.07721465826034546,-1.0213704109191895,-0.0415845662355423,-2.0896432399749756,0.1464424580335617,-1.4183005094528198,-0.12336493283510208,-0.3644907772541046,0.2320995032787323,0.2346242219209671,-0.8063841462135315,1.5811024904251099,0.6821785569190979,0.4426531195640564,-1.0057584047317505,-0.4269998073577881,-0.5790778994560242,-1.4725037813186646,-0.33239564299583435,-0.7790309190750122,-1.557564377784729,-0.9489741921424866,0.6505299806594849,1.1672816276550293,-0.5879411101341248,-1.8783478736877441,0.7690878510475159,3.4194068908691406,-0.29109907150268555,0.6991450190544128,1.6245688199996948,0.8516039848327637,-0.7987670302391052,-0.053259722888469696,-2.299386501312256,0.9841568470001221,-0.9860683679580688,0.29596778750419617,0.5937000513076782,0.18146279454231262,-0.9014870524406433,0.5554138422012329,-0.9833136200904846,1.3220847845077515,-1.752241611480713,-0.12051928788423538,-0.8280741572380066,1.8291317224502563,-1.5468025207519531,0.2818492650985718,0.10349120944738388,0.046854618936777115,-1.3066149950027466,-0.5437560677528381,-2.0276286602020264,0.9041435718536377,-1.3137319087982178,-0.8239591717720032,0.06912781298160553,-1.562640905380249,0.6083376407623291,-0.5545639991760254,1.0793166160583496,-0.3646770417690277,0.1563417911529541,0.44501394033432007,-0.01981012523174286,1.3554574251174927,2.091085433959961,-1.0514304637908936,-0.9964123964309692,-1.393175482749939,0.13606838881969452,0.5079536437988281,0.1305164247751236,-0.8737648129463196,1.6433145999908447,-0.23349188268184662,-0.6940272450447083,-1.9655365943908691,1.6689187288284302,0.3412701487541199,-0.46036890149116516,-0.8028953075408936,0.5505484342575073,-1.5589767694473267,0.4691976010799408,-0.20132683217525482,-1.5395573377609253,0.30082863569259644,1.6527329683303833,-0.7141050696372986,0.021251041442155838,0.898369312286377,-0.15865181386470795,-0.218978613615036,1.2341619729995728,0.23897452652454376,-0.4021896421909332,0.7102059721946716,-0.6809687614440918
15,0.5260090231895447,0.8962799906730652,-0.27834296226501465,-0.14549732208251953,1.8454951047897339,-0.20979799330234528,-0.6789385080337524,-1.4755882024765015,0.6166186332702637,-0.09852681308984756,-0.3165242671966553,-0.6621845960617065,-0.5545328259468079,-2.0548784732818604,-1.924440622329712,-1.7029207944869995,0.6815816760063171,0.01863716170191765,0.3773564100265503,-1.090517520904541,-0.9614108204841614,-0.19432270526885986,-1.4157288074493408,0.5504027605056763,1.709099531173706,-1.3599379062652588,1.0475046634674072,1.7074733972549438,-0.33314403891563416,-0.6477283239364624,0.3246610462665558,-0.9331153631210327,1.0228713750839233,-1.0258880853652954,-0.6645163297653198,-1.403764009475708,0.32115063071250916,1.0611016750335693,-0.8894999623298645,0.08603741228580475,1.2150768041610718,-0.7439637780189514,-0.6912112832069397,0.14521294832229614,-0.3511866331100464,0.931625485420227,-1.6488171815872192,1.3552552461624146,-0.42315226793289185,-0.9431272149085999,0.25501954555511475,-0.45615285634994507,1.7179856300354004,-0.6193125247955322,-0.19581985473632812,-0.3992334306240082,-0.08730360865592957,0.30406901240348816,-1.6464214324951172,-0.2188877910375595,-0.6387447118759155,-0.01673855632543564,0.39522218704223633,1.0646511316299438,-1.4317958354949951,-0.5107656717300415,-0.4897524416446686,-0.6509479284286499,-1.6739882230758667,-1.205849528312683,-1.5048404932022095,0.5027398467063904,-1.689489483833313,0.17929740250110626,0.6051582098007202,0.7252675890922546,-0.3206339478492737,0.3115231692790985,-0.7335087656974792,-0.10870356857776642,1.629709243774414,0.15727852284908295,1.017143726348877,0.3895593285560608,0.9303495287895203,0.5956985950469971,-0.9817450046539307,-0.15439102053642273,-1.2655632495880127,0.574751615524292,-1.0237033367156982,0.6657404899597168,0.048398155719041824,-0.6831855177879333,0.24081599712371826,-0.5183526277542114,-1.2305718660354614,0.2756531238555908,-0.6902148127555847,1.2235993146896362,-0.2830786108970642,0.8437157869338989,-1.8671389818191528,-2.3478055000305176,-1.559604525566101,1.4304912090301514,0.31979647278785706,0.3437182903289795,-0.3639861047267914,0.7598365545272827,-0.20155440270900726,-1.6308557987213135,0.5079395771026611,1.3794975280761719,1.41205632686615,-0.04998590797185898,0.37618234753608704,-0.5520035624504089,-1.0276377201080322,0.23661531507968903,0.2621867060661316,0.24181418120861053,-0.8639751672744751
16,-0.5870785117149353,-0.74570232629776,-0.5151124596595764,-1.0928584337234497,0.14071781933307648,-0.1859973669052124,-0.023354504257440567,0.09185849130153656,-0.5211524367332458,-1.6638058423995972,-0.19407552480697632,-0.4799237549304962,-0.7965827584266663,0.7850494384765625,-1.6055253744125366,0.2818695306777954,0.29667574167251587,0.1881857067346573,-0.23002275824546814,0.29453718662261963,-0.06268182396888733,-0.3592654764652252,0.9292647838592529,-0.5959834456443787,-0.4049316942691803,0.47715890407562256,-0.20473796129226685,-0.0345938466489315,0.33449825644493103,0.0942893996834755,1.1034168004989624,-1.069151520729065,-0.8385966420173645,-0.3780585825443268,0.45374801754951477,-0.3053145408630371,0.971034824848175,-0.7311990261077881,0.7685961723327637,0.843902587890625,-0.275403767824173,0.4517402946949005,-1.0785090923309326,0.12209539115428925,-0.6417334675788879,0.751644492149353,0.2338723987340927,-2.1218204498291016,-0.7775816917419434,0.7180794477462769,-0.7461208701133728,-0.2126457542181015,-1.690189003944397,0.3127257227897644,0.7335792779922485,-0.3872253894805908,-0.4650125801563263,0.4520960748195648,0.05164162442088127,-0.3381832540035248,-1.3128948211669922,-1.1544272899627686,1.9236421585083008,0.19999678432941437,-0.9966703653335571,0.030089421197772026,0.00699567049741745,1.176425814628601,-0.2081870585680008,-0.03187022730708122,-0.5667601227760315,-0.5805355906486511,-0.19980785250663757,-0.850570797920227,0.7904066443443298,-1.5084192752838135,1.2744313478469849,-0.48247912526130676,-1.093399167060852,1.192867398262024,1.4274822473526,-0.4765869975090027,0.01751544699072838,0.942487359046936,-1.655134677886963,-0.9730686545372009,0.1032058447599411,1.0014276504516602,0.5974012017250061,-0.12877485156059265,0.28415367007255554,0.6421644687652588,-0.26358258724212646,1.59893798828125,1.6060490608215332,-1.0706034898757935,-0.16934823989868164,-0.8030551671981812,0.5296222567558289,1.127402901649475,-1.1896861791610718,0.34688740968704224,0.40941867232322693,-1.6374037265777588,0.3631766438484192,-0.262854665517807,0.015589839778840542,0.19275209307670593,-1.1582962274551392,1.410483717918396,0.6462297439575195,0.594466507434845,0.4556524157524109,-0.2582824230194092,0.6248461604118347,-1.093153715133667,0.7641728520393372,0.8403978943824768,0.2553931474685669,-0.20076800882816315,0.13657169044017792,0.3774242699146271,0.25096455216407776
17,-0.5818871855735779,1.26316237449646,0.5539795160293579,-0.7819815278053284,-0.08892776817083359,0.6299837231636047,0.726776123046875,-1.2388583421707153,-0.836696445941925,-0.39836689829826355,-0.03268622234463692,0.42548394203186035,-0.3376586437225342,0.11693631857633591,-0.3231644034385681,0.3017863631248474,-0.19215147197246552,-0.8075162768363953,0.9995182156562805,0.31803861260414124,2.896261215209961,-0.32520395517349243,-1.9785219430923462,-0.33411169052124023,-0.3962166905403137,-1.0331326723098755,0.4181244373321533,-0.44076934456825256,-0.32969146966934204,-0.6746897101402283,0.2707763910293579,-0.4039275050163269,-1.0021100044250488,1.2419894933700562,0.11534259468317032,-1.9491888284683228,-0.10276857018470764,-0.06941155344247818,0.3169373571872711,1.455963373184204,0.6028553247451782,0.020737994462251663,0.5650053024291992,-0.5836373567581177,0.5545093417167664,-1.2198573350906372,1.1552023887634277,-1.8820440769195557,-0.05437556654214859,-0.3032432794570923,1.3045713901519775,0.2474360316991806,-0.6332288384437561,-0.05562839284539223,1.2618130445480347,1.17611563205719,0.9585803747177124,0.8459622263908386,-0.5321983098983765,-0.23707324266433716,-0.01673446223139763,-0.29653143882751465,-0.16737252473831177,0.30898213386535645,-0.6411634087562561,-0.23987407982349396,-0.7991902232170105,-0.4737863838672638,-1.8808588981628418,-0.24681958556175232,1.0028111934661865,-0.6545037031173706,1.182546615600586,0.562591016292572,0.18145734071731567,-2.418034553527832,0.4710181653499603,0.4307461678981781,0.25208911299705505,-0.8314558267593384,-0.05282798781991005,-1.7301890850067139,0.08414550125598907,-0.5057847499847412,0.22399969398975372,-0.00419008731842041,0.5950547456741333,-0.0005228061927482486,-0.5584397912025452,0.6348472237586975,1.4158388376235962,-0.6039887070655823,-0.2660095691680908,0.4056277275085449,-1.4143208265304565,1.8053898811340332,1.4778339862823486,-2.651679515838623,1.4140774011611938,-2.2195162773132324,-1.0506343841552734,0.39624667167663574,0.846066415309906,-0.6304701566696167,-0.8286214470863342,-0.6868820786476135,-0.15416103601455688,0.17677676677703857,-0.6414254903793335,-1.4168380498886108,0.44526407122612,0.5886859893798828,0.7459239363670349,-0.01355694979429245,0.10467831790447235,-1.3396377563476562,-1.2514704465866089,0.030571717768907547,-0.6748993992805481,0.7678549289703369,0.840129554271698,0.8111727237701416,-1.0301066637039185
18,-0.2681170701980591,-0.33149459958076477,0.24238985776901245,-0.07272116839885712,0.47010236978530884,1.5912991762161255,-1.1141120195388794,-0.9708250761032104,-0.5872899889945984,-0.20317073166370392,0.029618745669722557,1.9071314334869385,0.47204649448394775,0.527590811252594,0.2323962152004242,-1.8481065034866333,0.9474325180053711,-0.3466251492500305,-0.1440056711435318,1.4190338850021362,0.4346182942390442,-0.4912688136100769,-1.3282428979873657,-0.2552904188632965,-0.027634426951408386,0.17919135093688965,1.6975048780441284,-0.9405136108398438,1.7024195194244385,1.1150143146514893,0.37553682923316956,1.7826542854309082,-0.6022095680236816,0.6286499500274658,1.3819161653518677,0.4776754379272461,-0.30344441533088684,0.14582054316997528,-0.645725667476654,1.593009114265442,1.502392292022705,-0.9377201795578003,-0.2668914496898651,-1.6158826351165771,0.44971150159835815,1.802726149559021,0.6205484867095947,-0.8713529706001282,1.2468624114990234,1.0696226358413696,2.324476718902588,-0.3280300498008728,-0.3819383680820465,-0.2379978895187378,1.4533993005752563,0.6988576054573059,2.1455039978027344,0.2256970852613449,0.1396382451057434,0.99238121509552,0.2740713655948639,-0.22642460465431213,1.51169753074646,1.8139126300811768,0.5874953269958496,0.931321918964386,1.3423141241073608,0.8451433777809143,-0.5708721876144409,0.6616032719612122,-0.24250979721546173,0.20396466553211212,-0.19393087923526764,0.19129815697669983,-0.7258809208869934,0.838816225528717,1.2464134693145752,0.36156389117240906,0.7047653794288635,-0.26526331901550293,1.843288540840149,0.3213423490524292,0.17189627885818481,-1.524346947669983,1.935075044631958,0.8696155548095703,1.1448875665664673,-0.7005718946456909,-1.1567208766937256,0.668903112411499,0.04049523547291756,-0.6870113611221313,-1.441928744316101,0.1308078169822693,0.5061280727386475,0.5802488327026367,-0.9690571427345276,0.20654863119125366,-0.5525757670402527,1.4817447662353516,-0.34463268518447876,-1.5936824083328247,-2.208362579345703,1.5820337533950806,-0.9775475263595581,0.3531204164028168,0.1699877381324768,1.2733851671218872,-0.12387076020240784,0.8510880470275879,0.9430875778198242,0.9270277619361877,0.6377995014190674,1.1660287380218506,-0.021514102816581726,-0.6670506000518799,0.3432028293609619,0.08732011169195175,1.3763543367385864,0.08669262379407883,0.2587677538394928,1.1438122987747192,-1.3370989561080933
19,-0.4270338714122772,-0.4624550938606262,-1.7254266738891602,-1.1563576459884644,-1.0705082416534424,-0.156985342502594,1.890580654144287,-0.33024418354034424,-0.23451437056064606,-1.1055867671966553,-0.2944515347480774,1.0433166027069092,0.4808380901813507,0.17781147360801697,1.138251781463623,-1.3275541067123413,0.7029121518135071,-0.6445997357368469,0.08659517019987106,0.7382506728172302,-1.7308326959609985,0.7553737163543701,0.11807939410209656,-1.9570540189743042,-0.7963469624519348,-1.99278724193573,1.2159655094146729,0.05718371272087097,0.6532121896743774,1.1776622533798218,-0.19984550774097443,0.2443695217370987,-1.1587392091751099,-1.1187853813171387,-0.8975830674171448,-0.7943996787071228,-0.6444723010063171,-0.5467709898948669,-0.4682799279689789,1.3524203300476074,0.17946968972682953,-1.2567394971847534,2.4469261169433594,-1.5007582902908325,-0.6370961666107178,-1.773908019065857,-0.28202417492866516,0.1512010395526886,-0.32491809129714966,-1.1301770210266113,-0.8519901037216187,-0.7963335514068604,1.9210020303726196,-0.0767400711774826,0.32069268822669983,-0.5522275567054749,-0.8675803542137146,-0.6009947657585144,-1.386193037033081,0.8715614080429077,0.5541344881057739,-0.8327215909957886,0.057400863617658615,-0.4852038621902466,-1.5042974948883057,-0.9412277340888977,-0.907177209854126,-1.2354799509048462,-1.5518248081207275,-0.32721835374832153,0.9021353721618652,0.6526322960853577,-1.0076371431350708,0.9970507621765137,0.1442207247018814,1.68830144405365,-0.48406341671943665,-1.3961185216903687,-2.0025463104248047,0.05428316444158554,-1.7199788093566895,-1.2870780229568481,0.5560347437858582,-1.6080107688903809,0.3609536290168762,-0.39551976323127747,2.497494697570801,-0.7570347189903259,-1.019957184791565,0.9013915657997131,-0.5161923766136169,0.5200366973876953,-0.930734395980835,0.8988436460494995,1.019574761390686,1.279394268989563,-0.9966286420822144,1.2827116250991821,0.8339335918426514,0.08329813182353973,-0.26266688108444214,0.8465925455093384,-1.5290244817733765,0.7727147936820984,1.427619457244873,0.08996827155351639,0.18721435964107513,-0.9401389956474304,0.4234921932220459,0.44441866874694824,-2.0930254459381104,0.25756290555000305,0.04844828322529793,-0.21748235821723938,-1.718039631843567,1.1925429105758667,-0.8457644581794739,-1.1206713914871216,-0.6880212426185608,-0.6916100382804871,-1.8566659688949585,-0.5990108847618103,-0.06301611661911011
20,-0.04530075564980507,0.9147493243217468,1.1680896282196045,2.041098117828369,0.025456110015511513,0.2807162404060364,0.48293209075927734,-1.204177975654602,-0.5823363661766052,0.0805547833442688,-0.15340465307235718,0.2896595597267151,-0.7367702722549438,0.9216082096099854,0.4715850055217743,-0.22853200137615204,-0.7646971940994263,0.34132444858551025,-0.6750614047050476,-0.4107380211353302,-2.0636324882507324,-0.23962731659412384,-1.889835000038147,0.43151843547821045,-0.04300727695226669,0.5493693351745605,-0.7501131892204285,0.4983442425727844,-0.8229658603668213,-1.492244839668274,-0.361530065536499,-0.44764086604118347,-1.9357128143310547,-0.03847545385360718,0.1212301105260849,-0.6418522596359253,0.11478731036186218,0.7477371692657471,-1.179305911064148,-0.002739909803494811,-2.078179121017456,-1.251223087310791,0.739169180393219,0.767193078994751,0.11657653748989105,-0.4895690679550171,0.46304768323898315,-0.8226124048233032,-0.43199098110198975,-0.8596831560134888,0.02471250295639038,0.4333643913269043,0.43917596340179443,-0.7787454724311829,-0.5716962218284607,0.7231904864311218,0.2732051908969879,-0.2896694540977478,1.212628722190857,-2.071171760559082,-0.5513651967048645,0.6071739792823792,-0.5507089495658875,0.46239662170410156,1.4594528675079346,-1.1658647060394287,2.3717875480651855,-0.8702754378318787,1.0516067743301392,1.302322506904602,0.10966970026493073,-0.9203757047653198,0.8387178778648376,1.052567958831787,0.31834277510643005,1.348358154296875,0.2250293642282486,0.09703828394412994,-0.8659518361091614,-1.926408052444458,0.4324374496936798,-0.8564374446868896,-1.5401387214660645,1.007123589515686,1.607177495956421,-0.5803399682044983,0.05489221587777138,0.8126206994056702,0.777684211730957,0.05751314014196396,0.3256794214248657,-0.821248471736908,-0.18481940031051636,-1.7595036029815674,-0.9401266574859619,-0.013366863131523132,0.9375073909759521,0.6912779808044434,1.1803826093673706,-1.3950047492980957,0.4092353284358978,-0.15186919271945953,-2.910062313079834,-1.922680139541626,0.004744592122733593,1.1733415126800537,0.9904638528823853,-1.7368450164794922,-0.00368867558427155,-0.18591466546058655,-0.7012760043144226,-0.12864454090595245,-1.0378260612487793,0.9123910665512085,-1.5639288425445557,0.7543988227844238,0.31099143624305725,1.03519606590271,-1.380979061126709,0.18248522281646729,-0.3372417390346527,0.29850509762763977,3.1157684326171875
21,-1.0767573118209839,-0.7389650344848633,-0.53569096326828,0.4242805242538452,-0.17554916441440582,1.8551316261291504,-0.790168285369873,1.696302056312561,1.036354660987854,-1.041316270828247,0.07323793321847916,-0.16912981867790222,-1.2174174785614014,0.17855368554592133,0.3864361643791199,-1.7488981485366821,-0.9730070233345032,0.02011808753013611,1.0397214889526367,0.47542306780815125,0.8063157200813293,0.8372970819473267,0.16041044890880585,-0.39506447315216064,-0.21442528069019318,-0.6456863880157471,-0.2420097142457962,-0.6303397417068481,-1.0142163038253784,-0.46823441982269287,0.9997795820236206,-1.6460800170898438,1.579322099685669,-1.196738600730896,-1.7525253295898438,-0.1869935393333435,1.0107907056808472,0.42856934666633606,0.7172494530677795,0.6709814071655273,-0.24754200875759125,0.34563732147216797,0.3173207938671112,-0.702182412147522,-0.1650085300207138,-0.7239533066749573,1.7098972797393799,-0.9134394526481628,-0.6009782552719116,-0.8065996766090393,0.5998378992080688,0.9549810290336609,0.08875619620084763,-1.116405725479126,0.42784857749938965,0.6824153065681458,-0.24253606796264648,0.17731517553329468,-1.1850851774215698,-0.8830470442771912,-1.0498855113983154,-2.2652273178100586,-1.0959806442260742,-0.3024674952030182,-0.12424850463867188,0.03782588988542557,0.2562834322452545,0.5550737977027893,-0.7175219058990479,0.57210373878479,0.5431430339813232,0.02238094061613083,0.8867253065109253,-0.49582237005233765,-0.9071435332298279,-0.6556677222251892,-0.7353026270866394,2.089491844177246,-0.4075717031955719,-0.3456268310546875,0.9550179839134216,0.5457506775856018,0.16160136461257935,-0.6115202307701111,0.17889568209648132,-0.13481877744197845,-1.87762451171875,-0.5322340726852417,0.18333107233047485,-1.7287205457687378,0.7507052421569824,1.3345497846603394,-0.49714395403862,-0.05828387662768364,-0.6461227536201477,0.6868513226509094,0.844310998916626,0.07456685602664948,1.5527427196502686,-0.7326164245605469,-0.29687368869781494,-0.23264998197555542,0.788547933101654,1.2096914052963257,0.8788648247718811,-0.5601972341537476,-0.9688922762870789,-1.0767624378204346,-0.38871893286705017,0.5122756958007812,0.022727061063051224,-0.4659079611301422,-0.10730332136154175,1.1660391092300415,-0.023655500262975693,-0.5270640254020691,-2.4137771129608154,-1.5150362253189087,-1.2942365407943726,-0.5231844782829285,1.0012311935424805,0.4756803512573242,-0.8211571574211121
22,-1.462396264076233,-0.7163488268852234,0.04748273640871048,0.3300861120223999,0.3571970462799072,-1.1668957471847534,-0.6670976877212524,-0.525529682636261,0.5581228137016296,-0.6034685969352722,0.025502294301986694,-0.6310039758682251,-2.110680341720581,-1.767778992652893,0.13531549274921417,-1.3385368585586548,0.06404697149991989,0.36489859223365784,0.624251663684845,0.7230017781257629,-0.30774664878845215,-1.672554850578308,0.17023664712905884,-0.7687338590621948,0.3027818500995636,0.5203779935836792,0.2600484788417816,0.36732548475265503,1.588736891746521,0.0032609826885163784,-1.5860658884048462,-1.270287036895752,0.3932971656322479,1.6162971258163452,-0.9311398267745972,-0.6730942726135254,-0.0691118985414505,-0.5870662331581116,-0.1953447461128235,-1.6090757846832275,-0.356926292181015,0.6144572496414185,1.4219229221343994,-0.32175377011299133,-0.5956551432609558,1.4244534969329834,-0.24903935194015503,0.2328508347272873,0.9852079153060913,-0.7004647850990295,-0.258966863155365,-0.7495316863059998,-0.5278279185295105,-2.393852710723877,-0.8286224007606506,0.08144568651914597,-0.44712352752685547,0.3107498288154602,0.9926472902297974,-0.8374327421188354,-1.200545072555542,1.3202813863754272,-0.6259794235229492,-0.5183030962944031,-1.1087287664413452,-1.2363022565841675,-0.1358870267868042,-0.5425724983215332,-0.4836759567260742,-1.2127509117126465,0.25529393553733826,-0.41956841945648193,1.1035839319229126,-0.05479665845632553,-0.6268247961997986,-2.0205483436584473,0.29782453179359436,-1.603222131729126,-0.5202562212944031,-0.6237394213676453,0.370527058839798,0.28099068999290466,-0.820740282535553,0.585232675075531,-2.4658279418945312,-0.6705154776573181,-1.5064719915390015,-0.324421763420105,-0.5686125159263611,-0.25682559609413147,0.42706936597824097,-0.3521134853363037,0.5688827633857727,-0.12799930572509766,-0.21022361516952515,-0.28525790572166443,0.3839721083641052,-0.5012363195419312,1.037627100944519,-0.18291886150836945,-0.21235373616218567,0.3282199203968048,-0.7722795009613037,0.1759195178747177,-0.6103026270866394,-0.10555434972047806,0.6620098948478699,-0.797231137752533,-0.4488791823387146,0.41420668363571167,-0.7648547291755676,0.8055703639984131,0.1297028809785843,-0.4153597354888916,-1.212127685546875,0.32091349363327026,-0.41363784670829773,0.5127198100090027,0.2408311516046524,-0.32217273116111755,-0.38598546385765076,-1.031825304031372,0.0038393132854253054
23,-1.8739126920700073,0.6129401922225952,0.6378271579742432,-1.696035385131836,0.4552686810493469,0.8024482727050781,-0.2881787419319153,-0.26190391182899475,-0.3291669487953186,1.9397636651992798,-0.8052501082420349,1.6032040119171143,-0.7731830477714539,0.02202383615076542,0.5228487849235535,-0.7462106347084045,-0.9639133214950562,-0.8238836526870728,-0.7102904319763184,-0.0015188230900093913,0.9391761422157288,0.08771511912345886,0.20841297507286072,0.4124191701412201,-0.3855072557926178,1.6654311418533325,0.8944383859634399,-1.517344355583191,-0.019521860405802727,1.2413915395736694,1.3540065288543701,0.47967585921287537,1.4539451599121094,0.7283273339271545,1.4530903100967407,0.912830114364624,0.07161861658096313,0.13519471883773804,-0.06655266880989075,-0.046425312757492065,1.0789539813995361,-0.6481146812438965,0.9566474556922913,-1.5765131711959839,-0.4203530550003052,-0.0059057315811514854,-0.5060354471206665,-0.5083595514297485,1.2823095321655273,-0.7462009191513062,0.6485384702682495,0.6387737989425659,-1.7435884475708008,1.599107027053833,1.5598827600479126,0.5098789930343628,-0.7509615421295166,0.04614308476448059,-0.5401098728179932,0.5995434522628784,0.7611570358276367,2.0005390644073486,-0.15282492339611053,2.6438350677490234,-0.5459028482437134,-0.21855124831199646,-0.6463682055473328,-2.335324764251709,0.559319794178009,-0.028518611565232277,1.499289631843567,-1.3748935461044312,-1.4437763690948486,0.3996984660625458,1.6282960176467896,0.3000430464744568,-0.38030850887298584,-0.9242547154426575,2.109942674636841,-0.03826653212308884,-1.0434883832931519,1.6833035945892334,-1.1108062267303467,-2.422576427459717,-1.4063957929611206,-0.15082700550556183,1.768938660621643,-2.0019068717956543,0.14792262017726898,-1.0702749490737915,2.3777525424957275,2.6990649700164795,-0.9449096322059631,-1.5384979248046875,0.3540254533290863,0.3640900254249573,-0.4100915491580963,0.24472013115882874,-0.8969632983207703,-0.42124831676483154,0.2894716262817383,-1.3511619567871094,1.2396416664123535,1.903984546661377,0.08410687744617462,0.8449045419692993,-0.20999369025230408,-0.4950307607650757,1.6456466913223267,-0.953719437122345,-0.07631146907806396,0.6744843125343323,-1.6248747110366821,0.5675966739654541,0.6480792164802551,-1.27522611618042,1.6367062330245972,1.0027073621749878,0.6738235950469971,0.08093703538179398,0.6359366774559021,0.20617800951004028,-1.0934021472930908
24,-0.10553143173456192,0.5206794738769531,1.2024165391921997,1.0220224857330322,0.2071618288755417,0.2927502393722534,1.2100328207015991,0.21010860800743103,-0.0014036160428076982,2.057379961013794,1.19070565700531,0.7398853898048401,0.08874845504760742,-1.747496247291565,0.39948034286499023,1.250274419784546,-0.759617805480957,-1.8388417959213257,-2.546034097671509,2.5400900840759277,-0.022415975108742714,0.3727096617221832,1.202115774154663,1.001820683479309,0.5667658448219299,1.741771936416626,2.2067553997039795,0.9000447988510132,-1.1966660022735596,0.16655687987804413,0.05040980875492096,-0.7150583267211914,0.9600289463996887,0.4672478437423706,-0.24139976501464844,1.0486266613006592,0.23316961526870728,-1.628814697265625,0.3829515278339386,-0.7048198580741882,1.0513795614242554,-0.8502612113952637,1.5266457796096802,1.88385808467865,1.122559666633606,-0.33717095851898193,-1.067896842956543,0.08570331335067749,-0.8966010212898254,-1.3020455837249756,0.598898708820343,0.13951458036899567,-0.07142700999975204,-1.614544153213501,0.5437746644020081,0.26464948058128357,0.8989940285682678,-1.316593885421753,0.3019983172416687,1.1405513286590576,0.8735660910606384,0.834726870059967,1.3631010055541992,-0.521761953830719,1.9936355352401733,0.4719164967536926,-0.9270503520965576,0.44683632254600525,1.3537113666534424,1.001559853553772,-1.7119051218032837,-0.20970606803894043,-0.18405407667160034,-0.015561273321509361,0.9710995554924011,-0.1136304959654808,0.7716795802116394,0.6797868609428406,-0.41861194372177124,0.26754215359687805,-1.119491696357727,0.389034241437912,-1.2672345638275146,-2.7404675483703613,0.5374295115470886,1.3980917930603027,-1.269501805305481,-1.2401326894760132,0.19219762086868286,-1.9537309408187866,0.939418375492096,-0.06908505409955978,-1.0626277923583984,0.6985176205635071,-1.0013275146484375,-0.527830958366394,-0.19917331635951996,0.551206111907959,1.3944942951202393,-0.564825177192688,-0.468458354473114,0.4702581763267517,0.9387357831001282,0.7180929780006409,1.0425831079483032,-0.04030837491154671,0.32846972346305847,1.8241240978240967,-1.5724163055419922,0.7877593636512756,-0.13697364926338196,2.0471458435058594,-1.2074588537216187,0.29022708535194397,-1.285637378692627,1.8349289894104004,0.5029167532920837,-0.6297200918197632,-0.3012952208518982,0.8674547076225281,-0.8495359420776367,-1.0838732719421387,-0.04573412984609604
25,-1.515804409980774,0.8258441686630249,-2.0395593643188477,2.106959581375122,1.7419642210006714,-0.5239595770835876,-2.170565366744995,-0.10839513689279556,-0.07656358927488327,-1.6897915601730347,0.4603991210460663,-0.026010876521468163,-0.8446024656295776,-0.5719666481018066,-1.6026281118392944,0.35833069682121277,-1.0936843156814575,0.6574146151542664,-2.4295802116394043,-0.23678214848041534,-1.6556450128555298,-0.5564572811126709,0.029321881011128426,-0.15858840942382812,0.8405717611312866,0.40129292011260986,-1.1075022220611572,-0.007629869971424341,-2.1139543056488037,-0.6141469478607178,0.13275276124477386,-0.5285295844078064,-0.10176663100719452,1.4235206842422485,-1.4622694253921509,1.0830104351043701,-0.6319071054458618,-0.9077317714691162,0.18743407726287842,-0.03968190774321556,0.9122766256332397,0.565211832523346,0.1816103309392929,-1.8996694087982178,-0.6013790965080261,1.3940163850784302,-0.9021657705307007,-0.30620500445365906,0.8218457698822021,-1.7317477464675903,1.3772629499435425,1.7852671146392822,0.5542648434638977,0.9305355548858643,-1.5538054704666138,1.7535158395767212,-0.9579729437828064,0.25199025869369507,1.4531363248825073,-0.2731848359107971,-1.258678674697876,2.091092348098755,-1.040926456451416,-0.4535701870918274,0.3405160903930664,-1.1638963222503662,0.6950011253356934,0.19590841233730316,1.426038384437561,-0.6041606664657593,1.2814180850982666,2.2271711826324463,0.815261960029602,0.3362196385860443,-0.5018777251243591,-2.0912585258483887,-0.4203106760978699,0.9294768571853638,-3.2027015686035156,0.0461491122841835,-1.3358227014541626,-0.6608094573020935,0.252498984336853,-1.9615920782089233,-0.6449934840202332,1.0535848140716553,-0.831245481967926,0.5167636275291443,-1.208031177520752,-1.5957800149917603,-0.4802660048007965,-0.14859741926193237,-0.5053070187568665,-0.9692173004150391,-1.1345914602279663,1.452923059463501,0.34337466955184937,-1.096917986869812,-2.1147520542144775,-0.16912174224853516,0.5403740406036377,-1.379119634628296,0.46339768171310425,-0.1879282146692276,-0.08715301007032394,1.3409674167633057,0.1026988998055458,-1.4247640371322632,0.38215386867523193,0.7645366787910461,1.5056415796279907,-0.19101738929748535,0.8892772197723389,0.6195628643035889,-0.7280492186546326,0.17748533189296722,-1.0150227546691895,-0.7145990133285522,0.9997629523277283,-0.0390598364174366,0.9902433156967163,0.42495572566986084,-0.30932530760765076
26,-2.12509822845459,1.3242489099502563,-0.6306811571121216,-0.05176511034369469,2.1291704177856445,0.10793645679950714,-0.2575457990169525,0.06957802176475525,0.45939725637435913,-1.639535665512085,-2.0289018154144287,-0.6844722032546997,1.4906237125396729,-1.185815691947937,-1.3669042587280273,-0.7342561483383179,1.8595746755599976,-2.377464771270752,-1.2459698915481567,0.026869555935263634,0.8340423703193665,-0.8497774004936218,1.3943235874176025,1.323286771774292,0.05106356739997864,0.1960621476173401,0.1440330296754837,0.7865301966667175,-1.8898969888687134,0.7192111015319824,-0.7701901793479919,-2.02504825592041,-0.08245562016963959,-0.8527123928070068,0.2581644356250763,0.1244678944349289,0.2672347128391266,-1.0632683038711548,1.5610042810440063,0.2514418363571167,-0.9359946250915527,0.3312382996082306,-0.6353845596313477,-0.7979425191879272,-1.235719919204712,-0.8800345659255981,1.0834856033325195,0.9562330842018127,-0.6163291931152344,-0.8808440566062927,0.272296667098999,-0.4032673239707947,2.72257399559021,-1.4079724550247192,0.9737722873687744,-0.9715298414230347,-0.5655087232589722,-0.13743489980697632,-2.671875,-0.1345890611410141,-0.48453041911125183,-1.9434788227081299,-1.8781616687774658,-1.3343867063522339,0.25617972016334534,0.1376584768295288,0.4114024043083191,-0.08925055712461472,-0.766453206539154,-1.1080423593521118,-0.7718084454536438,1.468000888824463,0.22832772135734558,-0.46075668931007385,-0.7170608639717102,0.7324763536453247,-0.27098843455314636,-1.8831051588058472,-0.9970543384552002,0.4485892951488495,0.04400111362338066,0.6955159902572632,1.2161141633987427,0.5796038508415222,0.1676798164844513,-1.956882119178772,-1.0926589965820312,0.7988536357879639,-0.8297989964485168,-0.26676997542381287,1.7956273555755615,0.13327479362487793,-1.6191987991333008,-1.0005289316177368,-0.4151681661605835,-2.1216349601745605,0.5658133625984192,-0.6652294397354126,-1.764139175415039,0.37597018480300903,-1.4215669631958008,-0.12173210829496384,-0.0719466581940651,-0.7371925711631775,-0.08987946808338165,-2.0244858264923096,-0.4827980697154999,-0.7724793553352356,-1.228486180305481,-1.6993088722229004,0.7925761342048645,-0.664389967918396,-1.1035304069519043,-0.5021911859512329,1.4765467643737793,2.1505768299102783,-0.6028005480766296,0.4928540289402008,-0.44731956720352173,-0.7864815592765808,0.46231529116630554,-1.7860066890716553,-0.7253838777542114
27,-0.7376184463500977,-0.9797813296318054,-1.6206434965133667,-0.10959277302026749,0.5532187819480896,0.30462414026260376,0.6789353489875793,0.6704423427581787,-1.0083767175674438,-0.6274240016937256,-0.5316652059555054,-1.1791342496871948,1.3173080682754517,-2.618295431137085,1.0253187417984009,-0.5943920016288757,0.289982408285141,-1.1215535402297974,-0.7473945617675781,2.2788500785827637,-2.662552833557129,-0.03139239549636841,1.5772404670715332,-0.24323530495166779,2.8251407146453857,0.888451874256134,0.5560433268547058,-1.0809983015060425,-0.09551258385181427,-1.2544786930084229,1.7847681045532227,-1.3286921977996826,0.734460711479187,-0.7749577760696411,-1.83091139793396,1.0397974252700806,0.8759962916374207,0.4882815480232239,0.3534780442714691,0.6806090474128723,-0.5141544342041016,-1.3559093475341797,0.4480619728565216,1.5604687929153442,2.0883703231811523,-1.077465295791626,0.5315585136413574,-0.7719299793243408,-0.19955812394618988,0.6952075958251953,0.6001459956169128,1.4202848672866821,-2.220358371734619,1.0621213912963867,-0.15879859030246735,0.8222922682762146,0.6258376836776733,-0.9697349667549133,0.2463533729314804,-0.5316725969314575,0.4657997190952301,1.097827434539795,-0.3473030924797058,0.65914386510849,-0.759960412979126,-2.0126755237579346,-0.3913668096065521,-0.6638785004615784,1.5433177947998047,-0.5083853006362915,-0.4205215275287628,-1.332375407218933,0.02226480469107628,-2.324110984802246,0.5383169651031494,2.083949327468872,-0.5561999678611755,-0.3175209164619446,-0.9304633140563965,0.7179940342903137,0.8978579044342041,-1.101385235786438,-0.5074093341827393,-0.48696988821029663,-0.4932107925415039,-0.044884566217660904,-0.6447591781616211,-0.3744642734527588,0.39886072278022766,0.0725269615650177,-0.09822867065668106,-0.39009836316108704,-0.16940826177597046,-0.9671853184700012,-0.9082684516906738,-1.4849638938903809,-0.4316265881061554,0.010252976790070534,-1.1639065742492676,1.670005440711975,-0.11620688438415527,1.3111920356750488,-0.28103554248809814,1.530334234237671,1.1198959350585938,-0.37877577543258667,0.1857970505952835,1.0337177515029907,0.5303243398666382,1.5134780406951904,0.3355517089366913,-0.5616577863693237,0.73074871301651,0.8891749382019043,0.8453740477561951,0.8021804094314575,-1.781591534614563,0.2630445957183838,-0.03452382609248161,-0.26139402389526367,-0.26993292570114136,0.26941511034965515,0.6879898309707642
28,0.11914630234241486,1.6108673810958862,-0.3160570561885834,-2.3139657974243164,-0.13385212421417236,0.35959330201148987,-0.26273849606513977,0.7926453948020935,-0.007910660468041897,-0.33723750710487366,1.0631293058395386,-0.1241251602768898,-0.4597775936126709,0.8767144083976746,-0.5624924898147583,-1.074283242225647,1.088370680809021,-0.13644783198833466,-0.16416673362255096,0.8037495613098145,0.20440684258937836,1.9982022047042847,0.6357319951057434,0.9258109927177429,-0.4271804988384247,1.0939669609069824,-0.2580597698688507,1.0227761268615723,-1.3198405504226685,0.15188561379909515,0.35705894231796265,-0.8881047368049622,-0.8816128373146057,0.5305309295654297,0.13935519754886627,1.2658547163009644,-1.0148816108703613,0.03759491816163063,0.7468018531799316,0.6269871592521667,0.6253439784049988,1.4132505655288696,0.2933933138847351,-0.6515142321586609,0.2823418080806732,0.2389582246541977,0.8516725897789001,0.2021966278553009,-0.3318752646446228,-0.09723369777202606,-0.41748854517936707,0.021567942574620247,0.20624276995658875,0.02297067642211914,-2.118764877319336,0.9350665211677551,-0.874856173992157,-0.1794281005859375,1.3643946647644043,-0.3393861949443817,-0.34021127223968506,1.6300495862960815,-1.5949504375457764,0.8342967629432678,2.3198893070220947,0.7083295583724976,-0.5005686283111572,0.37996163964271545,0.5566352605819702,0.6975483298301697,0.6468687057495117,-0.02016284689307213,2.730557680130005,0.7102200388908386,1.6838202476501465,0.7255171537399292,-0.24860820174217224,0.7824210524559021,1.6023823022842407,0.08137702196836472,0.31997373700141907,1.1158970594406128,0.6906226277351379,0.23161114752292633,1.3449939489364624,0.8479599952697754,-0.5752022862434387,-0.28387731313705444,0.679966390132904,1.224245309829712,-1.1074328422546387,0.5919299125671387,2.416252374649048,-0.8693915009498596,-1.1501216888427734,2.6423251628875732,-0.8887308835983276,0.8609270453453064,0.5487966537475586,-0.32819119095802307,1.1485041379928589,0.4698181450366974,-0.16881929337978363,0.34445270895957947,0.29603731632232666,-0.3201518952846527,-1.8449764251708984,0.7402446269989014,-0.23856939375400543,1.1373454332351685,2.1686418056488037,0.5033494234085083,1.159800410270691,0.664466142654419,1.0218281745910645,0.9910037517547607,-0.1975780725479126,0.6997131705284119,0.7704114317893982,-0.34489649534225464,1.2473207712173462,-0.7218835353851318,1.1625229120254517
29,0.9086675047874451,-0.29219675064086914,-0.775840699672699,1.6078194379806519,-0.7297656536102295,0.06830260157585144,0.049335841089487076,1.1377642154693604,-1.276847243309021,2.8226733207702637,0.1813667267560959,0.753243088722229,0.9183696508407593,-0.0751957893371582,-1.2414239645004272,-0.3259398341178894,-1.9824389219284058,0.6978485584259033,-0.08506752550601959,0.7153867483139038,0.09054335206747055,0.512082040309906,-1.2300362586975098,-0.7569699287414551,0.6637622714042664,0.7620437145233154,-1.1119673252105713,0.706501841545105,-0.14487913250923157,1.591809868812561,-1.520461916923523,1.3671677112579346,2.0543134212493896,0.1189362183213234,-0.22016870975494385,1.1187071800231934,0.23838548362255096,0.6845641136169434,2.6455295085906982,1.8426302671432495,0.24271276593208313,-0.1406286209821701,0.3290725350379944,-0.7410567402839661,-0.28648605942726135,0.1444893181324005,0.5749014019966125,-0.8255549669265747,0.4508577287197113,0.16231167316436768,0.20820994675159454,-1.407500982284546,1.3096708059310913,0.023432111367583275,3.2098331451416016,-1.4801229238510132,2.0474793910980225,-0.52199786901474,2.0958898067474365,0.9072022438049316,-0.23958076536655426,0.8081009984016418,0.7969257831573486,-1.6397371292114258,-0.7035215497016907,0.835985004901886,0.4296359121799469,0.5603291392326355,0.3466826379299164,0.9806622266769409,-1.8124334812164307,0.41103893518447876,-0.2876449525356293,1.6662588119506836,-0.5021341443061829,-0.28940728306770325,-1.0256431102752686,-0.4731604754924774,1.395429253578186,-0.46537476778030396,-0.6223753094673157,0.9532813429832458,2.1615309715270996,0.2255430668592453,-0.006531227380037308,-0.35755857825279236,-1.5660488605499268,1.3403621912002563,1.3524763584136963,-1.1832915544509888,-0.5022531747817993,-0.6037769913673401,-1.7158958911895752,0.5962522625923157,0.6332600712776184,-0.7135775089263916,-1.324185848236084,1.0395395755767822,0.9491106867790222,0.8868308663368225,-0.17854413390159607,-0.2819156348705292,-0.8005483746528625,0.28475847840309143,0.029928386211395264,1.4126228094100952,1.335069179534912,-0.36423513293266296,1.931748390197754,-0.47735509276390076,1.3551006317138672,3.8804686069488525,1.4251201152801514,0.20723029971122742,1.7063326835632324,-0.010831491090357304,-0.3185664713382721,0.5536434054374695,-0.14348910748958588,0.3392534852027893,-0.30584168434143066,1.0649850368499756,1.1350640058517456
30,-0.3627486526966095,1.4809181690216064,-1.152396321296692,0.15701909363269806,0.8208988308906555,-0.026249196380376816,-0.10381121933460236,-0.9507096409797668,-0.3888924717903137,-0.531001091003418,2.0599491596221924,0.9664027094841003,-1.0447609424591064,-1.1141011714935303,-0.6709023118019104,0.09025318175554276,1.5583943128585815,1.0711339712142944,-0.614651083946228,-0.7779462337493896,-1.3930823802947998,0.46403488516807556,0.9881961941719055,0.29150885343551636,0.6621168255805969,1.127982258796692,-0.3082472085952759,0.3312901258468628,0.09628742933273315,1.7700564861297607,-0.8250511288642883,0.14436125755310059,0.7769941091537476,-0.8476423025131226,1.4100614786148071,-0.5433030128479004,0.8970635533332825,0.6229772567749023,-0.1919565498828888,0.9948670864105225,-0.5076766014099121,-0.3217451572418213,0.3371652662754059,-0.6939297318458557,-0.7302348613739014,0.022165659815073013,1.8003487586975098,-0.4263065457344055,1.6778415441513062,0.11267348378896713,1.2265739440917969,0.004326592665165663,0.0333528146147728,-0.47767630219459534,-0.6388419270515442,-0.568074643611908,-0.29403096437454224,-0.16805684566497803,1.454175353050232,2.0149950981140137,0.3357427716255188,-0.11969182640314102,-0.6257516741752625,0.05449459329247475,-0.8118809461593628,0.7950769662857056,-0.6165834665298462,-0.04490836337208748,-0.4297959506511688,0.22520580887794495,-0.04484126344323158,0.21471808850765228,0.13435375690460205,-1.1036981344223022,-1.7422813177108765,1.0487592220306396,-1.1068618297576904,0.09971687197685242,-1.7876323461532593,0.8242761492729187,-1.135017991065979,0.10121067613363266,-0.046227093786001205,-1.2698546648025513,-0.22907350957393646,-0.48976558446884155,-0.5634924173355103,-0.7158150672912598,0.036549217998981476,-0.4799208343029022,1.2774088382720947,0.8915849328041077,-0.13555362820625305,-0.2929631769657135,0.1688305288553238,1.996112585067749,-0.06610003113746643,0.302459180355072,0.09684687852859497,-1.9281247854232788,0.6803162097930908,-0.03282918035984039,-1.6777102947235107,0.6731220483779907,0.033605098724365234,0.9380978941917419,-0.5257874131202698,0.16702137887477875,0.06425248831510544,-2.434518814086914,1.1036521196365356,0.908393144607544,-0.22838276624679565,0.5750293135643005,0.17731666564941406,-2.962367296218872,1.0333365201950073,0.7984884977340698,-0.8675588369369507,0.10663507878780365,-1.0829567909240723,-0.6673547625541687,-0.20432399213314056
31,-0.24185071885585785,0.9051313996315002,-0.2782765030860901,-0.1611153781414032,1.663543701171875,-0.5544776916503906,1.0814017057418823,-1.2087315320968628,-2.193976640701294,-1.5470471382141113,-0.1029098778963089,0.654222309589386,0.4221804738044739,-0.9049146771430969,0.5707836747169495,1.1826040744781494,-1.5482637882232666,0.012075885199010372,1.1820597648620605,1.3245124816894531,-1.0604445934295654,0.17049933969974518,0.2980932593345642,-1.4058732986450195,0.48418596386909485,-1.5989466905593872,0.9119418859481812,0.2266806960105896,-0.19810692965984344,-0.3994162082672119,0.11065708845853806,-1.3640034198760986,0.038497716188430786,-0.410106360912323,-0.28141239285469055,-0.24121595919132233,-0.8211440443992615,-2.7254557609558105,-0.14636926352977753,-0.9958583116531372,-0.34276509284973145,1.0418856143951416,-0.49920400977134705,-0.6468185186386108,0.6947532296180725,-0.7470975518226624,-0.7480504512786865,-2.0785140991210938,0.2865174412727356,-0.10186325013637543,-2.0281994342803955,0.08254794031381607,0.05290276184678078,-0.22104279696941376,-1.4320869445800781,-2.078098773956299,-0.11922537535429001,-0.16181093454360962,-0.7877888679504395,0.0788501426577568,-0.12458107620477676,0.6150891184806824,0.4346815347671509,-0.4563281238079071,0.8856685757637024,-0.06904333829879761,0.4653235673904419,-0.404964417219162,-1.0813020467758179,-0.19998197257518768,-1.438442587852478,-0.5323121547698975,0.41373834013938904,-0.7433555722236633,0.5133249163627625,0.39663174748420715,-0.8171644806861877,0.38327544927597046,-0.21640904247760773,0.30517661571502686,0.8969934582710266,-0.7209650278091431,-1.6426761150360107,1.3305827379226685,0.11952672898769379,0.748985767364502,0.6668533086776733,0.3419196605682373,-0.23279860615730286,-1.1801114082336426,-1.5593668222427368,0.4079655110836029,-0.5400952696800232,1.2263855934143066,0.9870598316192627,-2.291334867477417,-0.6658349633216858,0.6622670888900757,1.0568852424621582,0.7359930276870728,-0.5887655019760132,-0.5493621230125427,0.9808022975921631,-1.3435168266296387,-1.1939926147460938,-1.1918610334396362,0.36468029022216797,-0.23141257464885712,0.35683637857437134,-0.49717703461647034,0.42973342537879944,-1.077388048171997,0.8695025444030762,0.19424080848693848,1.6311018466949463,-1.2588305473327637,-0.5027623772621155,0.3655961751937866,1.7412995100021362,-0.2915976643562317,0.059621263295412064,-0.28966355323791504,-1.3332293033599854
32,0.19129343330860138,-0.837207019329071,-0.6040136814117432,0.5223864316940308,-0.5081566572189331,0.8958703279495239,0.3309888243675232,-0.26037999987602234,2.449842929840088,-0.05584859102964401,0.9480475783348083,-2.757305145263672,-1.397689700126648,0.03643127903342247,-0.3811499774456024,-0.4294763207435608,1.206368088722229,-0.579105794429779,-1.5564398765563965,0.2654646337032318,-0.2765025496482849,1.0444138050079346,-1.3595510721206665,-0.8303090333938599,-0.9703037738800049,1.033225178718567,-0.14205747842788696,0.9357836246490479,0.4342845380306244,1.7188000679016113,1.9143856763839722,0.4541868567466736,-0.3230063021183014,0.7317147254943848,-0.5251339673995972,0.1938079297542572,-0.207212895154953,-0.7129738330841064,-0.1561502069234848,-0.9705168604850769,-0.839441180229187,0.08865130692720413,0.7239711880683899,1.0413663387298584,-0.44659319519996643,0.2697758972644806,1.0343903303146362,0.6479169726371765,-0.42417868971824646,0.6163702011108398,1.3931058645248413,0.071192167699337,0.06870584189891815,0.3648128807544708,-1.7548710107803345,-1.24705171585083,0.43637916445732117,-1.787476658821106,-0.059537023305892944,-1.0227912664413452,0.23011621832847595,-0.8274504542350769,0.7640997171401978,-0.8823851346969604,0.07145928591489792,1.4116228818893433,-0.389315664768219,-0.20030800998210907,-0.6669628620147705,-1.5080397129058838,1.5359766483306885,1.9089261293411255,0.705945611000061,-1.215572714805603,0.3659915328025818,1.080374836921692,-0.18566273152828217,-0.788475513458252,2.174628973007202,-0.9058952927589417,-0.9632458090782166,1.3482310771942139,0.011383761651813984,-1.7385140657424927,-0.3451390266418457,0.04462703689932823,-0.8712740540504456,0.10370561480522156,-0.33497801423072815,-0.018721407279372215,0.3780941963195801,-0.6335046887397766,0.5617480874061584,-0.1915280520915985,0.4442219138145447,-0.9741322994232178,0.6650283336639404,2.3900787830352783,-0.3161601424217224,-0.3923823833465576,1.2971599102020264,-0.27263209223747253,-0.2303181141614914,-0.20265592634677887,-0.8553533554077148,0.28835442662239075,0.8870730996131897,0.13741226494312286,0.2852778434753418,2.650815725326538,2.028672695159912,1.4792921543121338,0.6143510341644287,0.6211482286453247,2.6130170822143555,-2.779574155807495,0.40592196583747864,1.9651312828063965,-0.558617353439331,-0.26338863372802734,-0.6988226175308228,-1.4114307165145874,0.9673534035682678
33,-0.33113956451416016,1.1489014625549316,0.9365370273590088,0.5107804536819458,-1.8750630617141724,0.9634405374526978,0.19884783029556274,-0.2987836003303528,0.501268744468689,0.9830983877182007,-0.8655368685722351,0.09739416092634201,0.4788331687450409,-1.3175177574157715,0.13119003176689148,0.13799446821212769,0.08647488802671432,1.1091680526733398,2.2613396644592285,0.4454278349876404,0.4745749831199646,-0.2988043427467346,-0.5187283158302307,-0.9683049917221069,0.29658183455467224,-0.9195952415466309,-0.8696877956390381,-1.204099178314209,-2.5063586235046387,-0.7051481008529663,-0.956886887550354,1.0906530618667603,-0.7037877440452576,0.9283380508422852,0.5036888718605042,0.7105420827865601,-0.024422720074653625,2.1493303775787354,-1.052105188369751,1.5911192893981934,0.6412991285324097,0.6783233880996704,0.7330427765846252,0.393909752368927,-0.8122879862785339,0.7427353262901306,-1.3600529432296753,1.1262974739074707,-0.7050761580467224,1.115707516670227,0.49851158261299133,0.14340825378894806,0.18943943083286285,1.838623285293579,-0.17978069186210632,-0.8600937724113464,0.49413105845451355,-0.43314582109451294,-0.021740999072790146,-0.2237435132265091,1.7445924282073975,0.7821860313415527,0.29819372296333313,-0.6897421479225159,1.285466194152832,-0.06058405712246895,-0.949004054069519,0.4301642179489136,-0.8410871624946594,0.4051472544670105,-1.0574485063552856,1.2958699464797974,1.672825813293457,-0.5025224089622498,-0.021075012162327766,-0.98931485414505,0.1308417171239853,-0.44702163338661194,-0.9625088572502136,-0.327583909034729,-0.6952812075614929,-0.34302595257759094,0.1578321009874344,0.6459454894065857,0.2123461216688156,0.5770861506462097,0.5754947066307068,-1.44989013671875,-0.1607392430305481,-1.198974847793579,0.10141146928071976,-0.6477304697036743,-1.5405771732330322,0.8949928283691406,0.5145469903945923,-0.45854559540748596,0.39786496758461,-0.6096423268318176,0.06298749148845673,0.6061906218528748,-1.1756514310836792,-1.8950629234313965,1.3244661092758179,-0.6345506906509399,-0.3023589253425598,0.6295628547668457,0.2575955390930176,1.476807951927185,0.39024272561073303,0.3391382694244385,0.09904758632183075,1.0720018148422241,0.8024705052375793,-0.4285525679588318,0.319293737411499,-2.546898603439331,0.5744670033454895,0.932108998298645,0.08596604317426682,-0.4449737071990967,-0.17761197686195374,-0.0075305853970348835,0.9845796823501587
34,-1.4194923639297485,-0.232049360871315,-0.2784281075000763,-1.479061484336853,0.29927805066108704,0.9310972094535828,0.5419317483901978,-0.34619247913360596,-1.4660212993621826,-0.008890441618859768,0.2991902530193329,-2.238252878189087,-0.22748059034347534,-0.5971697568893433,0.6697624325752258,-0.3896113336086273,-0.0031378939747810364,0.5137081742286682,0.1278773993253708,-1.8194735050201416,-0.4135010242462158,1.234592318534851,-0.2205960750579834,0.19914989173412323,-0.7368967533111572,-0.7445259690284729,0.16082079708576202,0.22740809619426727,-1.1391059160232544,-0.1848611682653427,1.1073825359344482,0.6307685375213623,-0.08479365706443787,0.0023589644115418196,-0.35272759199142456,-1.9707095623016357,0.5273274183273315,-0.5679861307144165,-0.8719554543495178,0.6348959803581238,-0.5780868530273438,-0.44392991065979004,0.25543394684791565,0.41253525018692017,0.2704591751098633,-1.26170814037323,-0.20184394717216492,-0.6332746148109436,-0.020388243719935417,-0.6341809034347534,-0.659542441368103,-0.6685558557510376,-1.1840089559555054,0.6968709826469421,-0.5645522475242615,1.1340301036834717,-0.34992706775665283,0.5319110751152039,0.1007135882973671,-1.7029796838760376,0.02500692754983902,0.6223663091659546,-0.7431287169456482,-1.462823748588562,-0.20733220875263214,0.96302330493927,-0.24478201568126678,0.16325998306274414,0.974736213684082,-1.0230307579040527,-0.9791209697723389,-1.8177741765975952,0.5357930660247803,0.805541455745697,-0.8318655490875244,1.960229754447937,0.9228925704956055,-0.2665092647075653,-0.374467134475708,1.4116038084030151,0.8752294778823853,-2.435561418533325,0.24107049405574799,-0.5773870944976807,0.39706331491470337,0.7698831558227539,1.3987202644348145,0.6812765598297119,0.34298354387283325,-0.24729418754577637,0.6151242852210999,0.9260427355766296,0.24025297164916992,0.8845850825309753,0.44806283712387085,-0.6564072966575623,-0.623581051826477,1.332977533340454,0.5568848848342896,-0.10886143893003464,-1.2484943866729736,2.0379459857940674,-1.381568431854248,0.6319647431373596,-0.16630953550338745,-1.4555648565292358,0.8937921524047852,0.24970997869968414,0.5775699615478516,-0.17150220274925232,-2.7039425373077393,-0.350676953792572,-0.4662366211414337,-0.04041115194559097,-1.7496079206466675,-0.033357929438352585,-1.0263727903366089,-1.2286452054977417,-0.11184242367744446,0.029731491580605507,-0.10720597207546234,0.21492722630500793,-1.3436923027038574
35,-0.15673469007015228,0.32195645570755005,-1.803195834159851,1.0719577074050903,0.05441984906792641,-0.9373320937156677,-1.242309808731079,-0.6740214824676514,-0.2527211308479309,0.21206198632717133,-0.1687435507774353,-2.5587635040283203,-0.011442139744758606,-0.6254105567932129,1.3839865922927856,0.6840929985046387,1.3044768571853638,-0.38586899638175964,-1.1652467250823975,0.33628547191619873,-0.04770544543862343,-0.8255496025085449,-0.7773593664169312,0.18228986859321594,0.5004187822341919,0.062207017093896866,-0.5122208595275879,-0.17374849319458008,0.04076637700200081,0.9089765548706055,-0.5046239495277405,-0.9550525546073914,0.35670098662376404,1.332020878791809,0.6788358092308044,-0.2726031243801117,-2.205789089202881,-1.1165754795074463,-0.12222552299499512,-0.731957197189331,-1.2469292879104614,0.6028558611869812,2.0541439056396484,0.17830461263656616,-0.9078777432441711,-2.0919923782348633,0.617747962474823,-2.183584690093994,1.953216314315796,-0.24025698006153107,-1.0040515661239624,-0.4652836322784424,-1.9795774221420288,0.10331609845161438,-1.5197030305862427,-0.5298864841461182,1.0983607769012451,0.33486729860305786,-0.9665364623069763,-0.3948709964752197,1.0757272243499756,-0.0432521216571331,-0.7597769498825073,-2.3158302307128906,1.7615330219268799,-1.111591100692749,0.8549425601959229,-1.8588347434997559,-1.3714200258255005,0.8371996283531189,0.6682272553443909,-0.2673789858818054,-0.6881200075149536,0.01831505075097084,0.12595190107822418,0.6150989532470703,0.611848771572113,-1.888060450553894,0.264802485704422,-0.19222281873226166,-0.2971913516521454,-1.5661656856536865,-0.803284764289856,2.0939791202545166,0.7105042338371277,0.2422621101140976,-0.6193549036979675,0.4994966685771942,-1.83683443069458,0.006794814020395279,-0.9947129487991333,-0.14783504605293274,0.008814211003482342,0.5604530572891235,-1.7650256156921387,-0.9839429259300232,-1.1169686317443848,-0.18488208949565887,-1.4952826499938965,0.22406618297100067,-0.3724461793899536,0.10465846210718155,-2.475841999053955,0.17134474217891693,-0.2360350787639618,-0.4775422215461731,0.8542481064796448,0.4038461148738861,-0.02057098038494587,0.7251977324485779,0.8908490538597107,-0.2294146567583084,-1.7498964071273804,0.28899553418159485,-0.41385096311569214,-1.315575122833252,-0.4296310842037201,-0.12979082763195038,0.3545168936252594,-0.2701423764228821,-0.5631467700004578,0.2977292239665985,0.22341910004615784
36,1.4617860317230225,1.1015735864639282,0.010441108606755733,1.083220362663269,0.3694695830345154,1.186236023902893,-1.5704346895217896,-1.7447564601898193,-1.6208741664886475,-0.11017170548439026,-1.2728631496429443,-0.32335034012794495,0.7831169366836548,-0.3166675567626953,-0.8177523612976074,1.0218547582626343,0.08612837642431259,0.1438669115304947,-1.0828619003295898,-1.1912453174591064,-0.6793334484100342,-0.5344248414039612,1.3099530935287476,-0.15110032260417938,-1.6113934516906738,-1.6340378522872925,-0.1562669426202774,0.3089606463909149,-0.689287006855011,-1.4351017475128174,0.623421311378479,-0.2726287543773651,-0.27815353870391846,-0.35110193490982056,0.3902650475502014,-0.380926251411438,-0.22278399765491486,1.139357328414917,0.13636566698551178,-1.1026294231414795,0.1867341548204422,1.025717854499817,-0.18814648687839508,1.2930022478103638,0.012278485111892223,-0.6765146851539612,-0.019058391451835632,0.6564247012138367,-1.169075846672058,0.37748780846595764,0.2965694069862366,-1.5210646390914917,-0.24293527007102966,0.7047650814056396,0.19952663779258728,0.5543588995933533,-0.5625283718109131,-0.7009152770042419,0.12551625072956085,0.33276480436325073,1.0441049337387085,1.734127402305603,-0.03756576403975487,0.16035397350788116,0.10315203666687012,-0.06474319845438004,-0.5246496796607971,0.48175203800201416,-1.1457439661026,-0.5395811200141907,0.3059691786766052,-2.3313910961151123,1.0912963151931763,-0.07772871106863022,1.9562374353408813,-0.37657395005226135,-0.2121935784816742,-1.949561357498169,1.6003471612930298,-0.014193574897944927,0.2244817465543747,0.06616838276386261,1.1598621606826782,0.4826863706111908,0.6430440545082092,-0.1696965992450714,-0.9944565296173096,-0.5526497960090637,-0.2043098658323288,-0.43524661660194397,-1.1501071453094482,-2.41671085357666,0.3217514157295227,-0.06200982257723808,0.7861374616622925,0.36891821026802063,-0.07171878963708878,0.5993368029594421,-1.2645184993743896,-1.6534005403518677,1.0396620035171509,1.8305838108062744,-0.9821772575378418,1.4758607149124146,0.4397454559803009,0.04996953532099724,0.8729660511016846,-0.42381957173347473,0.7818865180015564,1.286628246307373,1.454983115196228,-1.3344603776931763,-1.7579710483551025,-1.016553521156311,0.802402913570404,0.5840732455253601,-0.7478165030479431,0.1984420120716095,1.8626890182495117,0.5713988542556763,-0.4421875476837158,-0.11991854757070541,-1.0758098363876343
37,-1.0718156099319458,-0.13311196863651276,0.543664813041687,0.354237824678421,-1.204588532447815,0.6476909518241882,-0.52476966381073,-0.9944400787353516,1.390712022781372,0.04958255961537361,-0.006079487502574921,1.2126779556274414,-0.45010656118392944,0.021714074537158012,-1.087889552116394,-0.24481023848056793,-0.3925985097885132,0.8149730563163757,0.23434768617153168,-0.8053622841835022,-0.7487414479255676,-1.9589321613311768,1.4347217082977295,0.33533886075019836,-0.6180608868598938,1.5110548734664917,1.403822660446167,0.02105911821126938,-1.0792194604873657,-0.23377461731433868,0.6452534198760986,-0.4810207486152649,0.428335040807724,1.3252322673797607,1.5380350351333618,-0.8389945030212402,-0.4299009144306183,-0.5995876789093018,-0.7571049332618713,-1.2232478857040405,-0.9391399025917053,-1.1691920757293701,0.43056946992874146,1.5933477878570557,-0.47899025678634644,-0.38619646430015564,-0.36779192090034485,-0.01142472866922617,0.1397695392370224,-0.13947086036205292,-0.24384048581123352,1.3549693822860718,0.9199180006980896,0.07483062148094177,-0.8258715271949768,-0.4480736255645752,-0.9039210677146912,1.0011975765228271,0.9898479580879211,-0.9874313473701477,-0.2628631293773651,0.7178080677986145,-0.048010606318712234,-0.7636059522628784,-0.6893647909164429,0.7987149953842163,1.5407177209854126,1.1354732513427734,0.46843084692955017,-0.9944511651992798,-0.23683977127075195,-0.35379937291145325,-1.1899617910385132,-1.0207552909851074,-0.2621539831161499,0.9001388549804688,-0.5223410129547119,-0.4707748591899872,-1.1353410482406616,-1.7914214134216309,-1.442498803138733,1.5024489164352417,0.04719589278101921,0.3310939073562622,0.8337233662605286,0.8222108483314514,0.06417357921600342,0.5078182220458984,1.2958879470825195,0.5690721273422241,-1.6303253173828125,-2.4343395233154297,-0.0018465727334842086,-2.570359945297241,-0.7400394082069397,-0.7413710951805115,0.5288405418395996,0.8082483410835266,-0.6918703317642212,-1.2642594575881958,-0.6193748712539673,0.9029635787010193,0.5404552221298218,1.1575546264648438,1.9851032495498657,-0.04833708330988884,0.9577004909515381,1.1527613401412964,1.1325994729995728,-0.6613072752952576,1.3275052309036255,0.7884901762008667,0.907168447971344,0.5967656373977661,0.5115036368370056,-0.7386084198951721,1.1441447734832764,0.7586864829063416,1.209425449371338,-1.1696114540100098,-0.028778482228517532,-0.817109227180481,1.0618051290512085
38,-0.06718341261148453,-0.297082781791687,-0.4674018621444702,2.2911083698272705,0.7304536700248718,-0.647058367729187,-0.6585178971290588,-1.5495359897613525,-1.2665523290634155,0.7799431681632996,-0.5826635360717773,-1.2458984851837158,-1.8120372295379639,0.10205767303705215,0.146234393119812,1.1524477005004883,-2.199071168899536,-0.17713633179664612,0.2701856791973114,0.37366631627082825,1.539816975593567,1.2911723852157593,0.6305257081985474,-1.0850825309753418,0.5420488715171814,0.10035128891468048,1.1370205879211426,0.8668176531791687,-0.22956109046936035,0.2186560034751892,0.6572680473327637,-0.8187662959098816,0.7619439363479614,-0.63530433177948,-0.995631217956543,-0.6629165410995483,0.6897882223129272,-0.3020991086959839,1.8266260623931885,0.34127098321914673,-0.8497057557106018,0.11837460845708847,-1.0127694606781006,-0.029685363173484802,-0.7537699937820435,1.3905376195907593,0.49111947417259216,-1.3881056308746338,2.2131714820861816,-1.4665966033935547,0.41885027289390564,0.6185203790664673,-1.3472567796707153,0.4652506113052368,-0.818695068359375,0.870964765548706,-0.451307475566864,-1.4731509685516357,-0.7292531132698059,-0.24011975526809692,-1.1148511171340942,1.8635194301605225,-0.6472759246826172,-0.4284643232822418,-1.357880711555481,1.1971687078475952,-0.6347976922988892,0.3106563091278076,0.2627747058868408,-0.19354210793972015,0.19609835743904114,0.7448268532752991,1.0783483982086182,-1.0096471309661865,0.9910416603088379,-0.9033753871917725,-0.422887921333313,-0.3528141975402832,-0.658321738243103,0.025649551302194595,-1.4181585311889648,0.13157512247562408,1.5180476903915405,-1.7332843542099,0.07100450247526169,-0.0631955936551094,1.151460886001587,-1.8956514596939087,-0.18801893293857574,-0.875934362411499,0.24268844723701477,0.2980676591396332,-0.06435961276292801,-0.9227383136749268,0.01339427474886179,-0.10500174760818481,-0.18181540071964264,-0.5557791590690613,-0.7540645599365234,-0.6049680709838867,-0.3441614508628845,-1.0054514408111572,1.9478002786636353,1.1212975978851318,0.1812291443347931,3.526831865310669,0.3126952648162842,-0.3009239435195923,0.4894706904888153,0.05582983046770096,-0.5109980702400208,0.48934146761894226,0.14863033592700958,-0.7696752548217773,-1.9715907573699951,-0.8833708763122559,1.4871021509170532,0.5549336671829224,1.5965471267700195,-1.603856086730957,0.1590149998664856,-0.816477358341217,-1.653098702430725
39,0.8674675822257996,-0.9290245771408081,0.025719746947288513,0.04272591322660446,-0.027722623199224472,-1.0573711395263672,0.34619423747062683,0.2772964835166931,1.6008048057556152,2.0776853561401367,1.1215028762817383,-0.46117153763771057,0.2584633529186249,-0.8640465140342712,-0.6312909126281738,-2.015449285507202,-1.098479986190796,0.2624026834964752,-0.4110371172428131,1.093154788017273,0.7269282341003418,0.9578321576118469,0.6044698357582092,0.3641042411327362,-0.9091465473175049,0.5176035761833191,0.3941478133201599,0.6472135186195374,-0.29470527172088623,-3.9778683185577393,1.0846890211105347,0.04290778562426567,0.5902084112167358,3.2009658813476562,-0.6211533546447754,-0.71109539270401,-0.49955523014068604,0.16440096497535706,0.5672470927238464,0.39635857939720154,0.34979110956192017,-2.267932415008545,-0.19514469802379608,0.717788815498352,0.47904321551322937,-0.1277293562889099,0.5628463625907898,-1.6743229627609253,0.6658710837364197,-1.8921759128570557,1.0580464601516724,-0.2982487082481384,-0.7811013460159302,-1.321878433227539,0.19671082496643066,0.5065388083457947,0.5297074913978577,-0.653186559677124,-1.9996362924575806,0.1500863879919052,-0.5836837291717529,-0.0031011838000267744,-0.7672219276428223,-0.19026419520378113,-2.2482030391693115,0.9643242955207825,-0.6556757092475891,-0.8379159569740295,-1.2977651357650757,-0.926913321018219,-1.2505329847335815,2.115553379058838,0.02598196268081665,0.709929347038269,-0.07586157321929932,1.1834553480148315,0.2110203206539154,-0.8098541498184204,0.1254868358373642,-0.7963670492172241,-0.4245288074016571,2.1063010692596436,0.9164960980415344,-0.5241785049438477,-0.287325918674469,-2.8174691200256348,1.1097993850708008,-0.7303729057312012,0.9547598361968994,0.7267716526985168,0.18239669501781464,-0.3395208716392517,1.7076374292373657,-2.1893036365509033,-1.2171512842178345,0.22938218712806702,-0.18399487435817719,-0.2248641699552536,-1.9903813600540161,-0.5184780955314636,1.2044646739959717,-0.5572786927223206,0.2891429662704468,1.3697069883346558,-1.2940905094146729,1.0887776613235474,0.254974901676178,0.4478815495967865,0.08448726683855057,1.6275999546051025,-0.4916076958179474,-0.5250071287155151,-0.2201848328113556,-1.587283730506897,-1.6124987602233887,1.363794207572937,-0.909172534942627,-0.3770681917667389,0.7002226114273071,0.5209182500839233,1.1078261137008667,-0.49386104941368103,-0.3887864053249359
40,-0.6697489023208618,0.49907928705215454,-1.915549874305725,-1.8964300155639648,0.7664012312889099,-1.341469645500183,-0.4215199053287506,0.40854358673095703,-0.4907277226448059,1.3168158531188965,0.23777776956558228,0.6351599097251892,0.31593725085258484,-0.6868157982826233,0.5589338541030884,0.9933722019195557,0.10959178954362869,1.6977614164352417,0.6059695482254028,0.35225072503089905,0.8732019662857056,1.751996397972107,-0.006288656033575535,0.3966448903083801,0.9717168807983398,0.39776352047920227,-0.7599856853485107,0.02451416850090027,0.5856314301490784,0.04728996753692627,1.474923849105835,0.42819222807884216,1.0007652044296265,-1.0941566228866577,0.7858710885047913,1.2890288829803467,-0.5203332901000977,-0.7539954781532288,0.5433626174926758,1.0564022064208984,-0.5807017683982849,-0.548679769039154,-0.0263076014816761,-0.261455237865448,0.22725224494934082,0.22292448580265045,-0.43294578790664673,1.5179764032363892,0.5517416596412659,-0.16236279904842377,-0.06446228176355362,-0.7711062431335449,0.7893426418304443,-1.159740924835205,-0.4879089891910553,1.046493649482727,-0.5640643239021301,-0.28999871015548706,-1.4530993700027466,0.6174777150154114,-1.447062611579895,0.2063561975955963,0.24208541214466095,-1.5532684326171875,1.3661115169525146,1.2524349689483643,0.31585052609443665,-1.1818684339523315,-1.2027885913848877,-0.7570540308952332,0.23557020723819733,-0.6909411549568176,-0.3892437815666199,-0.6870661377906799,-0.27014344930648804,0.12807033956050873,-0.2965969443321228,1.0937011241912842,1.0058664083480835,-0.1784450262784958,0.9533741474151611,-0.7590391039848328,-0.6365389823913574,0.400214821100235,1.3036255836486816,1.1968775987625122,-2.065217971801758,-1.0967663526535034,-0.6652817130088806,0.15926091372966766,0.3728640675544739,0.532058835029602,0.8064267039299011,-0.25350049138069153,-1.567060947418213,0.5945703387260437,-0.7289941310882568,2.206467866897583,0.23742076754570007,-0.09801554679870605,-0.4710127115249634,1.0379390716552734,-0.7838347554206848,1.3641760349273682,0.8537223935127258,-0.4055907726287842,-1.0529310703277588,-0.9082788228988647,-0.700791597366333,-0.0018273044843226671,0.5073655843734741,-1.0544427633285522,1.0894757509231567,0.003043453674763441,0.3982064723968506,-1.1495075225830078,1.2654829025268555,1.0967544317245483,0.4257955551147461,-1.894080638885498,0.47573649883270264,0.15752920508384705,-0.4546639919281006
