HU/Var,2010.Census.Population,Population.Estimate..2011,Population.Estimate..2012,Population.Estimate..2013,LACCESS_POP10,PCT_LACCESS_POP10,LACCESS_LOWI10,PCT_LACCESS_LOWI10,LACCESS_HHNV10,PCT_LACCESS_HHNV10,LACCESS_CHILD10,PCT_LACCESS_CHILD10,LACCESS_SENIORS10,PCT_LACCESS_SENIORS10,GROC09,GROCPTH09,SUPERC09,SUPERCPTH09,CONVS09,CONVSPTH09,SPECS09,SPECSPTH09,SNAPS12,SNAPSPTH12,WICS12,PCH_WICS_08_12,WICSPTH08,WICSPTH12,FFR09,FFRPTH09,FSR09,FSRPTH09,PC_FFRSALES07,PC_FFRSALES12,PC_FSRSALES07,PC_FSRSALES12,PCT_SNAP12,PC_SNAPBEN10,SNAP_PART_RATE08,SNAP_PART_RATE13,SNAP_OAPP09,SNAP_CAP09,SNAP_BBCE09,SNAP_REPORTSIMPLE09,PCT_NSLP09,PCT_FREE_LUNCH09,PCT_REDUCED_LUNCH09,PCT_SBP09,PCT_SFSP09,PCT_WIC09,PCT_CACFP09,FDPIR12,FOODINSEC_10_12,VLFOODSEC_10_12,FOODINSEC_CHILD_01_07,FOODINSEC_CHILD_03_11,MILK_PRICE10,SODA_PRICE10,MILK_SODA_PRICE10,DIRSALES_FARMS07,DIRSALES_FARMS12,PCH_DIRSALES_FARMS_07_12,PCT_LOCLFARM07,PCT_LOCLFARM12,FMRKT09,FMRKTPTH09,VEG_FARMS07,VEG_FARMS12,FRESHVEG_FARMS07,FRESHVEG_FARMS12,ORCHARD_FARMS07,ORCHARD_FARMS12,BERRY_FARMS07,BERRY_FARMS12,SLHOUSE07,SLHOUSE12,GHVEG_FARMS07,GHVEG_FARMS12,CSA07,CSA12,AGRITRSM_OPS07,AGRITRSM_OPS12,FARM_TO_SCHOOL09,WIC.participants.FY.2009,WIC.participants.FY.2011,WIC.participants..FY.2012,WIC.participants..FY.2013,National.School.Lunch.Program.participants.FY.2009,National.School.Lunch.Program.participants.FY.2011,National.School.Lunch.Program.participants..FY.2012,National.School.Lunch.Program.participants..FY.2013,School.Breakfast.Program.participants.FY.2009,School.Breakfast.Program.participants.FY.2011,School.Breakfast.Program.participants..FY.2012,School.Breakfast.Program.participants..FY.2013,Child.and.Adult.Care.particpants.FY.2009,Child.and.Adult.Care.particpants.FY.2011,Child.and.Adult.Care.participants..FY.2012,Child.and.Adult.Care.participants..FY.2013,Summer.Food.particpants.FY.2009,Summer.Food.participants.FY.2011,Summer.Food.participants..FY.2012,Summer.Food.participants..FY.2013,State.Population..2009,State.Population..2010,State.Population...2011,State.Population..2012,State.Population...2013,RECFAC09,RECFACPTH09,PCT_NHWHITE10,PCT_NHBLACK10,PCT_HISP10,PCT_NHASIAN10,PCT_NHNA10,PCT_NHPI10,PCT_65OLDER10,PCT_18YOUNGER10,PERPOV10,PERCHLDPOV10,METRO13,POPLOSS10,COUNTY_STATE_RELATIVE_POP_2010
0,1.762849689,-1.015293717,0.568580627,-0.877441525,-0.508502901,0.828125358,-0.233860955,-0.326976061,-0.357793331,0.941626012,-0.578784645,-0.20918113,1.172012568,-0.568542659,-0.992503345,-0.124350637,-1.108648062,0.360914975,0.327314556,1.051745296,-0.473333806,-0.620109439,0.489616394,0.897872746,-1.101556897,1.187977195,1.670772195,1.924437046,-0.558668911,-0.965192378,-1.300511599,0.995111227,0.218818247,1.806239963,0.207517132,0.005092638,-0.235281289,0.606911123,-1.181883812,0.57768774,1.550608993,0.477703333,1.824557781,-0.705498397,2.384713411,-1.286971211,-0.174706832,-1.307902694,0.51510793,1.599426627,-0.752122879,0.273223966,-0.150863633,-0.52549082,1.793309212,0.557676554,-0.650422275,0.524847269,-1.339530945,-0.407016456,0.273897797,1.348266244,0.498182744,0.282011867,0.232660443,-0.924799144,-1.92745316,2.025879383,0.403433919,0.054305647,-2.256082535,1.124175191,-1.081184506,0.749268532,0.763178349,0.933047771,-0.934015572,1.080908537,0.658732653,-0.034434129,-0.597747207,0.674509227,1.148998141,-0.621987879,0.333288312,-0.904681563,1.201015711,-1.246594548,0.126296729,-2.048372746,-0.83317405,1.013486624,-1.530672073,0.478246927,-1.036055923,-0.616840124,-0.117551237,1.121683002,0.164059058,-1.586377382,-0.832100689,-0.915262878,-1.248049855,-2.504624367,-0.675759673,1.241443515,0.077866085,0.089957543,0.492053092,0.785242021,-0.759209335,-0.57574439,-1.250449896,-0.380171686,1.012360811,-1.422182322,-1.612421155,-1.620712399,0.501202524,-0.467575371,0.639936805,0.828463376,0.743353724
1,-3.309993029,-0.671604991,0.488241017,-0.779006481,0.41510126,1.107470274,-0.647831261,-1.285652161,-0.615989029,0.416329712,-0.418830842,0.756381929,2.274487257,-0.14250432,1.20127666,0.36279723,2.11802268,0.694801152,-0.380337417,-0.464939147,0.166229486,0.901382387,1.85916996,-0.32589063,0.301661402,-0.927880287,-0.227275088,0.053467583,-0.144421667,-1.417583704,-0.249526843,0.407298505,-0.939995229,1.327698588,-1.846167445,0.550690234,-1.373396397,-0.167493194,1.563924551,-0.768227518,-0.021730844,0.11826665,0.076610327,0.112629525,0.01836147,-0.084663853,0.488707274,0.192516819,1.848686576,-0.841432989,0.811320007,-0.100228831,-0.455233395,-0.782203078,-0.389905572,1.196914196,-0.129429922,-0.431002676,0.938775539,1.367993951,-1.154833317,0.716862619,-0.124882363,-0.698160529,0.545228779,-0.224032193,-0.781574726,-1.214551806,0.313550532,1.384997964,0.509921491,-0.944103897,0.205644891,-2.122668028,0.972276866,1.806215525,1.18785429,-1.929043412,-0.121545553,1.499797106,-1.639519453,-0.312249571,-0.57173121,0.265982598,0.437368065,0.937390268,-0.985665381,0.409133881,-3.005988121,0.269197285,0.954134047,0.358435392,-1.636016369,0.126671061,-1.088710785,0.871393263,1.300721407,0.359885722,0.784489214,-0.066593327,-1.360311031,-1.680618525,-1.055439711,-0.505020678,-0.3318066,-0.513657749,-0.060032502,-0.640610039,-0.265465915,-1.307459354,0.564196289,1.508037686,-1.008470178,1.959887862,1.024191976,-0.346685112,-0.320666313,0.658791363,0.43371436,-0.177324682,-0.530938983,-0.283306777,3.27455163
2,0.256604671,0.967395902,-0.075056411,0.161828607,0.750015557,1.480868816,-2.149790525,1.603827119,1.226364374,-0.545564413,-0.681822479,1.255537033,-0.140935913,-0.420104325,-0.883089602,-1.279230714,0.873934567,-0.302681357,-0.290816337,-1.026699185,-0.707521021,0.170185357,0.337773591,-0.525150299,0.50957936,0.118809298,-0.944881082,1.985932827,-0.762883782,1.150609732,-0.370757222,-1.093233943,0.524537802,0.573468387,-0.26623717,-0.524080873,-1.799922824,1.176335454,-0.83055377,-0.153164789,0.424836755,0.366710395,-0.078965895,-0.31689164,0.642907619,1.203054667,0.446309626,0.1389153,1.029430389,0.254203141,-1.78144896,0.593876302,0.217510372,0.350851178,0.919124007,-0.831084251,-0.218641773,-0.30396226,-0.434565485,1.268369317,1.53050065,-0.063958675,0.73920393,-0.557998478,0.387384057,1.776603937,-0.752651691,-1.029369593,-0.036588289,-0.09461911,-1.538112164,0.90179497,0.789377749,0.392329097,-0.635211825,1.029676199,1.116629243,-0.327612787,-0.054180037,-2.02315712,-0.327825874,-1.944203019,-0.656995654,-0.414545774,-0.169862449,1.317568421,-0.723957419,0.983536363,-0.48820439,-1.324215412,-1.200868249,1.007998943,-1.198711991,-0.701063216,0.89823091,0.794284225,0.249220267,0.266795784,0.16082561,-2.352588892,0.071069829,-0.019584309,0.637410283,-1.162142992,0.946948826,-0.595380247,-0.426865369,0.413402736,-0.007356135,0.165495828,1.160917163,1.175071716,1.158383846,-0.17642048,-0.540610731,0.276151568,0.313828439,1.001512408,-0.339623749,-0.336957663,0.109863758,-0.101732641,-0.117279775
3,0.127847642,-0.338383704,-1.316365957,0.448046952,1.457457185,0.720448136,0.285243213,1.621705651,1.571433187,0.565579295,0.814655781,-1.010731578,-0.768340051,-2.322473049,-1.234782815,-0.8414644,-0.191416606,1.904025316,0.525781989,-0.314392477,-0.765554905,0.125796616,-0.28781876,-1.815060735,-0.510622025,0.725307524,-0.050137695,-0.691642046,-1.264742494,-0.464944243,-0.843879879,1.199586272,-1.582512736,1.435689092,-1.987860322,-1.276775837,-0.169886842,-0.12616463,-0.12287809,-0.757226527,-0.990509808,0.597089529,0.075211421,0.694164574,-1.661584377,-1.578537107,-1.770173669,-0.736335278,-0.245331898,0.469343334,-0.812682092,-0.023233779,-1.967376828,-0.730315089,0.503412366,0.939515948,0.034985304,-0.38990137,-0.203014329,0.168441921,0.158185005,-0.369616419,-0.382882774,-0.270933568,-0.138007998,-0.24911797,-0.276226997,1.090812922,1.292912841,0.555856466,-0.647263229,0.130434006,1.381170273,-1.023382306,0.234092534,-1.416582942,1.141542673,-0.659431219,1.14680624,1.08E-05,-0.795653582,-0.169226557,1.135389566,-1.343658805,-0.608926892,-0.994227827,0.318214864,0.347402185,-1.362782478,0.397364527,0.181267068,0.547175586,1.829033613,-0.314688176,1.728496313,0.653832734,1.34224546,-0.218677148,-0.855413496,-0.302685231,0.081836425,-1.393516421,1.198513031,-0.379139155,0.865326405,-1.12831068,-0.809218764,-0.481647581,1.107105017,-0.526084304,1.004172683,-1.544824958,-1.906986475,-0.704762518,0.703431845,-0.274686217,-0.543687582,-0.585376918,1.695122719,0.238361597,-0.572723985,-0.386432976,0.192333162
4,-0.04373258,-0.222636089,-1.777643919,-0.349249154,-0.863216937,-1.758793592,2.419088125,1.835471153,1.224938154,-0.825272739,0.25522998,1.039276481,0.195223823,-0.388790607,0.190281928,-0.15598911,0.555797756,1.232775688,-1.018886566,0.239725977,-0.648225307,-2.509827137,-0.234366581,0.010559055,-0.601527572,-0.717880189,-0.996478915,-1.133298755,-1.658107281,-0.672698796,-3.231117725,-0.19863303,-0.439361095,0.267024487,-0.579631388,0.28571552,1.063321829,-0.836212337,-1.046394706,-2.501436949,0.475827038,-0.123333357,-1.687198877,0.203657046,2.232472658,0.22007896,-0.223481551,-2.250731468,-0.282427818,-0.357292086,0.836870611,-0.411290199,-0.612253785,-0.352340758,-0.060635306,-0.778927505,0.735276163,-1.074033022,-1.549718618,-1.313729763,-0.308651477,0.720367312,1.979892492,0.539647281,-0.893500388,-1.699462056,1.255618811,0.962583005,-1.551213264,1.543128371,-0.001146365,1.794311762,-1.018641949,0.896884024,-0.952740908,-0.872275233,-0.119530857,1.578147531,0.943497539,0.39041549,-0.066521361,0.392943442,-1.092126608,-1.868083119,0.505289733,-0.799346328,0.173595071,0.445289284,-0.170453638,1.190586329,-0.718130469,-0.226901978,2.523745298,-1.66003561,0.823516786,0.441208065,-1.877650738,0.303556234,0.07268773,-0.32976675,-0.398525,0.330979794,1.101457,0.84687674,-0.455236077,0.983926177,0.650746882,-1.669414878,-0.919960201,0.730858803,-0.695121586,0.477343202,0.655191839,1.381093264,0.636600256,0.050739255,-0.543765903,0.115345702,0.996497929,-0.836401165,-0.067994155,0.405452281,0.80050838
5,-0.580636561,0.89768064,-0.038458236,0.310580373,0.122290887,0.335666239,-0.832420588,-1.299047947,0.695258737,1.022834897,-0.964178145,0.091527663,0.305117995,1.386220217,0.078000903,-0.361612052,0.475537211,0.330920428,1.496798754,-1.66385448,-0.016813682,-0.417938322,-0.825914025,0.932045579,-0.208299831,-1.21862793,-2.664366484,0.661818624,-0.197044253,-0.479648709,0.630236208,0.054954514,-2.106388569,-2.394614697,0.132061839,0.723807156,-0.073585026,0.061086513,0.228960723,-0.154568672,-0.129210502,-0.176805854,0.230218053,-1.107693195,0.216644436,-1.478934407,-0.225643471,-0.245635748,0.315474451,1.281529784,1.508489728,-0.511903822,1.013044715,-1.812072158,0.421849638,-0.425761312,0.666168988,-1.155873299,-0.024240613,-1.647981763,1.110420585,-1.529374599,-0.563849926,-0.959352136,0.210874289,-1.605813622,2.023790359,1.088253736,0.606635749,-1.717080951,-0.73937577,-0.638151109,-0.554082692,0.357295305,-1.287961841,1.742430329,-1.070337534,-1.250772715,0.748290479,-1.346537828,-0.410153329,-0.973699152,-1.540976286,1.160384893,1.054658175,-0.84389919,1.618557692,-1.517298579,-0.816507876,0.233193487,-0.286951095,0.188345775,0.695801258,0.372153968,0.594033241,0.514508367,1.419936061,0.746694624,0.691494167,-1.224510074,-1.83113122,-0.442628622,-1.164360523,-0.621699333,-0.715888262,0.4252294,-0.534944177,-0.095637374,-1.159853578,-1.506132841,-0.874326229,-0.184212774,-0.963521063,0.322787821,-0.616353869,-0.487652898,-0.768793225,0.920752287,1.306886435,-0.394346267,1.665295959,-0.785319924,0.641246557
6,0.917273402,-0.336713195,-0.552247465,0.638862133,0.235233217,-0.588677406,0.280480742,-0.502355695,-0.0544938,0.061547056,-1.632497311,0.437487811,1.325432777,0.722586393,-0.280834526,-0.368998647,-1.126352787,-0.490146786,0.632313192,0.149181724,-0.553204477,-0.18167986,-0.507507145,1.144911528,1.241157174,-0.834917307,0.856688619,-2.093696594,0.64145118,-1.581646204,2.287179947,0.233821839,-0.293203652,0.212868124,0.237800896,-0.110990852,0.228578493,-0.080177121,0.157867372,1.435446262,0.323614419,1.49763298,-0.974587202,0.415617645,-0.086289071,-0.966576576,-0.085961416,1.67248702,0.023101319,0.548325241,-0.63097924,0.420375943,-0.084129058,-1.315471411,-1.305819631,-0.487299263,-1.633282423,-2.721308708,-0.635167122,-0.906867802,-1.766018391,1.644665718,0.559675217,-1.52424562,0.03425223,0.872078359,0.965213716,-2.061890125,-0.331385374,-1.063970208,0.869013667,3.539160252,0.38054049,-0.387521267,-1.146512747,-2.080576897,0.668155491,0.711246431,0.51245296,0.489328057,-0.33918187,-1.534700871,0.081307814,2.186740875,-0.405996799,-0.34589687,1.464537263,-1.276972413,-0.042982385,-0.784043908,-1.197704673,1.373784065,-0.630788863,-1.099052906,0.793901384,0.857520759,-0.819635212,0.271490693,-0.323772728,0.052721906,1.224718451,-0.325865775,-0.376050532,-0.513519347,1.121186137,1.056564927,-1.014767647,0.397811621,-1.472753644,1.528467894,0.275492907,-0.060870182,0.733823299,0.243808821,0.95391351,-1.051606178,-1.097557902,0.443316728,0.093030885,0.345238149,-0.011967146,1.058125377,-0.161464736
7,0.095741503,0.322926909,1.460355163,-0.386179149,-0.423046023,-0.537033677,-1.32824707,-0.340581119,0.473792434,-1.601313114,0.780975401,0.396962076,-0.572616994,-0.04437501,-0.738907278,0.484660357,0.027985515,-0.103313938,-0.602092505,0.486194998,0.412553579,1.586994052,-0.440047324,-0.642724276,-0.139735594,-0.423046768,-0.720863163,-0.032227196,-0.265092731,0.536092222,1.544953465,0.094017088,-0.578685582,-0.077026889,-1.672395825,-0.058876857,1.007909179,0.155069828,-1.118711948,-0.840445101,0.607885361,-0.018487023,-0.551893055,0.187357411,-0.331255317,-1.082741022,-2.709802628,0.885407448,0.544370651,-0.401415974,0.853878319,-0.218078732,-1.674452543,1.91304636,-0.170724303,0.733364701,1.016820669,-0.489054829,0.822434783,-1.119183779,-0.499152213,0.102986306,-0.181424364,-2.107233524,-2.238542557,-1.393318534,-0.774790883,-1.204681754,1.219020605,-0.94302702,0.839590609,-2.255422115,-0.168660074,-0.910777569,-1.643277884,-0.706288934,-0.970296025,-2.82018733,-1.966182351,-0.244352743,-0.328394115,0.060212292,-1.301149249,-0.426561981,2.916713238,-1.646528125,0.66691035,-1.273237586,-0.397275835,-0.159047946,-0.398924649,0.402536035,0.654235959,0.709600866,0.466503054,-1.484668255,-1.327233195,0.048254758,0.061295111,0.609131217,0.63202107,-0.937336802,-0.567812026,0.263325602,-0.018053781,-0.662463367,0.997508228,-0.207674652,0.412985384,0.000685669,-0.641432464,-1.757431269,0.125582606,-1.953720093,-1.091335893,-0.031619653,-0.913612008,0.55879122,0.028385716,-0.768339097,0.828133702,-0.589800477,0.143863305
8,-0.029868966,-0.560723364,-0.228746653,0.902873218,1.463856697,1.165216327,1.185872555,0.576624751,0.552817404,1.114165664,-0.662425995,0.630598247,-1.075295448,0.674449384,1.923874021,1.160494924,0.450374842,0.715453684,-0.429177135,-1.14556694,-0.682480812,0.879275382,-0.03491563,0.410282671,0.213445678,-0.474157482,-1.026569486,0.216918811,0.616774976,-0.791256368,-0.747552872,1.003054142,-1.578332305,0.774495065,-0.068699218,-0.605458498,1.392440557,0.413339883,-0.231148243,0.500123084,0.342116416,-1.411640763,-0.194551051,1.031962752,0.978596926,-0.742994428,-0.323340088,-0.881219745,-0.1247724,0.87054491,0.560143292,-1.019280672,-0.173219383,0.532515347,0.084363312,-0.484777927,1.407321215,0.495139062,-0.352517575,0.437275618,0.985662043,0.140748277,1.067462325,-0.242375225,-0.135617644,0.02226322,0.865298629,-0.243723333,-0.562642753,-0.730171323,-0.811149359,-0.739976823,2.101026535,0.631330371,-0.49016881,-0.93971163,1.116478086,-0.452978313,1.516996145,-0.891394079,-0.039251938,1.359890699,-0.762912273,0.009546824,-1.23850441,0.640704811,-1.18428719,0.505979717,0.396935731,0.25929597,-0.865363836,0.428108692,-1.410452485,-1.866559267,-0.584163368,0.266836226,-1.0513556,1.706238508,1.345398068,-0.087401487,-0.889230132,0.01769042,0.873798847,0.469952971,0.584652841,1.441280365,1.756249905,0.492263526,0.873175681,0.988438487,0.235929132,0.593380332,2.075500488,0.261196464,0.852343202,0.091498099,-0.950985372,0.561701298,0.058371071,0.722505808,-0.850095093,0.5995996,-0.860894263
9,-0.902535856,-0.772412956,0.858827889,-1.764994383,1.00878346,0.980520129,-1.483228326,-0.392291218,0.854935408,-0.614998937,-0.965860903,0.591548622,0.544996798,-0.629219949,0.351500809,0.093581118,-0.02199153,-0.096287839,-0.154624596,-0.328463167,0.64878726,0.91700834,0.002016154,1.573722005,1.284311771,-0.102561571,0.719902933,-0.72101754,0.71137768,0.357610166,-0.143132284,0.166232318,0.603632092,-0.146203905,0.426794678,-0.907191932,0.368569016,-0.595703125,0.125514805,0.494264215,-1.882761598,-2.568166494,-0.893960416,-0.806653857,-0.214054227,0.09137544,-2.815392971,0.605167031,0.913446903,-0.217357695,-1.253338695,1.356597185,0.3393085,-0.384718388,-0.852316856,-0.318765402,0.902970433,-0.357221633,0.289879531,0.47217074,0.271116018,0.708891571,0.383021832,1.280736923,1.702945232,-0.691293299,-0.153364062,-1.282419324,-0.75949204,0.623627126,0.21997343,0.672305346,0.620462954,0.00658452,0.968548417,1.476406097,-1.482386231,-0.239113986,-1.631649137,0.13407588,0.022699693,0.190255225,-1.929886222,0.170078054,-0.247318655,-0.010163744,1.076440215,-0.869251311,-1.000703692,-0.397611976,1.543656945,-0.536495805,-1.640760064,-0.174396738,1.399899125,0.741643965,-0.471532017,-1.396147132,-0.216828197,-0.713249743,2.695412397,-1.312093139,-0.529125512,-0.656498909,0.337871075,1.454053879,-2.299764395,0.297815681,-0.826284468,-0.044318628,-0.695079863,-0.730135381,-0.759342909,-0.935686827,-1.110204339,-0.348849714,1.218110085,0.974921644,-0.420972824,0.163630083,-1.483647943,-0.515426755,1.012733936
10,1.129763246,-0.028750271,0.356053621,0.284152865,-1.323356152,1.109801412,-2.055550098,0.699843049,0.229815036,1.05425024,-0.88045913,0.009370428,0.522677243,0.46389249,0.490708828,0.514410496,1.954840541,1.503810048,-1.533066869,1.278434038,0.396248132,0.940783799,0.251989812,-0.753762662,0.732531726,1.441322088,-0.491945028,0.69165498,1.025719881,-0.459829181,-1.587694407,0.311052144,1.069950581,0.675881147,2.677946806,-0.730703235,-0.369159549,-1.103544831,-2.316887617,-0.409205854,-0.716921151,-0.908108413,-1.189374924,1.486227036,0.337277025,-1.23934412,-2.662909746,0.052927788,0.252671629,1.102250576,0.511007369,-1.186062336,0.490041196,0.608255863,0.02023772,0.16459468,0.518166244,1.054195523,0.770360291,-1.513995409,-0.340870261,-0.615527272,1.081886292,-0.339288622,0.462977141,-0.871581793,1.740020156,-0.149889037,0.481821477,0.058639973,0.312579334,-0.24869521,1.012598515,-1.929458737,-1.164707303,-1.222042322,0.838879287,1.360897779,0.448154032,0.020177994,-1.135408521,0.265237212,0.396721125,0.874394298,1.563335776,1.83789587,0.36300233,0.239490718,1.220244765,-0.059193023,-1.204260945,-0.267075211,-1.27091074,-1.362377524,-2.695884705,0.895143569,-0.051633023,0.624168098,2.05537653,-0.507754505,0.393476099,-0.570416808,0.371337146,0.046541017,0.937913179,0.91534996,-0.185485274,-1.680538416,-0.827662051,1.513344526,-0.494981289,-0.561417758,-0.478482246,1.331488609,0.506173611,-0.178340733,-0.498158872,0.213463411,1.291772366,1.147636056,0.59611696,0.260138899,0.76190424
11,0.784156561,0.528521359,1.112810493,-0.069461875,0.127531007,0.575644553,-0.295822203,1.00795269,0.540871084,-1.119994402,1.639284015,0.233338445,0.997499704,-1.451306701,-0.605757415,-0.587153792,-0.922813475,-0.54284811,-0.729410052,-0.729963005,0.808554828,-0.726114869,0.221986189,-0.389915287,-1.491988897,0.342122108,-0.282260925,0.211575553,-0.133513287,0.017442631,1.548002481,-0.406052887,-0.966282725,-0.064310059,-2.312946558,1.209041357,-1.345932603,0.095135383,-0.491137028,-1.81221652,0.687292576,-1.521234989,0.183086395,1.041816711,0.588424146,0.862245619,0.497832745,1.142513871,-0.119497307,-0.797927678,0.003700557,-1.131618857,-2.190234661,0.732148468,0.224492073,1.426924109,-0.932898045,0.26637277,-1.360430956,-0.550389826,0.785876393,0.265193045,1.079680085,-1.232390165,-0.310056955,-0.249690086,-1.042283297,0.063459158,-1.376915455,-1.806093693,-0.655022621,0.003648529,1.137849092,-0.204051018,-0.066842206,-2.714084387,-0.916577101,-0.457341731,0.395900756,0.676796436,-0.794799447,-0.70597142,0.280741662,0.160849229,-0.93634665,0.424326688,0.684570372,-1.784923196,0.161233261,1.729097724,-0.099486329,-0.201311424,-0.514785469,0.413623929,-0.299615771,1.681412816,0.717019498,1.832684517,-0.512655497,0.08420036,-0.59421134,0.404872924,1.26199472,-0.545658946,0.335142821,0.417646408,-2.692301989,-2.255070925,-0.003156683,-1.169509053,-1.905720711,0.63661617,0.066778384,0.017406469,0.683239579,-1.065855265,-1.447469711,-1.39423573,1.328058362,-0.328077585,0.668667555,1.040676832,-0.782125294
12,1.193842411,1.178030252,0.656469107,1.060593843,1.592107177,-1.30012536,-0.681749821,0.778175712,1.96812427,1.443459034,-0.887046158,-0.808116198,-0.339120328,-0.294258177,-0.698999703,1.237609744,-1.178032756,0.284592479,-0.842608213,0.841262877,-2.094132423,0.336621791,-1.249785304,-0.70962888,-1.825719118,1.941814661,-0.044385098,-0.155713886,-0.031612739,0.997709632,-0.052769002,-0.840298831,1.179030299,-0.153839365,0.283341408,-0.089342676,-0.183667585,-0.771162152,0.344861686,0.823757887,0.434087545,-1.576505542,1.279592037,2.09467721,-0.566931963,0.125715569,1.46974051,1.092900991,-1.673933148,-0.418738633,1.340931654,0.712821543,-0.823865652,0.270035952,1.252300143,1.379193783,-0.87451005,0.020686399,0.21027182,-0.597183585,1.535050511,0.7455948,-0.38400799,1.669807196,-0.310873508,0.058198426,0.646712601,-0.239162982,1.813727379,2.120867014,-0.059194058,-0.241976157,-0.022030802,-0.645088017,-0.616057754,0.281003714,-2.590779066,0.25311619,0.821042538,-0.000450086,0.693943501,0.310226798,-1.511913538,0.13015759,-0.126091704,1.04041183,-0.829659581,0.573081851,0.016360143,0.842712641,-0.069848917,-1.315780401,-0.272584736,-0.752685487,-2.393103361,1.119606256,-0.1392176,0.820250571,1.739394307,-0.695168972,-1.11149478,0.816322327,1.420561671,-0.600970089,-0.990790069,0.460993886,1.331920862,-0.28678003,-0.319910377,0.69838053,0.392377555,0.134928644,-1.473501205,-1.626243353,0.465651035,0.128972232,1.711647391,-0.211148828,-0.817739129,-0.014688857,0.231147051,-0.033999529,-0.301567495
13,-0.87708956,-1.35203898,-1.690916538,0.656475902,0.482157797,1.238262892,-2.070605278,0.399748743,-1.664699078,-0.479620904,1.880277753,-1.807181001,0.143580183,-0.436191499,-0.246445909,-1.920637608,3.125965118,-1.106437802,1.065157652,0.22875911,0.408956021,-0.656467557,0.608173847,1.50198102,-0.147681639,-1.150138855,-1.348431945,0.685143769,-0.860265493,-0.059369687,-0.179227322,-0.163116381,0.068596557,0.213058248,-0.277547807,-0.307170391,-0.381776214,1.423677564,-0.426930696,0.548172951,-0.60081172,0.427339464,2.585425377,0.022433037,-1.271461368,0.99244231,0.254357338,0.542821884,0.643420279,-0.181862935,-0.831210911,-1.058877587,0.22865805,-2.278683186,-1.016581416,0.776496768,0.776471972,1.123141885,-1.311713934,0.162583262,-0.083279401,0.607625484,-0.782158613,-0.555308998,-0.151836067,1.817957163,-0.080604658,-1.182562232,-0.833015621,0.671614707,-0.519285142,0.829750776,-1.487391353,-0.837398946,-0.795654118,0.189990103,-0.998760045,0.547401965,0.06122702,0.944449782,-1.027852178,0.41848734,-1.099794507,1.022226691,-0.637120068,-0.362766773,0.682018518,-0.854114652,-0.366896123,-0.439329952,-0.477564871,-0.814962626,-0.564128637,0.974133968,-0.85275054,-1.580379009,0.524194002,-0.883632123,1.336441517,-0.137400359,-1.639103889,-0.774726987,-0.3614842,0.510473311,1.603631496,1.824091792,0.010397005,0.355008572,0.518324018,1.337870359,-1.070558667,-1.731885195,-0.40488869,-2.130293131,-2.792720795,-0.815250158,-1.393093944,-1.260311723,1.521581888,1.154614568,0.621022344,-0.888373017,1.355229497
14,-2.070905924,0.323511451,-0.442324996,-0.483414024,0.549204051,0.428628743,1.717826605,-0.031821601,1.056900144,-0.189262852,-2.143980265,1.153406739,-1.383488178,-2.152158737,-0.032981936,-0.991471767,-0.094928883,-0.775010586,0.629663289,0.252849251,2.936896324,0.919790924,-0.877597213,-0.169308752,-0.477646083,0.25361076,-0.925050914,0.33355388,1.224621058,1.415872455,-0.494086623,0.514072776,1.811945081,0.944735348,0.751060843,-0.255520314,-0.476531684,-2.306231499,0.399065465,-0.09510576,-0.831139088,-0.639942169,0.166581213,1.027429223,0.284378529,-0.63571018,-0.094068877,0.002946517,-1.281568408,0.512562871,-0.61973089,1.682263255,0.367232502,-0.977754414,0.724872649,0.074811697,0.710139215,-0.594076931,-0.429243863,0.250453562,-0.745719492,0.905082285,-0.627323985,0.066124044,-0.773564279,0.033769775,-0.291454732,-0.607121408,0.236050203,-0.706856549,0.963482261,-0.408837825,0.243074492,0.610596836,-1.744065285,-0.614329338,2.32531476,0.834095538,-0.449099213,-1.083637476,1.512665868,0.315095842,0.539709866,0.061996173,-0.042568009,0.064624198,0.761086702,-0.010755147,0.055742808,-0.17806609,-1.361220717,-0.40877369,-0.377886593,-0.410494715,0.250424951,0.034442004,-1.66942215,2.296146393,-0.322337449,-0.462012202,-0.127530605,-1.497034073,-0.214566424,-0.121550821,1.409726501,1.442318201,-0.178432643,0.004172625,-0.819007993,0.041176029,1.094521165,1.499240279,-0.129236415,0.257430166,1.973468065,-0.088586137,0.113320142,0.417040586,0.269007891,-0.441328764,-0.047472302,-0.49717626,0.457918465
15,0.623951554,-0.615063846,-0.813478708,0.869106352,0.658976197,-0.194629326,0.330269009,-1.048245549,-0.500668287,-0.261325449,-1.170922279,-0.89331764,-1.086661577,0.647696853,-0.526909769,-0.315943658,-2.248878241,0.038820893,-0.018039908,-0.793728888,-0.075127855,-0.898700833,0.608498693,-1.256468415,0.023280969,0.408114016,-1.278241277,-0.801606357,0.939877689,-0.240190417,1.460300326,-0.864674926,-0.072637148,0.201607704,0.345392197,0.812670052,0.610713124,-1.427413583,-0.72392714,-1.960023284,1.045839429,-0.941149116,-0.466744781,0.039337907,0.380438447,-0.923568845,0.199272797,-0.034929078,-0.017962223,0.371115059,-0.863783479,0.047162507,-0.233263493,2.085067987,-0.36408329,-0.025581717,1.304542303,0.331198752,0.584592819,0.15002127,-0.271159589,-1.115102053,-0.529973507,-1.219581008,-3.181529284,1.138317943,-0.152728468,-0.665646255,1.209066749,0.18337658,-0.6205706,-0.323325038,0.415172368,-0.523834765,-0.119963847,-0.398776919,-0.564950347,0.005618844,-0.776162386,0.954894125,0.574575782,-1.015353799,0.236336485,1.31550312,-0.038369473,0.188433066,0.594719648,0.88637799,-1.206665635,-0.650870502,0.203143239,-0.565815747,-0.062282111,-1.929763794,-0.858663738,0.188570291,-1.087095022,-0.849144697,0.186472222,0.0406694,2.103852987,0.477004737,0.264377892,-0.839740574,-0.287362516,0.370431125,0.491126627,-1.852754593,0.15948467,0.75280112,-2.550501347,0.265664816,-0.608922601,0.703326285,0.369946688,-1.18984127,0.864546001,-0.925286174,-0.913981318,0.779753149,0.600930929,-0.64958775,0.123028427
16,0.41504097,-0.582141638,-0.619006932,-0.960590482,0.682806969,-1.083333611,-0.525932372,-1.013238549,-1.520106792,-0.659028828,0.141571373,-1.561164618,-0.964646578,0.073228583,-0.667844534,-0.829711914,1.704182386,1.071963429,-0.705523491,3.381884098,1.670127273,-0.027599851,-0.695555031,-0.400440246,-0.771508098,0.64600879,-2.113533974,-1.148110271,0.232829019,0.802370131,-0.787520289,0.708203495,-0.410230607,-1.566529751,-0.903229654,-0.895525753,0.215189591,-1.057278275,-0.051840886,-0.010960348,-1.263694406,0.147816986,0.35143882,0.644883096,-1.366731167,0.08924032,-0.329053998,0.696553051,-0.260732204,1.555730104,-1.21416223,-0.598698854,-0.266724467,-0.157491326,0.031838253,-1.111992955,0.620403588,-0.138153687,-0.887227654,-0.257634759,-2.429720163,0.977764547,-1.840634704,-1.732592583,0.434825152,0.821196675,0.012832206,-1.630053401,-1.053628683,-0.018571712,0.147767082,-0.035694432,-0.123574756,-0.743684292,-0.764236033,-1.169246078,0.271392345,1.734488249,-0.179791123,0.476359278,-0.855401874,-1.031998396,0.279512435,0.419516474,0.327016294,0.423700988,1.27062571,0.648031414,0.76633513,0.881741762,-1.004295707,0.314225167,-1.01864922,0.075394794,0.338192582,2.306448936,-0.98583734,-1.059363961,1.736263156,-0.872807145,-0.040280104,0.035642665,-0.485703081,0.250672609,-0.79463017,1.429268122,0.498698354,-0.220297635,-0.82038784,1.904907584,-1.694822907,0.200604215,0.494545519,0.307670563,0.3047387,0.5079422,-1.372847557,0.611157417,0.033632316,-0.156986773,0.471344054,-1.068223119,-1.771256804
17,-0.790269971,-0.42943579,0.947461188,0.989866614,0.804325342,-1.202791333,-1.428498626,1.87717855,0.062751509,1.084693909,-0.057949767,-0.204930261,0.386438489,0.514843643,-0.764655828,-0.318429142,0.848027468,2.227949858,0.214217216,-0.41398409,-0.334989548,0.73866564,0.916913867,0.31405735,-0.184272885,-1.058105707,-0.257365495,0.964921176,-0.114462242,1.148330331,0.634269118,0.273996681,0.853013933,0.17962569,-0.020972099,-0.775203109,1.260634422,1.040118933,0.082154334,0.727836668,1.477972031,-1.984308839,1.12321949,0.807554364,-0.395394266,0.326182455,0.233782992,0.506264389,1.671651483,1.289033532,-1.969990373,1.696371436,0.793250918,0.899379075,0.938263237,0.531913221,-1.081815839,0.951767325,0.536709189,-1.394906402,-0.057918619,1.231722713,-0.026776398,1.473157644,-0.078654774,1.827535391,1.227020502,0.395916462,-1.957338333,0.850258172,-0.063610107,-0.69056195,0.708179832,0.317400575,0.734595776,2.288461447,-0.187177628,0.011530965,-0.115397796,0.178293318,1.270079255,-0.727488101,0.469133735,-0.774656177,0.627692819,0.418993115,0.062541172,-1.321673512,-0.191539451,0.253703415,0.062664285,0.018827833,0.145317107,0.733495951,0.080423467,0.18574585,-0.415364444,-1.328629732,0.339170665,0.141577527,1.799219489,-0.887511849,2.583470345,0.740409911,0.801496267,-0.497693181,1.839585185,-0.143007755,0.814969003,1.732963204,0.763878047,0.080030657,-0.377445012,-1.259943843,1.893457413,-1.264858365,-0.083888598,-1.213798404,0.218127519,-1.16629231,-1.11444509,-0.119706929,-1.074602604
18,-1.160604954,1.645303726,-2.318938017,1.349331856,-0.099408247,-0.152360767,-0.19596079,0.339790404,-0.356915414,0.677270174,-0.723380804,-0.649403512,0.189803571,-2.583131075,-1.206625581,-0.446408391,0.962411284,2.116627216,-1.102193713,-0.005362388,-0.564262509,-1.143493176,-1.089694858,-1.382846475,-0.459456205,0.109080084,-0.381512195,0.104525104,1.199487448,1.063337207,0.438694179,-0.474283993,0.31036815,0.22840108,0.266810596,-0.375201315,-1.829735041,-0.170126915,-0.059553515,0.962500274,0.754828036,-0.097751126,-0.549776256,1.044371605,-0.156168744,3.183295012,0.07975591,-1.675691605,0.937526464,-0.061347991,0.267186433,1.719942451,2.180422306,0.305599093,0.04315263,1.410450339,2.149044275,0.785434723,1.49960196,-1.113782287,0.162164658,1.603714585,-0.804507911,1.226175308,0.624144077,1.603930712,0.010203541,-0.619778454,-0.786141455,-0.19580622,-0.476157069,0.555364609,0.176280409,1.16426003,0.072200067,-0.052476872,0.191447809,0.80977118,-0.911321878,-0.380910963,0.510433614,-1.217304111,0.710122585,-0.007456088,-1.737388015,1.460519314,0.401927948,0.224631518,0.598064244,0.303710938,0.80000931,-0.112771288,-0.163364559,-0.063389242,0.880106986,0.186771482,0.292237014,1.850105762,-0.866653919,1.050696731,0.341464996,-2.185880423,-0.842081964,1.244025946,-0.68477577,-1.285881639,0.767516196,0.569644809,-0.316523045,0.53701663,-1.475901246,1.434052348,1.04562664,0.158249572,0.545544982,-0.973742485,-0.382950544,-0.096366443,0.021950215,0.784084201,1.066776395,-1.138180852,2.205306053
19,0.926992416,-1.526858211,-0.562429607,-0.676979899,-2.267657042,1.031121254,1.980631709,-2.461858273,1.29166913,0.19973439,0.884567797,-0.00914269,0.087491587,-0.531155586,1.535951972,0.166053221,0.118436828,0.186784297,0.167158782,-0.081135891,0.687681556,-0.364467502,-0.21047473,-0.493053794,0.55552572,0.232155889,0.649909198,-0.447764605,-0.347552449,-1.275189281,1.552017212,1.233290911,2.095635891,0.820627987,0.788966238,-0.613856614,-0.650916517,0.691183567,-0.371287704,1.000487447,-0.313355088,1.52858448,-0.130828917,2.249535799,-0.515897453,-0.819312334,0.54711026,0.3579382,0.373192459,-0.371051133,1.461640954,-1.629710674,-0.251896799,1.63456893,-0.72402072,1.849344492,1.480837584,1.241548061,0.004355917,-0.119258747,-0.537407994,-0.478944898,0.312389374,0.849915266,0.316727787,-0.51926142,-0.409634531,-1.395123243,1.245830417,-0.319488078,-0.111851238,0.488266379,-0.85099864,1.87573874,0.617930174,0.315945208,-0.271038264,-0.641556859,-0.972053587,0.070783496,-0.83066386,-0.378527224,0.639237761,0.320928097,1.916469932,-0.547882438,-1.577825189,0.216338798,-1.233652353,-0.821800888,-0.734119236,1.458444357,-0.057218466,1.55080688,-1.10395956,-0.304210186,1.626281857,-0.149320558,-0.966193199,-0.552167594,0.151782855,-0.365963072,1.487621427,-2.516035318,0.587659717,-0.519859493,1.742491841,0.993745446,-1.254002929,-2.09744978,-0.77782619,-0.857601285,0.347203255,0.166662261,1.973466635,-1.118396521,-0.672570944,-0.90498805,-0.958567202,0.013530783,-0.239055574,0.903150022,-1.038368464
20,1.066249013,-0.502029717,1.50143671,0.872346699,-0.323715597,0.525876105,0.008531827,1.514397502,-0.30021745,-0.785883665,1.93221283,0.337881565,-1.954614401,2.128260136,2.047354698,-0.294068426,-0.074619427,0.378234178,0.586394429,-0.150249511,0.390386671,0.282135904,0.596132278,2.059324265,-1.092394352,0.43362692,1.727444291,-0.622496426,0.50655359,0.818572938,0.964565337,-0.326903015,0.132603154,-0.168499872,-1.11014986,0.605478883,0.325730443,1.874910593,-0.938541532,-1.056481838,1.009595037,0.137380108,0.540872455,0.010212169,-0.135698438,0.654255092,-0.732634664,0.750593126,-0.034491539,1.413087964,1.848073602,-0.398919016,-0.216525704,0.944872797,1.408950686,1.474898577,-0.705707312,1.333723307,1.138965011,-1.715369701,1.009513378,0.73112613,1.227196574,0.427377135,-1.275456667,0.168078959,0.711067617,-0.594479144,-0.026183411,0.165520936,0.740729988,-0.149964109,-0.398323625,-1.017104626,0.670458436,2.450035334,-0.538767695,0.303539813,1.057443857,0.729173839,1.445241094,-1.967920303,0.325252801,-0.575703084,-1.100088954,0.684354961,-0.318768233,-0.002004084,1.196402669,-0.862730801,-1.99219358,0.379909575,0.128913552,0.135179356,0.074174061,-0.528977752,1.332338214,-0.197582781,0.062416624,-0.034528382,-2.113775969,1.591446877,-0.916746795,-0.967592657,-0.855012059,0.866065979,0.816459835,0.302565008,1.046522141,0.459983796,0.550062239,0.875226378,-0.111585461,1.078983665,1.893763065,2.038511276,0.62072432,-1.168795466,-2.288461447,-0.435848564,-2.159439325,-0.163628161,-2.093865871
21,1.62002027,-0.65784961,0.574929774,-0.493934602,-0.346222371,0.368910253,-0.219271973,-1.321249247,1.243031979,-0.209960729,-0.003741797,0.296055675,-2.346290827,-0.404409528,-0.855051517,-1.559397101,-1.470364332,-0.479452372,0.646361887,0.387144715,0.508980453,-0.405459136,0.460793674,-1.736288309,-0.571135223,-0.611853659,-1.939826131,-0.418671846,-0.783451915,-0.976917863,-1.449782372,-2.173390865,-2.331077576,0.616549492,1.704780459,0.69434005,1.099639058,0.097503006,-0.778291523,-1.369368076,-0.092657283,0.102750704,-0.189750895,0.36518082,0.047576532,-0.413843155,1.098548055,-0.455955356,-0.391089767,0.410375088,-0.809262991,1.813771486,0.321323335,0.178507939,-0.812248528,-1.087462187,0.455035567,-0.829757333,-1.368301272,-0.040748686,-0.593330801,-0.994464099,0.654319167,0.896281719,-0.41008988,0.474075675,-1.392481565,-1.295484543,-0.296585709,-1.410188794,0.561026812,-0.025027156,-0.297450483,-0.592068613,0.021006908,0.702032506,1.619270921,1.376047015,-0.575935066,0.057129126,-0.205374256,-0.236085743,0.789541066,-0.399108201,0.314907104,0.045757309,-0.537042379,-0.132293552,0.363879025,-0.782350957,-0.936699688,1.902911067,-1.310454607,-0.478164017,-0.319939584,1.119329929,-0.489364952,1.62801826,-0.499872983,-0.409803867,0.097509541,-0.698900938,-0.708351552,-0.975620151,0.046701618,-0.005767681,0.086456351,1.832632899,1.416476488,0.669230878,-1.543223739,-0.089631632,-1.438690782,-0.55710423,0.194784656,-0.034771688,2.144961834,0.265643805,-0.875542343,-1.171865344,1.034335971,-0.31588161,1.616188288
22,-0.38602972,0.836895287,-0.136441007,-0.33746627,0.837415099,0.040796578,1.49824667,-0.67467767,0.071865298,-1.243691444,-0.763236046,0.605972767,-1.028904796,1.577383399,0.782538354,1.747656465,-1.043818951,0.047462128,-0.341587543,0.75923574,0.799929202,-0.876184821,-2.596652985,0.317510962,0.675727427,-0.308673471,-0.759489715,-1.139942646,-0.716894805,-0.027340982,-2.184771061,0.610307395,-0.252267718,0.15431574,-0.381745309,-1.697057962,1.207212567,1.861871123,0.951404333,-0.771561146,-0.533550739,-0.012678471,-0.116199404,-0.117566332,2.182160854,-1.128047466,0.695265353,-1.564123988,1.572260499,-0.166406468,-0.879229665,2.928456545,-1.377061725,-0.788216114,-0.971394181,-0.186726183,-2.373771906,-0.022847524,1.365961909,-0.954520762,-0.932915509,0.259943247,-0.044831958,-1.137156129,1.030977964,-0.695416272,1.509788275,0.363147855,1.21268487,-0.046737228,0.513113379,1.089681268,0.174536109,-1.74007988,0.314546853,-0.617675126,-2.048966885,1.183628678,-0.670569837,0.161549866,0.085833557,-0.830004871,0.426181883,-0.953034997,-0.505493939,1.078778028,-0.76330775,-0.219812021,-0.495683014,0.090695761,-0.266064376,-0.824223518,1.368782759,1.72178483,0.336177558,2.023652077,-0.103716709,0.376031429,-1.464046478,-1.061149478,-0.097513609,-1.108638525,1.221575975,-2.444448233,-0.014460748,0.453918844,0.205415562,-0.273730636,-0.67600739,-1.496024966,1.048724771,1.186656833,2.636750221,0.187988162,-0.213268802,-0.408703238,1.187521696,-0.530369461,0.147270963,-0.60456425,0.361339003,-1.246726274,0.641839564
23,0.11379829,-0.690555573,-1.764229774,-1.127660155,0.613222599,0.380853206,0.197826385,-0.639084816,-0.022555744,-1.378789783,0.761719525,1.097632527,0.845823169,-0.758925676,0.241226643,-0.599157095,-0.591225564,0.130272761,0.21699658,-0.013707661,-0.648244441,0.006957827,-0.540433228,1.874635696,1.163425803,1.591363788,-0.40990448,-0.189125359,0.123202153,-1.983225822,1.074172616,0.836894691,-0.484862268,-0.857433796,-2.263755322,-0.770314813,0.225913063,1.515710115,-1.772569776,-0.307141423,-0.028266614,-0.103110977,0.565116704,-0.198372498,2.237727404,0.637490809,0.982060015,-1.282947779,-0.482003301,1.039835095,-0.854044259,-0.923213303,-0.848492324,0.000467707,-0.732459188,-1.044086933,0.618456602,0.236255884,0.954185665,-2.393046141,1.03644073,-0.666515887,0.512315333,0.630509317,-0.109305128,-1.122707605,-0.564264894,0.388657928,-0.711934209,-0.813191354,-1.531621933,-0.257783324,0.297000676,0.16858089,0.437531769,-1.202773929,-1.584666133,0.3463884,1.780149698,-0.473419517,-0.463481128,-0.397484273,0.690930009,0.229813755,-1.084235191,1.397153616,-0.172039106,0.209547758,-0.430281848,-0.545247674,0.728629529,-0.484945804,-0.498018563,0.771334469,-1.128150344,0.418091267,0.084635966,1.413445234,-0.665020049,-0.553305566,-0.524666011,-0.930226266,-0.768868327,1.109623551,-1.466382384,0.312342942,-0.430748165,0.50681299,-0.093535408,-1.149439812,0.833964169,0.586404622,-0.284769952,-1.011360288,-0.223333418,1.872473121,-1.407797337,-0.182824597,-0.533993363,0.237070873,-0.50389421,0.335795671,1.825442314
24,-0.213246137,-0.678991973,1.204111099,1.840005994,-0.702682555,1.336521506,1.308875799,1.086463928,1.314935803,-0.387200922,0.197383702,-1.357221007,-0.016144304,0.145326048,-0.938590407,0.179552913,0.168106288,-0.56179446,-0.821824968,0.364629537,0.230177879,-0.154510558,-2.511847734,-0.964778066,-0.76724416,0.226553917,0.624208987,-0.510193825,0.304680377,2.627218723,0.677772939,-2.644504309,0.447640628,-0.347438812,0.182572067,-0.156185776,-0.875346482,2.143318415,2.411703587,1.4087677,0.073873959,-1.218997002,0.618264198,0.546834528,1.065917253,1.856832862,-0.298965782,-0.335429817,-0.563031614,2.117330551,-0.645639777,-0.977810383,-0.574169099,-1.652620792,0.320276558,-0.294091195,-1.132776618,0.312841296,1.181514502,-0.750488043,-1.675427675,-0.232505754,1.031452775,0.384831041,-0.110225923,-0.172147214,0.505606294,-1.134904981,-0.378191173,-0.173904091,-0.278026223,-0.999616325,-1.885809422,0.829583347,-0.167446092,2.481524944,-2.606109381,0.075099789,-0.232248619,-0.248779997,0.283314586,2.225123644,0.71693182,0.457855314,-0.291790813,-0.793674231,1.680001736,-0.635393023,-0.935779274,0.342705935,-0.627428949,-1.438588738,-0.228785694,0.026207132,2.722546339,0.392305762,-0.5640288,-1.140503883,-1.056426167,-1.014156699,2.217566252,0.927915514,0.029495608,0.76952821,-0.648021877,-1.572304606,2.248099566,1.219543695,0.166871905,-0.059681118,-0.979712903,0.578219473,0.854213417,1.014732242,-0.236959383,1.084772706,0.950979888,0.571288586,1.170561194,-1.321831703,0.378715962,-0.182620078,-0.207514361
25,1.784361243,0.732759118,-1.577176452,0.604976416,0.398171782,-0.650499582,-0.172318876,0.288089573,-0.499868631,-0.614494026,0.635780275,-1.567327142,-0.156821877,-0.828171074,1.013768554,0.114651918,-0.069469005,-0.654473126,-1.388052464,-0.286881,-0.777429163,-0.22233969,1.098801374,-0.112043381,-1.362043738,0.4435139,0.569409549,-1.283132553,0.201924086,-0.667259157,-0.440332383,0.174961448,-1.628504634,-0.236857846,1.053178072,-0.354840636,-1.886176944,-0.59441185,0.213824555,1.26731813,-0.777677,0.631349742,0.596592486,1.319916248,0.829500496,0.56106168,0.943564534,-0.686512589,2.147701263,0.500639677,-0.265201747,-3.235630989,-0.275274098,-0.089353412,-1.003881097,0.06847389,0.154501528,0.461830854,-0.141136006,0.055846341,0.35014686,0.654475451,-1.017954707,0.695217073,0.378705263,0.239459127,-1.994433761,-0.026417598,0.225933984,0.224600375,0.218006954,1.142455339,0.972519219,-0.212863624,0.484094203,-0.012214451,1.041089654,-2.237684488,-0.430149794,-0.632450223,-0.970459819,-1.260819316,-0.202543229,-1.490806222,1.784220099,0.393087178,1.08042407,-0.636221588,1.147666454,-0.576453209,-0.062403224,-1.132586718,1.018464088,0.147246912,-0.948642313,-0.04637827,-0.591242194,0.622854829,0.176198989,0.182305947,-0.270678669,0.689270496,-0.386244714,1.918101549,-0.319102794,0.246780694,-0.00011649,-1.07919085,0.088416442,-1.701310635,1.784186244,0.590216577,0.673497558,-0.427133411,-0.495211899,2.504637718,0.889187157,0.559721649,-0.613105416,-0.464093089,-0.125391558,-0.61824131,0.318425506
26,-1.229664803,-2.216573477,0.166223496,-0.727449,-0.178150356,-1.926469326,0.679827571,0.863047481,-2.277470827,-0.240653634,1.220994234,-0.549530923,0.357498616,-0.405517757,0.147812933,-0.963526607,-0.03573487,-1.208825946,0.378406227,-1.327238321,0.066942856,0.410687655,-0.681319356,-0.293958992,0.585783601,-0.714316487,1.323622465,0.303440481,0.857379556,0.409563035,0.958148897,-1.974323988,1.757777929,1.929658771,-2.813958883,-0.646432877,-0.291233093,-0.83516705,0.08132869,0.346049607,-0.698847473,0.256291062,0.642865241,0.777956605,-0.65859282,-1.770613313,-0.671038032,0.074809805,0.13148576,-1.013610244,0.279103786,2.072335958,-0.903327942,0.911349177,-0.295537293,0.103518255,-0.642768204,-1.494299889,0.357441872,-0.885382652,-2.135513306,-0.97799623,-1.432380795,-1.738525391,0.37330091,-0.477774411,-0.171542123,2.055389881,-1.244555712,-1.110160947,0.224571139,0.366386503,0.438590318,-0.896257579,0.120845683,-0.727630734,0.901266277,0.040752515,1.234808683,-0.96797806,-1.478022337,-1.33523035,0.177424073,-0.520577312,-0.525436223,0.477800459,0.48277247,0.197286248,0.779106259,-0.948439598,0.092759617,0.126433268,-1.555948257,-0.4180547,0.127780393,-0.054244649,0.341437489,0.714825809,0.535104632,-0.167651206,-0.678448319,-1.965312004,-2.653373957,-0.522282243,1.566318631,0.135821208,1.111570239,0.030402005,0.081294648,-0.983264744,-0.184850797,0.047989246,-0.300741464,0.395213813,-1.0483073,1.660882354,-2.119683981,-0.705110312,0.587905765,-2.077624559,-0.681156993,0.47753343,0.381103814
27,-0.292744547,0.634913146,-0.183340952,-1.443266273,0.328029335,0.605439484,1.194888592,0.638631225,0.545575917,-0.642369092,-0.382420808,0.018932201,-2.32810092,-1.186507225,0.416211009,0.01279861,0.590520144,-1.658475399,-0.588357806,0.112837367,1.147205353,0.364890516,0.808073938,0.774829447,-0.562329531,0.504968584,-1.57212162,0.796990097,-0.188149273,1.495641351,-0.039465979,0.294957936,1.442925811,2.247258186,0.207838029,0.362506807,-0.962600052,1.755650997,-1.20254004,0.513980389,-0.384452671,-0.120159753,-0.569899797,0.429629683,-1.429823875,0.223469466,-0.428416997,-0.291013747,0.471361905,0.667871892,0.079366066,0.24369818,-0.589265943,-2.352564812,0.478217304,-0.241894886,-1.722260118,-0.346203119,1.984814286,-0.166759387,1.300587893,-0.983983994,0.54292506,1.326980591,-1.879602671,-1.036118507,2.435820103,-0.729359031,-0.132080689,0.265501678,-1.689211488,-1.501922011,0.28044495,0.162301764,0.374341995,-1.693091631,-1.077942729,-0.656841934,-1.868621349,0.16703704,-0.978752792,1.078242183,-0.392438114,-0.062553369,-1.510815859,-1.611869812,0.685383856,0.118853033,-0.734999776,0.008323334,-1.901985168,0.456305265,-0.027035246,1.3973943,-0.819912374,0.121829607,0.104012378,-0.344899446,-0.645771861,-0.79830426,0.835823596,-0.419245631,1.702350736,0.806562543,0.156496465,0.497936279,1.605696797,1.317903042,-0.69822675,-0.084663115,2.05133605,0.530823708,-0.262430549,1.115556955,1.059628487,-1.204960465,-1.65790379,1.345760822,-0.499148428,-0.78603518,-0.600446999,0.14457114,-0.458048999
28,0.464536965,-0.608264029,-1.195233464,-0.887723863,-1.330236793,-0.159021258,-1.53271842,-0.548033237,-0.239392236,1.21972549,1.524669647,-1.873651028,-0.835164905,-0.938750744,-0.335427016,0.292089283,0.831106842,0.825097084,-0.893846452,-1.007776737,-1.263454199,1.525837183,-0.173795193,-0.433868587,0.890406609,1.889844537,-2.711915016,-1.666968107,-0.802857041,-2.297866106,-0.712330341,0.930668771,-1.342538834,0.737882197,-0.574438572,0.877739787,-1.083626628,-0.888868749,0.370620728,0.679707706,-2.051368952,3.038278818,-1.420157075,-0.877970815,-1.546527743,1.193276167,1.390909195,-0.965301037,0.869301558,-1.928273201,0.005416751,-1.302257061,0.206920713,-0.523798108,0.065758079,-1.081011176,-1.481004,0.740807712,0.445636988,2.095742226,-1.653228283,0.390321493,1.648323894,1.278733134,-1.237774372,1.224526763,-0.539617419,-0.559220552,-0.149218395,-0.162858352,-0.598850667,-1.39709723,0.457269102,-1.724621654,1.408790469,1.241866827,-0.622241318,-0.631471157,0.365508646,-2.448316097,-0.325642228,-0.26161465,-0.216334894,0.273682684,-0.148473427,-1.924419522,-0.237844482,1.197543263,0.454218745,-0.792158782,0.516642213,0.389180243,0.348531276,1.223283052,0.804064691,-1.231419921,1.067384839,-0.045512568,0.372980684,-0.648474753,-0.151944518,0.85495156,-0.198831141,-0.738848746,-0.596122622,-0.758963704,0.463420838,-1.441145897,0.075110011,-0.202854082,-0.462288946,-0.117665529,-1.047279596,1.351961851,-0.192045644,-1.004827619,1.705590367,-0.700783968,0.052542757,0.638189554,0.655035675,-1.239991426,0.233489066
29,-0.66173768,-0.783867836,-1.599575162,-0.470532507,-0.208896607,0.065102421,-0.457531899,-0.823011041,-0.827731073,-0.047695566,-0.25532186,0.649863005,1.168292522,0.338655442,0.955476403,-0.186842442,0.520454168,1.812620401,1.444621921,-0.806275845,-0.626004994,0.377196848,-0.017708827,0.020978602,-1.852756143,0.728902996,-1.51474154,-1.222796679,0.175577104,-1.070561886,-0.313941002,-1.598110676,-1.397585869,1.060796738,-0.067653447,-0.356153578,-0.565366089,-1.001404524,0.836837411,0.192976475,-0.468485594,-1.061324596,-0.419149697,-0.468691349,-1.68368113,0.941573203,0.063832313,-0.641647935,-0.074222215,-0.345368832,0.023416327,-1.90261209,-0.910945475,1.330426574,0.996366918,0.367834091,-0.680606425,1.056232452,0.337174416,-1.299764752,-0.060025085,0.987277865,-1.826140642,1.393316865,-0.621789098,-0.886463523,0.613875031,0.342673033,-0.574880481,-0.389902771,-2.231766701,0.760486126,0.034758627,0.431797296,-1.706109405,-1.906116486,0.60104686,-0.787038565,-0.572453916,0.882641852,-1.3123914,1.032911658,-0.205269292,-1.091228724,0.513412952,-1.460209131,-0.89458251,0.494904131,0.314002454,-0.805951476,-0.380194724,0.739624798,-0.474547595,0.31783253,0.951357841,1.166253328,-0.451116443,1.642747641,-0.277213603,-0.653235853,-1.21721077,0.103295892,-0.045289967,-1.237834573,0.698113203,1.193777442,-1.786988616,-0.52950412,1.191702127,-1.691148877,-0.067680873,0.367511809,-0.640709877,1.420863628,-1.322447777,-1.040293097,0.091652371,0.573166192,0.144040629,0.979634821,-1.674771667,-0.914349735,0.174687609
30,-0.820977926,-1.102559686,1.049545527,1.156441212,1.052776337,-0.149225608,-0.211913019,0.464949042,0.992546499,-0.616943121,-0.05386854,-0.195762277,-0.37137416,-0.494282365,0.063831866,1.592509866,-0.780647516,0.54435122,1.64420557,-0.04359594,-0.733053625,0.868258178,-0.426349729,-0.811643898,-2.426109791,1.486054301,1.784125805,1.71004498,-2.107792616,1.199955821,-0.004776976,-1.350750208,0.16017805,-0.482081652,0.104656279,0.559808075,-0.46483624,-0.05274618,1.037572742,0.008413458,0.188288033,-0.083932295,0.552902341,0.068005145,-0.512509108,-0.241555259,0.404417515,0.554479957,1.439846396,-0.814623475,0.403069824,-0.353257775,-0.334179729,-0.144321874,-0.495514721,1.957756042,-0.360217273,0.639842987,-0.966185272,1.638685226,-0.229382694,0.451827735,1.316437006,1.376476407,-0.45773077,0.761333764,0.561588228,1.958745956,-0.673754275,-1.207010984,-0.736595035,0.042920209,-1.274679065,-2.660716534,1.355051517,0.487944365,-1.664377689,-0.110850275,-0.707082808,0.224470615,0.237836137,-1.019645333,-0.582217038,-1.941756487,1.43585515,-0.947285652,-1.22505641,-0.438238949,0.556659818,0.383255601,0.628700316,-1.684602499,-1.418201327,0.647413075,1.01075232,-1.032279491,1.106972575,0.46928221,-0.968499005,-1.442434907,0.13799338,0.968918145,0.626896083,0.125419274,0.466403961,0.657258511,0.377989113,1.003745437,0.338364512,-0.84198612,0.100163795,1.177444458,-0.206905738,0.115950249,-1.562172413,-1.940094471,-0.063979216,1.297040105,-0.550348699,0.987846315,0.394981712,-0.825946748,-0.20544216
31,-1.64522779,-0.600772381,-0.76613003,1.099173427,-0.238190666,-2.294620037,0.97516197,-0.160374179,-2.566436529,0.25351283,3.330759287,-0.631956875,0.184359655,-1.044863939,0.622469664,0.50936985,0.222715765,-0.222652912,-1.911831379,0.003869792,0.759741306,1.204822421,-2.353787661,-1.108674884,-0.666277528,0.109310046,0.998461127,1.053170443,0.190387696,-1.892445445,-0.516775072,-0.200320855,0.458136052,0.879613578,1.135720253,-1.492336035,-1.034771681,-0.11712952,0.747625709,-0.480384648,0.679218829,0.122264765,0.060567006,-2.000510216,2.242574692,-0.39465484,-1.291231155,2.641764641,-0.474728525,-0.065158993,-1.42595017,-0.559434116,1.758274436,0.121559806,0.594626188,-0.503613532,0.061461352,0.027867999,-0.719955564,-0.043236982,-1.62294507,0.088028803,-0.087715074,-1.171553016,-0.067256145,0.06807626,-0.055542167,0.048007961,0.22982268,0.694322526,0.493713737,1.645424128,0.265495658,-1.049606681,-0.081898622,-0.520106971,0.737567484,0.519489825,-0.838471651,0.623502433,-0.441716284,0.739798605,-1.223599792,-0.394479603,-1.395112038,1.32679379,0.81052202,-1.189623475,-0.708146513,0.702037752,0.2817837,-2.268823147,-1.163573146,0.846087337,0.801366389,-1.466152668,-0.432694346,-1.489394903,-0.605513394,0.853599787,-2.067098379,0.96763134,0.543412268,-0.347856432,-0.035236761,0.670600414,0.203071728,-1.205762148,-1.379871368,1.277177095,-0.199333146,-0.851691902,0.749941587,-0.011112571,-0.414795488,-0.860236645,-1.777019501,0.748055875,0.159580305,-0.403052419,0.699887514,-0.872868955,-1.781476736
32,-1.521291018,0.11581175,-0.468720108,-0.211837396,0.105091013,0.511167169,0.83029741,-0.769572437,-0.122422926,-0.241530061,-0.405032516,-0.576031566,-0.224821419,-0.079496168,0.7503739,1.151574016,-0.512613058,-0.222292155,-0.597516716,0.206424981,1.317430854,-0.213452786,0.244058326,0.091776155,-1.181793571,1.571610093,3.58351016,-0.270991564,-0.44932273,-1.435212612,-0.953989446,0.338776618,0.362580657,1.637810826,1.285856485,-0.084791273,-1.904941916,-1.365703821,-2.048205137,-0.600210071,1.155527115,-1.044970512,0.762128711,-0.850238621,1.21511209,-0.796048701,-0.013070508,-0.790700734,1.545449495,1.258796811,-0.050063696,-0.290644646,0.255816877,-1.259500027,-0.674253643,-1.695398331,0.170213103,1.053165197,0.66783613,-0.579195201,0.324763775,-1.318062782,1.062182784,-0.012884438,-0.517105222,-0.411393255,-1.044221878,-1.154718399,-1.944026828,-0.943974197,1.17396915,0.65411365,0.078078963,0.58221513,-1.58816731,-0.350659281,1.749401331,-0.047673013,1.227594852,1.365313172,-1.094779611,0.324202925,-0.314159602,-0.661497772,-2.069348812,-0.57309109,-2.941834688,1.30365324,0.942242086,1.186852336,-0.895192862,-0.980279744,-0.658229649,1.30253005,0.248197168,-0.560988963,-0.261083543,-0.826052189,2.131147385,-0.851935506,-0.850521445,-0.417747974,-0.429246962,0.851339698,-0.274124682,0.821725011,0.283816606,-1.049694538,1.246862769,0.324251741,-0.353023112,0.136620149,1.448216319,0.125122517,0.820038676,-0.697210193,-0.005035133,-2.426297665,1.589856744,-1.022329211,-0.441863209,-1.099024415,-1.686408639
33,1.006315351,-0.742563963,1.049831867,-2.274950266,0.313695222,-0.141871363,1.852457762,0.480736673,-0.48613131,1.49562335,-0.234951407,0.606979251,-0.104067199,-0.124674857,0.678645611,-0.902666569,-0.193840638,0.099305555,0.190027401,-0.145314276,0.314764857,0.33426702,1.056562066,0.44469738,-0.749539196,1.112235904,-0.015390935,-0.00713706,-0.220608205,0.92626971,0.41254276,0.380158782,-1.801334977,0.373827249,0.288261265,-1.074789286,0.447072923,-1.10525775,1.630999446,-0.322700649,-0.539946377,-0.170891389,-2.031239271,0.385027647,-2.772200108,-0.011892672,-1.131154299,-2.200649023,-1.361078262,0.08877068,-0.976740301,0.363413393,0.072352983,-0.843039691,-0.037941702,-0.696488619,1.113187313,-1.593391538,-0.925295532,-1.522075772,0.517055809,-0.508913338,-2.147341728,-0.124717832,-0.725246072,0.411670506,1.275675654,0.507548928,0.268237948,0.230115026,-0.896260142,-0.246400967,-0.011790982,-0.353973687,0.229522407,0.420202851,0.58644563,-1.042410254,-0.77711904,2.215147495,-0.389869332,-0.949347734,1.642995358,-1.158809423,1.550960422,-1.972326279,-0.428271294,1.793076515,0.985595763,-0.244749486,0.647085607,-0.805940032,-1.938503504,-0.167855814,0.853087127,0.273758471,-0.914554298,-0.234866843,-0.527957499,0.581812978,0.878117979,-0.991370142,0.259850562,-0.272912681,-0.274474829,-0.478555351,-0.078253821,1.645478725,0.516417563,-0.397373229,0.507503688,0.00645545,-0.821770906,1.505143523,0.15925476,-1.430004001,0.091252185,1.079024076,-1.133773685,1.12392354,0.201931641,-0.660364449,1.129534125
34,-0.532554328,0.331672549,0.001361517,0.704452515,2.144923449,-0.403049052,0.120066412,-0.039988175,-0.223063141,-0.744112253,-0.400260955,-0.118146613,0.285688847,0.613800943,1.862487435,0.590913177,-1.012534976,-0.061988346,-0.030327307,-1.163484335,0.148140624,0.87852037,-1.05155921,-0.726709604,-1.615615487,-1.426731467,0.818110228,0.994853854,-2.143499136,-0.401444107,-0.096406542,0.015975274,0.012963918,-0.227839202,-0.00586124,-0.535356462,-0.234810084,1.198395014,0.933517873,1.82853663,1.488649726,-0.709595084,0.212224916,-0.771341205,-0.376628608,-0.378784269,-0.22854057,0.239207014,-2.067648888,0.339790463,0.479977459,0.0856684,-1.571433783,0.459438115,-1.319908381,-1.181246758,0.296724856,-0.952810466,1.308145761,-1.13586998,1.371358037,1.030376554,-0.602683485,-0.176129118,0.357539207,-0.314410031,0.999823272,-1.10674727,-0.20048885,-1.149457812,0.795517087,-1.008159637,-1.105160475,-1.366073728,-0.756015062,0.108036265,-0.218978852,-2.559548616,0.646858692,-0.720977783,1.00749135,0.787802994,0.018273991,-0.062087439,1.618405223,0.208433822,1.889956832,0.468307197,1.693907619,-3.233080387,-0.480415702,-0.471286654,-0.190310672,-1.962888002,1.02943027,-1.368959308,-1.243255615,1.671211958,-0.513547421,-1.045528531,-1.681750417,2.789288282,-1.247572541,-1.383294225,1.394303918,0.335724622,1.722454667,0.784083068,-0.532245636,1.51251471,0.867459834,-0.841064274,0.322630823,0.407752961,0.531356096,-0.494734257,0.615272641,0.318298757,1.021948457,-1.094889045,1.827388644,-0.621625662,-0.089651115
35,-0.030464696,-1.499614358,-0.287482798,-1.04648447,1.420999169,0.452084631,-0.46953547,1.198009491,-0.228436366,0.401129305,0.069397621,-0.647879124,0.749517679,-1.093213916,0.002256173,-0.814071238,0.013045395,1.82305181,0.491599977,-0.147766665,1.045769215,-0.13069512,-0.044341087,0.599243879,-1.485394597,1.048764944,-0.397435695,-0.407914072,0.90212357,1.740265608,0.464802802,-0.533360004,1.082312226,1.020884514,0.471030623,0.407493085,-0.076125562,0.681966662,0.229579568,0.93051821,0.282963455,1.099521518,-0.537279844,1.660439253,-0.110521398,-0.605818272,1.522677422,-1.087717175,-0.68206954,0.038003307,1.487600207,0.423109591,0.540162623,0.354398221,0.396890253,0.998801947,-0.884221017,1.482558012,0.247478396,-0.014720056,1.266382098,0.384507567,0.992055357,0.281839043,-0.381521165,1.105983138,1.400884271,0.534778476,-0.531572342,0.567183435,-0.947389662,0.692172647,0.537590921,-0.006183137,-0.431008488,-0.202234149,-2.605827093,1.702070951,-0.890955091,-0.235750243,1.149395823,-0.412130982,0.207258835,-0.089718997,-2.107281446,-2.364816189,0.873719752,-0.313328028,-0.723238409,0.862921476,-0.209927961,0.313074827,0.236852303,0.503374934,0.892166376,-2.044937611,-0.282677293,0.260568321,-0.030862873,0.382335097,-0.210610539,2.149878025,-0.543245852,-0.291580856,0.769682348,-0.069955714,1.279013515,0.875618517,-0.778606951,0.552699745,0.528645337,1.563508391,1.52861917,1.199192166,1.191919565,0.14459379,-0.617370307,0.493354648,-0.926699936,0.085223541,-1.626958251,-1.114717126,-1.254340291
36,0.431258142,-0.622546315,-0.781314492,0.124551475,0.128813684,0.511102974,0.20833376,0.815405786,-1.674774885,-1.180244327,0.733925939,1.313414812,0.497848362,0.350377083,-1.264274836,-0.125634357,-0.647380233,-2.590325117,-0.974711359,-0.422367632,-0.676186502,-0.003246867,0.985591054,-0.197389364,1.047274113,-1.302945614,-0.886539638,-0.072101347,-0.91418004,0.472441643,-1.406137228,0.774554551,0.402120143,0.175813153,0.361130923,0.033744287,-0.871222138,-0.713111401,-2.058169603,-2.693546295,-0.110094465,-0.04085546,0.834941983,1.880870223,-0.03421434,0.631644726,-0.353800863,-0.065350093,1.057159901,-0.501210928,0.245091647,0.473229676,-0.879945517,0.119807154,-0.279637992,-1.415511966,-0.810392141,-1.219067574,0.088248096,2.28076005,0.095057383,0.765583992,0.17576921,1.012296677,-1.672822952,1.01741612,-0.168950647,0.690738201,2.094785452,-1.086942315,-0.072942309,-0.623333156,-0.606867969,-0.314604342,0.835672915,-0.314684629,-0.36556977,0.597921014,0.621620834,-2.548024416,0.796948254,-1.661432981,0.184194446,-0.744783819,0.132032186,-1.377895474,-0.212893605,-1.528619409,-0.673195243,0.255450755,0.040936578,-0.609138727,2.394084215,-1.228649259,1.095983028,0.19578512,-0.165869638,0.533272028,2.620235205,0.375308126,0.690515399,-0.541148126,-0.292521596,0.727696776,-0.229291096,1.165194273,-0.368972927,-0.568608701,0.405277014,0.371368051,-0.453915507,-0.003491396,-0.261341333,1.065986037,0.17665498,-0.399640888,1.911036253,-0.490691781,-1.057793975,0.849343121,-0.559051812,0.044837087,3.267271757
37,-1.432375193,1.039074779,1.058233976,-1.788306832,0.062789991,-0.186947078,-0.688833892,0.798343837,0.259241551,0.817171991,-0.294558764,-1.023919106,1.318483949,0.958560109,0.143254414,-3.426495552,0.012105358,1.502453685,2.062850237,1.015178204,-1.238060951,-0.334791362,0.227863967,1.064923763,0.134461671,-1.476380944,-0.336703658,0.452318639,-1.436341882,-0.279316932,-1.194432497,-0.627908289,0.050339717,-0.235991657,0.936444461,0.987248003,0.473417133,0.851051509,1.113875628,-1.466005087,1.002394438,-0.951372445,0.252194822,0.01650379,-0.193899572,-0.409547716,0.090857141,-0.474855185,0.290637851,-0.898142457,-0.730342984,0.357142925,-0.840518177,-1.490780592,1.209755659,-0.514476418,0.470003903,-0.319916755,0.716526508,0.081631169,-1.511689186,-0.733642936,-1.457384109,-0.439418554,1.393161774,-2.055477858,-1.742123365,-0.460530907,0.04455483,-0.574231148,-1.846788287,0.132957235,-0.306663305,-1.990911365,1.104755878,0.454094917,0.243895352,0.083454885,-2.232061386,0.875478506,-2.026342154,-0.941620231,0.733471453,0.912371337,1.324856758,1.079234362,0.156208009,-0.4138062,-1.563336611,-0.294408053,-1.020324469,-0.288755417,0.401297987,0.49262473,-1.109969616,-1.183956981,-0.294381082,0.27992174,0.367078215,-0.321995229,-1.534798622,1.784672499,-1.283415437,-0.328922063,2.887526989,1.0275172,-0.754297078,0.181322753,-0.309005827,-0.454148382,-0.849985838,-0.573886573,1.17529881,0.260790795,-1.796568751,-0.927848995,-0.32111153,0.067744002,-0.700342536,-0.087522879,-1.061796427,0.787653685,0.101841569
38,0.429002076,0.816717803,0.703296602,-0.107414924,-0.724699378,-0.115799569,2.471042633,0.095474206,0.107886888,-0.782825172,0.561993241,0.047486831,-0.064752445,-0.896801233,-1.456625581,1.564046621,0.421913981,-0.740245998,0.388118327,-1.115050912,0.633019507,-0.622013748,-0.020496933,-1.589679837,-0.326767653,-0.299697816,0.452366352,0.555035651,0.167382002,-1.021952271,-2.645321369,1.205174208,-1.727449417,1.452100635,0.229858696,-1.178931236,-0.213557482,0.665834725,0.29699558,0.625987053,0.237118781,-1.226910949,-1.024237394,0.927037835,-0.749746442,-0.465399146,-0.61263597,-1.351627111,0.885206401,-0.470570356,0.332221001,0.681959748,-0.096619524,0.61223042,-0.874499738,-0.027445113,-1.129719019,1.45746088,-0.07247635,0.196988538,0.465019643,-0.780630231,-0.25284797,-1.140907764,-1.101115584,0.033034984,-1.222114205,0.148693606,-0.927311182,-1.690837622,-0.730389118,0.225493208,0.00306425,-1.435489178,-0.840485513,-1.592849731,-0.449288577,-0.305005044,-0.53914845,0.132667363,1.291979671,1.118712783,0.120580338,1.114984274,-0.914759696,0.211105853,0.571526349,0.162100181,-0.746294796,-1.879935622,0.549840987,-0.130417407,1.06512177,-2.892104149,1.009584904,1.592221141,-1.125205994,0.370116115,0.90432471,0.176027223,-0.32114765,0.691261709,-0.675974011,-0.243024394,-0.556093276,-1.786417484,0.022199621,-1.03904748,-0.039312508,0.466146886,-0.717207789,0.236265302,-0.688017488,-0.823016286,-1.449013948,-1.763692856,0.798069894,-1.240733147,-1.197654009,0.575097263,0.562946916,0.143480197,-1.496732831
39,1.301095843,0.343213528,-0.749033749,-0.791150689,-0.603270829,-1.609555721,-1.26023674,-0.030161882,-1.375072241,-1.198321581,0.508128524,-0.339533269,-0.114531033,-0.858481169,-0.941693127,-0.010439579,-0.254192978,0.378756523,0.767445028,0.449450433,0.282675445,0.615854144,-0.615580618,-1.174337268,-1.780593514,-2.096737623,-1.496667027,0.794712424,-0.174756438,2.488562107,-0.688113213,-0.518563688,1.351984024,0.122301504,-0.45032829,-1.25657475,-0.67774564,0.197606832,0.285634041,0.007027637,1.292902589,2.023638487,-2.046988964,-1.098879814,-0.971087098,-0.901869357,0.680286348,-1.579899192,2.213584185,0.468797565,-1.727819204,2.236805916,-0.469176471,-0.431596547,-0.988221288,2.642317295,0.036046926,1.608926058,1.160790563,-1.124366999,-1.317565203,0.184796602,-1.202631235,-0.62233758,-0.509000897,0.007733548,0.453908026,-0.682355881,-0.279998273,1.621039152,0.159435317,-0.631616533,0.249880344,0.969495595,-0.457319826,0.13239871,-0.587599874,0.158693522,-1.118360281,1.497425795,1.128773689,-2.102850199,-0.404905051,0.23050417,1.032155156,-0.364630729,-0.426630586,-0.30294165,0.976833105,-0.516342163,0.598039269,0.000440251,-1.469101548,0.503645837,-1.249294877,-0.491487712,-0.953051209,-0.535655975,0.756015539,0.514572978,0.177306011,-1.935661554,-1.307929993,-0.438448519,-1.430140853,1.37778759,0.043557424,0.194721237,-1.453257322,-1.252387166,-1.004248261,0.289785713,-1.135504246,-0.243630752,-1.007786512,-1.291496873,0.793334246,-0.554899096,0.193934023,0.236597136,-0.202752084,0.213872522,-0.881755412
40,-0.021536175,0.481370866,1.151015282,-0.3410061,0.460736185,0.30141148,0.098302633,0.614825368,-0.136750773,-1.275839925,0.914792657,-1.655208826,-1.333252311,-1.198819876,-1.225114942,1.239356995,0.316483766,-1.359223127,0.857576132,1.017806172,-0.181470066,0.858646631,1.823991418,1.236205339,-0.008459457,0.484217405,0.526343107,-0.696180165,0.006307211,0.647194743,1.083719373,1.000142694,-1.267467856,-0.282574683,0.694200456,0.797916055,-0.449505031,0.325113118,0.613689899,1.209097981,0.002454012,0.284900039,1.187634587,0.521827519,0.805392325,1.189041853,0.738229036,0.489311248,-0.004700728,-0.745527148,0.867610276,-0.528355837,0.570500076,0.742502034,0.209764525,-1.62340343,0.885970175,0.049381375,-0.462992162,1.556600213,-0.857434571,-1.122514963,-0.516289592,0.018079579,-0.561921895,-0.293697715,0.508356571,-0.362677604,2.171729088,3.85680294,1.103942275,0.247578204,-0.24989517,0.858543992,1.364598155,0.016188519,0.119631104,-0.946354985,-0.469415992,1.062262177,-1.096258521,-1.366277695,-0.658458352,-0.251930386,-0.443017274,-0.191544145,0.121909633,-0.488134205,1.687932134,0.024961352,-0.162293613,0.440062374,0.543872118,0.351713359,-0.110140532,0.630140126,0.289880604,0.675117671,-1.140822649,0.334519595,-1.238034844,0.930778146,-0.878922284,-1.426020741,-0.366765767,0.990993321,-0.651272058,0.865759134,-1.298649788,-0.070763417,1.476801276,0.903507292,-0.936037838,0.551983654,-0.757016122,0.122198179,2.126535892,0.648815036,-0.647216082,0.829252183,0.02848395,-0.814791262,-2.000349522
41,1.018835068,0.015791278,1.143911719,-0.484769285,-0.878288507,0.412140816,-0.498542339,-0.658591986,0.786042213,-1.495900154,1.781660557,0.609937251,0.989981115,-1.218057632,-0.677076578,-0.725495756,-0.53479898,1.00927496,0.302242577,0.664863348,1.274631262,-1.457839966,1.272844911,-0.157057166,-0.713574111,-1.399773955,0.055352371,0.507846892,-0.876872599,0.373202831,-0.740224063,-0.686850965,-0.089296341,-0.291106999,-0.273656219,0.384500384,0.447953016,-1.247866273,-1.861981392,0.076912627,-0.452017218,0.617585123,0.67118299,-0.367293179,-0.522596657,2.057557106,1.640971661,-1.607745647,0.602011144,1.407598615,0.470811248,0.240522578,0.357084066,-0.595815837,-0.177531272,-2.160430431,0.839292347,-0.522526622,-0.681933284,2.511805773,0.41208902,-1.499515533,1.115506411,-0.766377568,-1.210184932,1.034143329,0.779370546,0.460798383,0.092769861,0.516986489,0.397587508,0.293030053,0.752425909,1.304395318,-0.006789821,-1.166386843,0.630850673,0.073384233,0.014925822,-2.293941259,-0.613879144,1.079714537,-0.639778256,-0.230783403,-0.197706476,0.68457073,-1.437858343,-0.391716063,0.225819916,1.078678489,1.132452011,0.939325035,-0.476705611,0.510315895,-2.029791355,-0.19263123,-0.698112488,-0.871972024,-3.099998236,-1.435397506,0.723308206,-0.031288669,0.248271704,-1.870658636,-0.584127486,-0.765893161,0.00498635,-1.828954577,-0.175632447,-0.091542818,-0.358186632,1.066122532,0.870522559,0.517840326,0.593237877,0.587401092,-0.735546947,0.202563316,-0.793699563,0.66518569,-0.574600399,-0.627229333,1.842467904
42,-0.490793347,-0.897493124,0.272482693,-0.475170493,0.797533453,1.102068186,2.174934864,-0.767228663,-0.034653313,0.250413746,0.969837606,-0.892017961,-0.577841222,0.216166824,1.274269104,-0.252860427,1.819927573,-0.79390496,2.143770456,2.137971878,1.052547336,-0.221378475,0.095159553,-0.946738482,-0.772934318,1.896962881,-0.11829257,0.347518772,-0.19032073,-2.208127737,0.1413849,0.628329337,1.414206743,0.653744042,1.058378696,-2.592812777,-0.335841209,-0.384200662,-0.602990627,-0.626769006,0.373513073,-0.33832863,-1.029641628,-1.174028635,-0.605902851,0.554628253,-1.008076191,0.798680723,-0.745351672,-0.677388251,0.295941234,0.575499594,-0.001003332,2.472029448,-2.053865194,-0.485347509,-0.189759895,-0.172623888,-0.952373922,0.220736787,-1.098783851,-0.309200376,-0.015988257,0.242525816,-0.895468473,0.690860689,-0.744891822,1.252351761,0.152055025,-1.219019651,-2.033215761,3.829286098,-0.202717483,-0.155572832,0.469908893,0.18012245,-2.148209333,-0.028275575,-0.563201904,0.742465615,0.053965747,-0.313185632,-1.712571502,0.834825695,1.092293978,-0.600410104,-1.702368975,-1.381860733,0.028127884,0.771321774,-0.468608826,0.404075742,-0.623328209,-0.502814114,1.07882309,0.151235774,0.266777664,1.769709229,-0.824120462,-0.639105141,-0.461094916,-0.595725656,0.942246497,-0.076239042,0.4354074,0.800529301,0.672021568,-0.847046316,-0.23414059,-1.407688141,-0.255630344,-0.851758063,-0.428046286,1.62632668,0.023175694,-0.551070094,-0.968987286,-2.123550653,-0.762969792,-0.750653327,0.756035805,-3.349173307,-2.126305103
43,0.167437047,0.07382267,-0.33299762,-0.577760518,-1.169688582,-0.126229048,0.263684094,0.033444867,0.436957091,-1.588309884,-0.228965521,0.962798059,0.778139174,0.536368787,-0.159638256,0.08908651,0.47898072,-0.476649791,-1.109348416,0.087991886,0.165362671,-2.260905743,0.075435258,0.835907876,-0.690731227,0.25179866,-0.598816514,-1.205922723,0.765525997,-1.134967923,-1.228796721,-0.851041853,-1.213938355,-0.056589797,-0.750661552,-0.632455051,-1.085277915,-1.065023303,0.615948439,0.627955794,-0.545236349,0.993123651,-0.106327794,1.198249459,0.218803272,-1.384361148,0.054646961,0.471314251,1.450819373,-0.493674994,-1.043444753,-0.2838687,2.120978117,-0.250700623,-0.79229027,0.100390986,-1.021212578,-1.525543332,-0.034678102,-0.496308237,0.919510961,-0.677052557,-0.082711369,2.55570507,0.045269378,-0.215370908,-0.356461674,-0.368637979,-0.772395909,-0.741315007,-1.051489353,-0.751540184,0.273263842,-0.113982044,1.146521688,0.450893879,-0.490117192,-0.622029722,-0.532885492,-0.733585596,-0.517905056,-1.028961539,-0.000852733,0.950368583,-1.104834199,-0.164365306,0.489384949,0.672118664,0.294917941,-2.314908743,-0.083599478,-0.460659325,0.636393309,1.25717926,-1.188517809,0.283642709,-0.75822711,-1.457902312,1.165024877,-1.587442875,0.989216328,-0.74857831,1.155132771,1.010429263,-1.312106133,-2.509833336,1.922644734,0.525962949,-1.193043351,1.038715005,-0.571317852,-0.424162954,0.15917483,0.62855798,-1.638378501,1.86337018,-0.289210528,0.766604125,0.518646657,-0.284583807,0.094674654,-0.392013699,-2.046660423
44,0.340223551,0.756324828,-0.638800979,0.745150328,0.068503775,-1.879652023,-0.130754009,-0.85246557,-0.230541721,0.579407811,0.058408547,0.090578049,0.959488451,0.615135491,-0.988943875,0.277179599,1.112472296,0.401068419,-1.980115056,-0.555056155,1.751356244,-0.174068227,-1.032347798,-0.505195796,1.068150043,-0.02843944,-0.413593769,-0.474563837,-0.605735898,-0.134995148,-0.736612618,0.929744601,0.847566545,-0.006034707,-0.128058702,-0.625494659,-1.525180817,1.102281332,1.94675529,0.503953218,-0.495438576,-0.635958672,-0.081349164,-2.392435789,1.697427273,-0.695112348,1.156921268,-1.872163773,0.901815832,0.227878407,0.007063547,-0.379222751,0.733377159,0.389027506,-0.635505319,-0.576144755,-1.537857652,-1.340253115,2.589528561,-0.41270417,-1.353274822,-0.856466293,1.379966974,0.234833747,0.5527457,-1.68308413,0.582883954,-0.643625498,-0.464464843,-1.563532352,0.959668696,-0.024547894,-1.832713246,0.614809632,1.605683923,0.411483556,-0.259064704,0.378113508,-0.475486845,-1.19788003,1.161214113,1.699621081,-1.122971058,-0.740573764,1.730991483,0.683585525,-1.283418536,-1.509221911,-0.915527582,0.084770344,-1.392062068,-0.464824915,-0.432199508,0.056356747,-0.154045358,0.200564086,-0.841238916,-0.604829848,0.715580165,1.749294996,-0.586848378,1.055653214,-1.356665492,-1.744102836,1.324584723,-0.679887414,-0.032721337,-0.207681611,1.362920642,-1.993908882,-0.29871577,-0.173521951,-0.331355542,-0.009215325,0.287009835,0.025370644,1.836020708,-0.348172337,-0.990644574,1.247012854,0.045816965,0.263801128,-0.598460674
45,-0.052466542,-0.619284034,0.289577782,-0.857859671,-0.684873819,-0.15466781,-0.330246359,-0.296246588,-0.834602058,0.134932771,1.627572656,-0.628615439,0.226856843,-1.256178856,0.907078564,-0.316253036,-1.457164168,0.550498426,0.23325111,1.545868278,0.608225524,-0.405411124,-1.029438019,2.250641584,0.469529986,0.367405295,-0.914836109,-1.967111588,-1.721066594,1.267852068,1.110204816,0.423137873,-0.775770068,0.153647214,1.160645366,-1.630764008,0.779183388,0.550927937,1.273502946,-0.602089286,0.866163611,0.356392205,0.221563742,1.57388258,0.368344843,-1.087368488,-0.148754507,0.529707551,0.294987738,-1.138093352,2.795244217,-0.067389525,-0.030457094,-0.908720076,-1.578791738,2.072310686,-0.562621236,0.779293537,-0.415263772,-0.843652666,0.297804177,-2.079184771,0.873983681,-0.467088103,-0.310761273,-0.464071512,0.263773978,1.341720462,1.244538188,-1.895330548,-2.529031277,-1.200942039,0.179820299,0.3046,-0.105024271,0.234080374,-0.076449357,-0.49163264,-0.100049399,-0.645864904,-0.078803606,0.365225077,0.901924133,-0.96732825,0.807350218,-0.462087303,1.235239863,0.636915743,0.571106493,0.305809319,0.359624565,-0.873372972,0.953973532,0.070895508,-0.785481274,-0.900804639,-1.044150591,0.619054854,-1.588048935,-0.446354538,3.095055103,-1.591551304,0.690771401,0.227056235,0.175176963,-0.564452946,1.131043792,-1.045590639,0.549421906,-1.129670143,-0.570003629,0.025840184,-1.065872908,0.702402711,-0.349122077,0.840086162,0.322416037,1.090823174,-0.79528743,-0.591621995,0.001759376,0.08141353,0.288394868
46,0.873158455,-0.008630933,1.167157888,-2.081979036,0.708052158,-0.39721787,0.466173381,-0.660741329,1.014678121,0.28042376,0.602940857,0.218477637,0.982012987,-0.327582181,-1.35869348,-0.218231335,-0.548901021,0.602715194,1.165528297,-0.069758125,0.73891288,0.037444122,-1.369858146,-0.811885536,-0.125777841,2.154636383,-0.446303457,1.187145829,0.32671392,-0.008726842,1.944914103,-0.238532767,-0.170228854,-0.209128559,-0.066561133,2.021093369,0.78630954,-1.474096417,0.843183577,2.559954166,-0.294270724,-1.062020898,-1.029349923,0.926585436,-0.349964857,-0.486468315,-0.21668835,0.181273624,1.066794872,-1.171995521,0.718488097,-0.470636249,0.505788207,-0.887440443,1.370788574,-0.026166929,-1.005695105,1.232667089,-0.71945852,-1.336347938,0.311577052,-0.484426528,-0.360006928,0.405283034,0.501726568,-0.109233111,-0.402047426,-0.356535286,-1.04756248,-0.613477468,0.301645756,-1.385663509,-0.668084562,0.029805621,-1.259558201,0.28013894,-1.409551978,0.683547676,0.878883243,-1.140030265,1.317902446,0.522101581,1.142321229,0.831991434,-0.118903838,0.042117845,-0.127970979,1.550906181,0.710274637,-1.271386027,-1.154422402,1.826516032,-0.579626322,0.253763109,0.191361666,0.914284527,-1.397811174,-0.051483408,0.400378942,-0.231684178,1.219218016,1.082381964,0.345233619,0.345408797,-0.671093583,-0.763375998,0.923704684,0.764896631,-1.047947884,-0.580454648,0.225556061,0.279096991,0.723476291,1.623352885,1.411837578,0.789958715,-0.181897968,-0.491251141,-0.969766498,1.468930125,-0.211247519,0.603843212,-0.240984455
47,0.265461028,-0.231191963,0.400904924,-0.432046592,-1.656166673,0.287199646,-0.106186107,0.084050559,0.216270953,-0.353254676,-0.587350845,0.169013798,0.442343414,0.236186236,-1.10668993,0.770950794,1.339181542,0.188409433,1.950107813,1.596657753,-1.076016545,1.378685355,-0.249484271,0.545163691,0.618556738,0.47433126,0.352137446,-0.136078745,0.27172929,-1.149696827,-1.861001611,0.48195979,-0.490108758,0.620199621,0.451468885,-0.734826446,2.134303331,-0.460769773,-0.770005226,-1.175977111,-0.394808859,-1.667779803,1.276469231,1.081539154,-0.123441324,0.21862632,0.355410308,0.33906123,-0.553921282,-2.03299737,-1.363687396,-0.356764793,0.475407213,-0.396324664,-2.251345396,-1.457998037,0.363649249,-1.059822202,1.693763852,-0.148449287,0.017943701,0.394512236,-0.883226097,0.331319392,0.26763919,-0.226767227,0.411958456,-0.814306974,-0.921846926,-0.6569224,0.787520349,0.53324759,-0.314689726,-1.137140751,-0.224336505,-0.884224176,1.846198916,-0.199190989,-0.350755215,0.963147223,-0.753823578,-1.348137856,-0.41448316,0.6468786,1.273701668,-0.038704265,-1.227259994,0.536549449,0.317544073,-0.562675178,-1.929220438,0.090192102,1.819212556,0.149002939,-0.259728253,0.182597786,0.488483608,2.200175285,1.075860262,0.936482131,-0.535822809,-0.867521644,-0.308110714,0.25432229,-0.112878129,-1.187819958,-0.951509476,1.709643841,-0.902565122,-0.171035931,0.12741901,-1.323968887,-0.257275462,-0.07232789,-0.866975129,0.401973873,-0.756119013,-1.893212676,1.941760182,-0.92763865,-0.227656603,-0.625799716,-2.399899244
48,0.229777187,-1.764472961,-0.421410441,0.18497467,0.670823932,-1.159748197,-0.536352158,-0.355083406,-1.636816621,-0.360917747,0.34886235,-0.570249081,0.007393822,0.060404848,-0.022741968,-0.096267283,0.51498574,0.162907481,0.324318022,-0.530095339,-0.826599479,0.068060733,-0.068343237,0.3017492,0.212755919,-0.593641162,-0.293475181,0.725607097,0.076889604,0.279420614,-0.462326676,-0.032997608,0.734733999,0.320653319,-1.144799948,-0.517295778,1.12675643,-0.049822874,-0.812822878,-0.171325311,-0.776213706,-1.304560542,1.196294069,-1.689727306,-0.50909853,0.433466345,-2.361470938,-1.014757156,-0.815306246,1.311576009,-2.445663214,-0.379164845,0.585595846,-0.339910835,-0.884980261,0.433210909,-0.199701801,0.513820112,0.390383363,0.378177941,0.988301039,-1.349398017,-0.378987968,1.122728944,-0.774195254,-1.805915594,-0.169719324,-0.177163348,-0.156862795,-0.106296211,-1.596286178,0.869394898,0.768348992,-0.810360134,-0.501613677,-0.033238098,0.468101054,0.722280145,0.020336598,-0.840611398,0.135691389,-1.569764137,0.566436827,-0.258513749,-1.079206824,1.203562737,1.982012153,-0.78916955,0.638942182,-0.860235453,1.54762733,-0.202048838,-0.054124519,-0.657174647,0.579361796,0.310145468,-0.469195724,-0.743448138,-0.192546055,0.522616863,0.299242049,-1.378014684,-0.024578352,0.374814987,-1.401200175,0.137882531,0.72465992,0.031915125,-1.215084553,-0.073308975,-0.854525208,-0.56792891,-0.192126364,-0.575336218,1.45473814,0.052183799,1.177305698,-1.264313698,0.0786433,-1.199567795,-1.001005173,-0.041462537,0.823239148
49,-1.563631296,-1.135091186,1.315473795,-0.462439626,-0.13509655,-0.758324146,-0.120900586,-1.082910299,-2.613888741,-0.398837447,-0.920524657,1.099356413,-0.296420962,-2.561371565,0.578464746,-0.725481391,-1.639838099,-1.349766612,0.43230474,-0.241883606,-1.652378201,1.010310292,0.602505207,1.220448494,-1.679024339,-0.455551922,0.197149277,-1.054272413,-0.170887589,0.230650842,-1.85425365,1.272905707,-0.950750589,1.626639724,-0.827371478,-1.236947775,0.346486807,0.579091609,-1.341914296,1.311351299,0.603268981,-1.567638993,-0.595059752,0.874902546,2.169045448,0.372947097,0.092923336,-1.062262893,-1.192003369,1.037764668,1.187121153,-0.277438492,0.780840576,-0.002100049,-0.004892505,-0.030817768,-0.463084579,0.277675688,-0.356161922,0.618760288,0.490073949,1.288666487,-0.5665797,-0.087071493,-1.740739346,0.183987781,-0.683702528,-0.284192592,0.652628422,0.124284133,0.132563308,0.198926136,-2.046746254,-1.392388344,1.101674795,-0.811739028,-1.709892392,-0.323576123,-0.322566301,-1.509680748,-0.410889059,-1.203110814,-0.846102536,0.723590195,-1.185296774,0.109739192,0.347910911,-0.501643777,-0.882151604,-1.295581341,-1.008493543,-0.621674955,-0.245410591,0.258794457,-0.354821414,-0.867386341,-0.488360971,-0.822675645,0.193553865,-1.175215006,-0.794939935,0.671851516,-1.16242981,0.03419219,-0.600880086,-0.236355513,-0.296134472,0.011065345,1.219326138,0.006424811,-0.359668434,-0.947173059,-1.513852,-0.406007856,0.420992523,-0.893239081,-0.722551644,-0.030461416,-0.204554155,-2.132993698,-1.140155792,-0.665155411,-0.920583308
50,-0.685540855,1.231812239,1.757967949,0.421178311,0.498609483,0.79271841,-1.083685875,-1.05569911,-1.200346112,0.095757782,0.695089936,-0.68367213,-1.583097816,0.235118538,-0.736415863,1.496610403,1.046560764,0.607844651,-0.397209078,0.361709327,0.170359313,-1.645338058,3.000441313,-0.42504862,0.929443002,-0.064821057,1.025465608,-0.465369612,-2.017199755,-0.428021044,-0.807531059,0.107805632,0.57151711,-1.573412538,-0.193150863,-1.088891387,-0.856337726,-0.744328737,-1.44354856,-2.375346422,0.597103238,0.229304627,0.313216209,-0.10186407,1.359194756,1.356129766,-0.175154746,-0.150168955,2.068392277,-0.35371837,0.074757896,-0.681766689,-1.061726213,1.290698171,-0.902446449,-0.631593466,1.076740861,0.7174142,0.666220725,-1.180939913,0.980555832,1.238756895,0.002289831,0.268229902,-0.473087192,1.049810052,0.664172053,0.228039756,-1.58174026,1.078688741,-2.73088789,2.097620249,-1.506430626,-0.233315632,0.745299041,-0.379923612,-0.179088563,0.887398303,0.100440659,-0.469667733,0.127833992,-0.311019927,-0.231993675,-0.714018643,-0.899099708,-0.089918688,-0.05140065,-0.333446324,-0.096410863,-1.259384751,2.052375793,-0.869278312,-1.265071511,0.06402985,-0.155240789,0.313995242,-0.01815494,0.75482434,-0.73129636,0.39160338,0.324573427,-1.061998248,-0.173088744,-1.376482129,1.326867342,-0.194245383,0.796936512,0.854549229,-1.50011158,0.24789758,-2.033867598,1.882079005,-0.011008074,-0.048168495,-1.304436684,0.235142455,0.494508326,-1.124069214,-1.8099792,-0.186325192,-0.856713355,0.155613422,-0.543088734
51,-0.908675194,-0.381505787,-1.725221038,0.924856722,-0.392563581,0.70453316,0.364489436,-0.737272918,-1.509388924,-0.938025296,2.867223263,-0.563544869,-0.282155216,-0.022837793,0.804100573,0.37720567,0.656167567,-0.27990365,-0.103404179,-0.06404601,-0.752673507,2.048936129,-0.263061672,-0.036143582,0.303195655,-0.007674412,-0.425322294,0.280779153,-0.02754323,-1.731505156,0.673562288,1.834550738,-1.025333643,1.329761982,2.139156818,0.903346598,-0.37771076,-0.006194858,0.137678504,0.439250529,0.018447658,-0.062506631,0.305218518,0.558588803,0.525733948,-1.273385048,1.731472731,-0.176921293,0.480074108,-0.525710166,1.929568768,-0.917438447,-0.128184184,0.207329482,-0.234431565,0.883559704,0.616532743,1.269013882,-0.8210904,-1.608618855,0.111992717,1.411791682,0.831463754,-0.756525159,-0.022432141,2.396861076,0.593371689,0.974105895,-0.381064564,1.578037739,-0.038062066,-1.903486371,0.174337551,0.058409076,1.593055129,-0.18799518,0.716079473,1.580500245,-1.882706285,0.485601276,-2.587174177,1.680550814,1.086787462,0.988274336,-0.493639112,0.201254979,0.891970158,1.270327449,0.099325798,-0.864880025,-1.206119895,-0.427232116,-1.744709015,2.46563983,0.244139701,0.025882954,-0.00751087,1.365375876,0.068817064,-2.045126438,0.067660801,-0.190524727,-0.025860755,1.799969912,0.96333909,-0.853204608,-0.744103312,-0.128768399,1.003775477,0.834908903,0.75874877,0.092269555,-0.5691818,0.033426024,0.615003943,0.391676992,-1.579215884,-0.406452805,-0.540013671,1.275561213,1.732581854,-0.311670154,-0.261561632
52,0.47255832,0.198850781,0.611796796,1.346132755,-2.078544617,0.519078791,-0.489943117,-1.693993092,-0.050133582,-0.494395763,0.638639867,0.340093195,-0.310027987,3.364879608,1.513489485,-0.876444638,-0.030084295,-0.964933157,-0.171330437,-0.449717075,0.508753121,1.280841947,1.160754919,1.133594632,-2.38561511,-0.879913151,0.652408123,-0.600282371,1.270410657,0.918938875,0.039141234,0.66512537,-0.703048587,-0.639231443,-0.627304077,-2.264143705,0.23387444,-0.181770608,-0.966980696,1.013772607,-0.131842077,1.189708114,-0.035607655,-1.016970396,1.99445343,-0.899814546,-0.823860049,-1.579568028,0.125325456,0.243358344,-1.410060287,0.481805414,-0.963839531,-0.973781586,0.245466918,-1.63412714,-0.953110516,1.590987206,-0.204538092,0.201941222,0.512767971,-0.989662647,0.733196437,-2.160576344,1.45072329,0.839434266,-0.695669293,0.22356832,-0.096010707,-1.511396527,-0.891593099,-1.879701018,1.242486358,0.934002757,0.144313872,-0.865677893,-1.330997229,0.187048376,0.086168118,-0.948663771,-0.275428057,-0.09373866,-0.637490928,-0.894388199,-0.537415743,-1.907646418,-0.801556766,-0.296878546,-0.500710785,-0.920684397,0.034748822,-0.568422139,0.323488712,-0.428240925,0.285817474,-1.071856618,-0.814146161,-0.019449731,1.088118553,2.015920162,-0.924675465,-0.297930449,-0.31769079,1.45693326,-0.509261549,-1.002280951,0.931137025,-0.855398595,1.870097876,-0.575542927,-0.35159269,1.162409067,0.902938426,-1.390577674,-0.170807421,-0.239504889,0.295141995,1.147420406,-0.131812438,0.234906673,-0.523697138,0.200659841,2.059393883
53,-0.890829027,0.925911605,-0.913756311,1.38425529,0.933302581,-1.299521565,-0.319939584,-1.183035135,0.286951363,0.189651445,0.814175069,0.908517838,-0.073126718,-0.765277624,2.271875381,-0.808318794,0.908909678,-0.314777315,-0.721467376,-0.296773851,-0.32559678,0.142644763,0.100993581,0.915321112,-0.269262552,0.906992614,0.982265174,-0.442409068,-0.802339613,-1.340841889,-0.854436457,-0.90551126,-0.462411195,0.432582319,-0.168415353,-0.799223959,-0.486091882,-1.482149005,1.204236746,-0.384450942,1.398977041,-0.69389838,-0.131197602,-0.604630351,-0.639833033,1.432259679,1.05677259,0.35605371,-1.462947249,-1.72331202,0.066499136,0.067589536,0.929773033,0.733002186,2.308091164,-0.591124177,0.757258117,-1.931105614,0.43762055,-0.110858664,-0.69719249,0.880867898,1.12487638,0.589830101,-0.287121117,0.585222542,-1.129915476,0.134046286,1.690595627,1.590459228,-0.138739064,0.346143037,1.576230049,0.319999307,-0.92260915,0.441199988,0.212519482,-1.279154301,0.220168903,2.233279228,0.198551208,-0.991178215,0.005656006,-2.680540085,-1.841818213,-2.331955194,-0.031170854,-0.941873193,-2.400671959,-0.165376708,0.525121033,-0.49825564,-1.639029622,0.04449923,0.63732034,0.590129137,-0.071900792,-0.803193033,-0.2747522,-0.663194954,-1.409602165,-0.602524161,0.325844049,-0.407793462,-0.072709046,0.407655329,0.1297784,0.392486215,-1.748080373,-2.427412748,0.289405137,-0.675495088,-0.452585101,0.342998475,0.422658354,-0.187216192,-1.455697775,-0.756273568,0.447467208,-0.339475363,-0.668559313,-2.155800581,0.220613673
54,0.491185069,-0.359615088,0.935842812,-0.672535956,0.575117111,0.13733837,1.883105516,1.138662338,-0.426599115,1.305458784,0.185125127,-0.415813982,-0.50517875,-1.36030817,-0.650547683,-0.693071723,0.706371605,-2.139175177,1.287760735,-0.497410655,-0.406014115,-1.131762981,0.119810514,-0.436338603,-1.176433325,0.125562549,0.03367655,-0.81379348,-0.801303566,1.131981373,0.487486959,-1.123977542,-1.47252965,-0.076825432,-2.116714001,-3.644680262,0.302579761,1.939622998,-0.747480214,-1.559957385,-0.425044149,0.077697694,-0.363564104,0.092056483,2.243998528,-0.5119313,-0.114715144,1.93194747,-0.89650929,-0.077206694,-0.214239016,0.930937707,0.128669634,-2.257881403,-0.44400543,-0.366521388,0.068525575,-0.770379841,0.064517915,-0.874503374,-2.708365202,-0.322167009,-0.665627539,-2.260249376,0.054239243,-0.890857399,1.469192624,0.503231287,2.123697758,0.463534415,-0.163105369,-0.548039079,0.032243174,0.027406288,-1.342919946,-0.863871872,0.067127444,0.849397719,-1.281697273,1.451181412,0.238090605,-0.711039305,0.137162939,1.182254195,0.10766717,-0.973101318,-0.423435301,-1.370274305,0.902524829,0.918047667,0.327180773,-1.372479558,-0.382366717,-1.209284782,-0.591696858,-0.389154643,-0.529856563,-0.982714295,-0.392582744,-0.796358466,-0.123513304,-0.772428215,0.736825407,-0.736747146,-0.560903013,0.028817562,-1.40401113,-0.812695444,-1.094431758,0.175425142,1.33016789,-0.002476861,-1.035063148,0.202025935,1.3843925,0.345867306,-1.092243791,0.006134296,1.449313045,0.25970909,0.220893264,-0.416852444,-0.332413852
55,0.680678725,0.119824961,1.756308198,0.194226772,0.918819726,2.291584253,0.453066111,0.270108998,-0.996045589,0.618345439,-1.032640934,-1.586539745,-1.181959629,0.364321619,-0.424590528,0.477311313,0.879068375,-0.54667908,-1.671393752,-1.297537446,0.254796386,1.034979939,0.83957088,-0.398137271,1.323909044,0.396144331,1.355045199,0.566690087,-0.836484909,0.159332797,-0.510804713,1.74860394,-0.299259424,1.450792074,0.115372397,0.691802621,-0.003471148,-1.22994864,1.399842143,-0.578241825,-0.844200075,0.870058417,0.202728897,-0.259400338,1.076420665,0.475986332,2.108665943,0.701231062,1.933090329,0.293534428,0.524272799,-1.385109663,-1.267423868,0.604589164,-0.623515606,-0.653722346,1.271279573,0.990901053,2.257764101,1.210969448,0.631376565,-0.357197881,-1.39706254,1.590369225,-1.543215036,1.521247387,0.103565507,-1.07625258,0.228724882,0.283973247,-0.353188246,-0.946198106,0.083249874,-0.651719451,-0.298867434,-0.349002093,-0.010143653,-0.543667436,-0.214547887,-0.6206761,-0.78290844,0.369187564,0.918530405,1.545556545,-1.250063181,-1.186656475,0.446015954,-1.202507973,1.33270061,0.26579079,1.945874095,-1.439363241,0.581556499,1.002055287,0.706595421,0.830000043,-1.003706574,-0.545147479,-0.449997634,-1.278299928,0.904089272,-0.199541971,-0.143262804,1.029584885,-0.628675342,-0.18611446,1.37665534,-0.068769246,-0.340829998,-1.037155867,1.777359962,-0.222135246,-0.095260702,1.0248667,1.773228765,0.009889181,1.455139995,0.546133697,-2.041208982,0.467859507,1.465759754,0.375796676,-1.661734104
56,1.114208698,0.843121827,1.236828089,-0.278252304,0.759625196,0.313840717,-0.485686779,-0.216457501,-0.038019367,1.049315691,-1.256064653,0.923198879,1.026979804,-2.164271832,-0.312534988,-1.565287828,-0.155072868,0.139818549,-0.652417302,-0.486749083,-0.794533491,1.088631511,0.705278456,0.299780667,-0.293572813,0.998766482,-0.078409292,1.632776022,-0.151906565,0.802354336,1.787708998,0.429660469,-1.555272818,-1.686034799,1.60981071,-0.035027176,-0.798828781,0.510693014,1.648418307,0.235028252,-1.253848553,1.192135811,-0.270232469,-0.251467556,0.093636625,-0.208493456,0.427585572,0.5540663,-1.275678515,-3.586755753,-1.254242539,-0.742891431,-0.725007296,0.805448294,0.010190323,-0.798688591,-0.319131672,-0.205415666,-1.359537721,-1.724907994,0.100962304,0.421813548,-1.643456101,-0.488829762,1.274406075,-0.025619388,-1.252927899,1.290085196,0.028054889,2.410573483,-0.860058904,0.614863813,-0.78837353,0.238195896,-0.28545332,0.727912128,-1.540125608,-0.523684859,-1.548999071,0.170096919,0.165937766,1.176943898,-0.724056304,-1.998572707,1.72452271,-0.46586147,-1.223187208,0.278280616,1.722961903,0.69395256,-0.155528575,1.081699848,-0.328361958,-1.446534753,0.928804517,1.20019269,0.383169293,-0.751975477,-0.465576202,0.289803654,0.587050319,-0.264462024,-0.568037748,-1.081646919,-1.046471953,0.409054786,-0.741234362,-1.226414919,-0.051999267,1.813400984,-0.177794933,-0.045413215,-0.711250544,0.538007021,0.571718752,1.439808607,0.169282913,-0.537955761,-0.919754624,2.029085398,0.049384538,-0.382271707,-1.50070858
57,-0.087677918,-0.226736009,0.600969493,-0.030392766,0.779857874,1.284174562,-2.575577974,0.865558207,1.616716504,-0.614310324,0.874338508,0.11100167,1.725664496,-0.009230381,-1.506381512,0.679618895,1.187495947,2.20224762,-1.481846213,-0.099225618,0.628720701,-1.028244615,0.820803881,1.518377066,0.919087112,0.234622613,0.475877345,-0.296779752,-0.530723572,0.185376287,0.292370617,-0.946941853,-0.139504999,0.207611889,1.548073173,-1.29747951,1.201987624,-0.012265178,0.798343539,0.378627032,0.049885139,-0.635264099,-0.061193608,-0.585944533,0.804601669,-0.060091164,0.486324042,-0.528612733,2.304330111,-0.978474736,1.965937972,-1.218056202,-0.311816067,0.239180818,1.797653794,-1.55325985,1.095373988,1.18051827,-1.233098626,0.06331972,0.000699233,-1.034738898,0.457932889,0.438754022,0.506648302,-0.617630839,-1.096383691,-1.035554528,0.016796501,0.897147954,-0.234762788,0.88337487,-0.599653244,-0.649381101,-0.498684734,0.000979417,1.518309832,0.645817995,0.475348681,0.128289863,-0.739558816,-1.21272862,-0.809845626,1.758687496,-1.298624396,-0.480130762,0.130296811,0.118442006,0.895127118,0.632305205,0.461391062,-1.820193291,-1.816745639,0.179686427,-1.276162505,1.008951783,-0.247273609,0.784783244,0.60147965,0.109148532,0.614179015,0.311692715,0.117506512,1.487060666,1.266763687,1.195386171,1.122072458,-0.488966763,0.999835968,-1.494211078,-1.214704037,0.682000816,-1.593553185,0.633261681,1.955148935,-1.672744989,0.941337109,1.994216442,-1.290798306,1.397293329,-0.359181106,-0.405804306,-1.020224094
58,0.332909107,0.600578845,-1.271311641,-0.323729277,0.227030024,0.593652189,0.472203255,-0.67594552,-0.567356765,-0.156073004,-0.842732906,-0.029270357,1.564126372,-0.388255268,-0.388400823,0.619654238,0.151073068,1.169732094,-0.530587614,0.726337016,-0.723358095,-0.386690408,-0.356626928,-0.461864471,-1.588354707,-0.152045459,0.641680658,1.60484767,1.0435431,0.072542451,0.646982253,-0.63490808,0.495308727,0.936484814,1.057854176,0.123457231,0.662043929,0.041788884,1.350016117,0.090746216,1.280975461,-0.343077421,-2.011157513,1.275443673,-0.969132304,0.624747217,0.361742705,-0.938369036,-0.10894046,-0.124670833,-0.066936485,0.161182389,0.455384105,0.144969285,-1.49123621,-0.266837895,1.719690204,-1.712645769,2.923637152,0.078421868,0.975774944,-1.217754126,0.602718174,-0.144417152,1.972018957,0.661142647,0.668331921,1.866566539,-0.432881415,-0.475482494,0.325748503,-1.354797959,1.111091852,-0.849706113,-0.343529105,0.000156099,-0.744530916,-0.886962175,3.051232815,-0.656605721,0.088031895,-0.310787082,0.602257073,-0.740026414,0.314415663,-0.34928292,-0.344703615,-1.056443334,0.651232302,-0.568764508,1.027270555,-0.189661905,0.727215409,-0.017210672,-0.59390825,1.055726528,0.678024769,-0.253166646,-2.248100758,-0.423094302,0.201417997,0.170610085,2.599642515,0.204427838,0.979039073,0.750894904,0.701019347,-0.705141544,0.349162549,-0.201526091,-1.137537837,0.372208357,0.582951009,-0.106062815,-2.265782356,-0.511607111,0.381864548,1.317329288,0.289663404,0.529054463,-0.58002764,0.961309969,-1.997200251
59,-0.625237882,0.884386778,-0.365677685,-0.497986943,-1.135130763,-1.2815907,-0.38123104,-0.597869575,-0.307854593,-0.365199715,0.015540945,-2.054594278,1.491336107,2.119918346,-0.381591737,0.51031512,-3.116335154,-0.596243024,-0.946986854,1.325872064,0.60070014,-0.480175555,-0.871598899,-0.353420794,0.737066805,-0.821999371,-1.369312167,0.545855045,-0.457153976,0.926993668,0.062793002,-0.681118309,-0.613536656,-1.231331468,-0.063048407,-0.266209304,-2.084708691,-0.105807118,-0.495714515,-1.023415446,-0.36410448,0.234978095,0.243962198,0.37928316,-0.205313489,0.579446793,-1.26744163,-1.388710618,0.609426022,0.404392213,1.719687104,0.495408297,-1.795942783,1.344905376,0.833716691,-0.719472587,0.780010343,0.066361219,1.01520288,0.456580937,1.777490139,0.364458591,-0.201480284,-0.309481502,1.549090266,-0.76096499,1.074976206,0.781320691,-0.218731955,-0.650248528,-1.688144445,-0.481543928,-2.491127014,-0.777387857,-0.814661145,-0.745376766,1.432628989,-0.062992513,1.734873056,1.421425819,1.01341033,-1.562890291,-0.394029319,-0.130095899,-2.827466249,0.432991832,0.401039839,2.141428471,0.249366596,0.600284755,-0.829450548,0.349788785,0.500281036,-0.503714442,0.423042595,0.392978847,-1.90901351,-1.66323483,1.020549774,0.917209089,-0.022529423,0.123874962,0.169099495,1.116206169,0.550055206,-0.487821072,-0.093184493,0.610796154,-0.733947694,0.215342328,2.372923851,0.614582121,0.395160884,0.183932573,0.177920833,-0.443137676,-1.135801911,1.650372863,0.584830403,0.374594569,0.236449093,-0.165900052,0.016542524
60,0.255630016,-0.572226048,0.7815364,-0.023980534,-0.0512648,0.076085478,-0.277678549,0.371425837,0.209533259,-0.469786644,-0.155825034,0.87920779,0.408625484,-1.540956378,-1.51614666,-1.644318581,-1.284137726,1.104452014,0.092675209,-0.577732027,0.116722941,0.178983808,0.550658584,1.609318137,-1.608045101,-0.286336005,-0.844932616,0.606336176,-0.193467572,0.137093887,-1.236266732,1.731293201,0.897540331,1.506330132,-0.19451569,0.547641158,0.423839331,-0.160431817,1.159572601,0.896457791,0.108243242,-0.291458249,-0.015922021,0.424117118,-1.332676888,-0.397342443,1.142068863,-0.881013095,-1.529763937,0.58667618,1.086669445,-1.529170156,-0.602537274,0.687248886,0.054153938,-0.013196757,-0.681147635,0.351397276,-0.120961189,0.506274819,-0.261029333,0.506914139,0.524029255,0.01912166,-0.632018626,-1.536528707,1.324225903,1.369978666,-0.069843993,1.459363699,-0.477205545,-1.135673761,0.099700689,0.18386656,1.314290166,0.352406591,0.538510501,-0.169128746,-0.977229595,0.026557034,0.760397732,-2.720973253,-0.300025076,0.362928629,-0.829416394,-1.362780094,0.271972328,-0.993479192,-0.086694159,1.358573794,-0.619191051,0.857378125,1.70546627,1.506797433,0.184473753,-0.261766255,-1.067371607,-0.150363192,-0.276470721,-0.339874893,0.265682161,0.41310671,-1.070523977,0.898275018,0.107449837,0.564963698,-0.124042273,-0.70717448,0.607598543,-0.795624077,-0.006364526,-0.489016324,0.37344557,-0.220827475,0.774498641,-0.974128902,-1.599186778,0.989968419,1.198137522,0.154304713,0.31841743,0.645028412,-0.609089613
61,-0.966126561,-0.685424447,-0.164857551,-0.462408811,-1.551372051,0.813432038,0.811629832,0.860965788,-0.689058304,0.291309625,1.111831069,-0.477621824,1.402680993,-0.358518511,-0.532180607,1.085226893,-0.454650879,1.818829417,0.92520541,0.828838944,-1.674982071,1.800585508,-0.673456132,1.959216952,-0.439733773,-0.032726929,0.883083105,-1.717771649,0.227552176,0.451022387,-0.880209565,-0.832700074,-0.447883517,-0.172688171,0.213530332,1.488201499,1.966372371,0.401496023,0.209317014,-0.350388914,1.027279735,-0.459869474,-0.73290062,-1.062241197,1.15505147,0.700393081,-0.843160033,-0.730197787,1.344738126,-1.571605682,0.032618057,0.560392559,-0.483265579,0.723657608,-1.047056913,-1.415268302,1.152285457,-1.011661649,-1.130523443,0.800536394,-0.352312893,0.084993616,-0.573612452,-1.236561894,-0.203773543,-1.49459064,0.714437306,0.805768013,0.000990428,1.509506941,0.741849124,0.131968915,-1.132077813,-1.319311738,1.234083891,0.967354894,0.979783714,0.712172508,-0.007023572,-0.445249021,0.849084258,-0.615975082,-0.30559653,-1.044891357,0.325499088,-0.773357689,-0.565057456,0.611230373,0.779270351,0.458164275,0.520288527,1.249014378,0.684622169,-0.262079865,-1.329879403,0.96326381,1.156398535,1.173283577,-0.910111129,-2.365099907,-0.138725415,0.084861122,1.501863122,0.034820996,-1.398437858,0.76575309,-0.696144342,-1.272786379,-0.118541464,-0.385747194,2.282977819,-0.32030049,1.865377665,1.39214766,-0.348258674,2.304068565,1.989372015,0.823999882,-0.49850738,-0.259026468,-0.020766927,-0.005380513,0.038794715
62,-0.012908522,-1.06627512,-1.801271319,-0.369822711,-0.552046418,-0.16890724,-0.199641898,-0.503491402,-0.641189277,0.125601202,-0.306987375,0.230825245,0.134819135,0.888527989,0.022598511,-0.090559252,-0.416662306,-0.440453112,0.338462651,-0.062086556,0.46519044,0.547364593,0.36018309,-0.709873617,-0.509236217,1.580577254,-1.076454043,-0.402333766,0.751063526,-0.38687557,0.15832001,-0.218733534,0.91923362,-0.646388531,0.275355458,-0.438424081,0.543548882,0.801864207,-1.98610127,-1.675593138,1.232155561,-0.71327585,-0.617850661,1.139866352,0.77124685,0.76538986,-0.971571326,-0.29095003,0.247349367,-0.964433968,-2.241670132,1.198251486,-0.135901213,0.791723013,0.597553551,-2.443155289,-0.621948719,0.830247521,-0.308151543,-0.2807796,-1.321169138,-0.594774306,0.744011462,-1.009521842,1.219156504,0.033692311,-1.814232349,0.103733554,-0.100529641,-0.537214637,-1.000712276,0.746800363,1.569907904,0.653312564,-1.069587708,1.599504471,-0.62094152,-0.936248004,-0.907752156,-0.535664797,0.306414783,-1.122012138,-1.622062922,-0.883732736,0.279711515,0.095630899,0.393443614,2.358394623,-0.060671795,1.73271656,0.205468372,1.207750916,-0.981681287,-1.20861423,0.05915466,-2.376805067,0.512170732,-1.46761167,-0.083512381,-0.041125163,-2.381455183,-0.225676253,-1.064649105,0.108018838,-0.896435022,-1.549291134,-1.170309782,-2.007334948,-1.271436334,-0.69116956,0.121644683,0.833083689,-0.723293662,0.087852128,0.330444008,0.213884786,-0.110491112,-0.652806699,-1.686592817,2.302850962,0.734202206,0.303388655,0.343396902
